218 64
minecraft:air -0.012345685 0.1610021 0.0014057815 -0.14266491 0.1947619 -0.12577409 0.17242138 0.22866419 0.05193117 0.13704039 0.11478749 -0.19803928 0.08692117 0.08848045 -0.16488035 0.13621937 0.82989496 0.19850892 0.14572899 -0.0054364405 -0.23303248 0.14517844 -0.14545004 -0.17371918 -0.14059274 0.053828478 0.13152859 -0.1100556 -0.020076865 0.23916166 -0.120638825 -0.22401096 0.046421625 0.04337512 0.06785735 0.036224157 -0.040972136 0.24507679 0.23044044 0.113228984 0.23576638 -0.08781411 0.22957228 -0.07976807 0.15178181 -0.15382499 0.0913941 0.1148857 0.19134846 0.09777725 -0.16599187 -0.09512087 -0.12805226 0.1835856 0.05867937 0.026707621 -0.023330579 -0.17978191 -0.017631764 -0.15543634 -0.65880805 0.020915603 0.3216958 -0.16451782
minecraft:planks -0.120207705 0.08217626 -0.035522733 -0.059126858 0.43653083 -0.60846233 0.2741828 0.026737088 0.20792452 0.2735111 0.23599294 -0.052026182 -0.027667163 0.09049001 -0.021078287 0.035798788 0.45169184 0.4079501 0.15984592 -0.055945646 -0.86523956 0.97216856 -0.2175323 0.09803226 -0.20734486 0.2382625 0.21883006 -0.11207497 -0.1503938 -0.31093946 -0.46634388 -0.3622838 0.16649006 0.29798847 0.3939359 0.1757871 -0.068179734 0.41370714 0.28396833 0.12660506 0.3679745 -0.090330504 0.17052175 -0.052228123 0.7259146 -0.54449093 -0.050465997 0.008047804 -0.060012113 0.027235268 0.090272605 -0.079176955 0.06662064 0.71357095 0.078389175 -0.035560828 -0.08911354 -0.40358835 0.029654957 -0.526354 0.16328064 0.03061838 -0.13872492 -0.11844054
minecraft:redstone_block 0.21313033 0.19720635 -0.49198124 -0.151593 1.1922202 0.049334005 -0.3242965 0.6677359 0.22035728 0.7701591 0.8878783 0.11145268 0.26515752 0.72880626 -0.67523366 -0.1269191 0.23464373 -0.07325855 -0.012328159 0.20204008 -0.28326064 -0.35260558 0.2251123 0.22856438 0.47600108 -0.022968264 0.027192231 0.19315359 0.05384707 0.3805127 -0.3737582 -0.11003316 -0.14823686 0.32396388 -0.76693034 1.2094219 -0.16834438 0.8645775 1.1192778 0.6606017 1.5469266 0.028299065 -0.15584868 -0.16837043 0.68087995 -0.0506697 0.4995439 -0.12100814 -0.32340974 0.5857421 -0.5842705 0.07819946 -0.05953086 0.1889256 0.5869108 -0.27745157 -0.08674819 0.6089276 -0.19507939 0.10030013 -0.5146897 -0.40977874 0.25967914 0.3204392
minecraft:redstone_lamp -0.24051335 1.0605754 0.103752494 0.028471038 1.1277517 -0.57099503 0.13045667 -0.0028735192 0.7108679 0.67543226 0.20301105 0.15540588 0.56393594 0.11078768 0.16389623 -0.048819203 -0.016013552 -0.008039385 -0.25341913 0.017759386 -0.10683649 -0.21434897 -0.06338744 0.21056904 0.037653845 0.09626542 0.32062513 0.2754337 0.018521706 0.19292781 -0.802542 -1.1692098 0.017257154 0.2826998 -0.54486346 0.1551896 -0.72959954 0.104093805 1.3670182 -0.3679067 1.1470348 0.35354084 -0.11989325 0.1925372 0.45952496 -0.118828125 -0.0715318 -0.03730125 -0.1774359 0.6119818 -0.032244246 -0.41304767 0.5200982 0.08024163 0.25977266 -0.39248595 0.09630526 0.07678084 -0.46362844 0.06080375 -0.23634644 0.09531498 -0.23057015 0.24086925
minecraft:wooden_slab 0.080872126 0.0732726 0.017027661 -0.0025068198 0.6849364 -0.57028455 0.08529729 -0.007915975 0.57735586 0.6570162 0.9596328 -0.07762797 0.021011248 -0.075097404 0.0861193 -0.13240847 0.26380712 0.68691796 -0.21260764 0.02833457 0.02316097 0.1407564 -0.1595934 -0.31736842 -0.19081974 0.20669276 0.22247997 -0.76964587 -0.36458755 -0.1794044 -0.04535092 -0.7092912 0.4733875 -0.24946627 -0.21367615 -0.18749154 -0.06787416 0.31202164 0.6825313 0.24046849 -0.13917829 -0.65285456 -0.0912239 0.05776641 0.90778047 -0.70163465 -0.07866375 0.34148708 0.28468758 -0.0034251777 0.03198082 0.1551627 -0.08583733 0.45219803 0.0060519716 0.1749747 0.3230139 -0.32701245 -0.29921666 -0.66552716 -0.53359 -0.050868943 -0.13843575 0.15186413
minecraft:glass 0.23826219 0.39921626 0.09585518 0.022501381 -0.26516786 -0.54593074 -0.04927194 -0.008715087 0.57481444 -0.12833185 -0.051911317 -0.6036843 -0.057061467 0.42746016 0.24812561 0.6924469 -0.08353576 -0.102578856 0.60950303 -0.12652808 -0.46310878 0.2173057 -0.009571958 -0.45612144 -0.31918758 0.39233503 0.19748834 -0.14652105 0.09934973 0.250604 -0.21629164 -0.58334184 0.56767863 -0.23088174 0.3081932 -0.2623705 -0.14343469 0.4078922 0.6920053 0.07548121 0.57996714 0.082480006 0.680468 -0.6503947 0.15919296 0.10238471 0.33023223 0.29559726 -0.24935733 0.0010547607 -0.03894646 0.081256844 -0.07722766 -0.13497064 -0.11697417 -0.083047174 -0.63712966 0.17793168 -0.43114126 -0.2589332 -0.1862879 -0.15132955 0.0140968915 -0.7468931
minecraft:carpet -0.4697922 0.32308728 0.111145444 -0.5621491 -0.102774374 -0.414087 0.22503057 0.8410247 -0.3963275 0.4245686 0.43011606 -0.38959917 0.40803984 0.15485507 0.19690207 0.0519328 -0.10023682 0.6137461 0.37630114 0.25542915 -0.03275436 0.34921932 -0.037206985 0.017272165 -0.10526027 -0.0073190504 0.01883089 -0.4497499 0.19688006 -0.005898567 -0.22516355 0.003100195 0.052376617 0.6487656 -0.15060537 0.03828632 -0.29538167 0.20010765 0.39835557 0.5467957 -0.036541272 -0.33540273 0.50027406 -0.7593139 0.59628755 -0.05557547 -0.058442593 0.5143212 0.06542577 0.42296946 0.27139243 -0.3173242 -0.07207521 0.23544745 0.4025953 0.068617135 0.11757587 0.022738433 -0.16180708 0.1035566 0.21010247 0.049968757 0.14867254 -1.0131775
minecraft:dark_oak_stairs 0.26747903 1.1181312 -0.09546221 0.15469171 1.4165233 -0.3392843 0.4873743 -0.20731398 0.25243565 0.4037844 0.33424097 0.0724474 0.8201545 0.44654343 0.048219014 -0.20691904 0.5089073 0.089175574 -0.046352755 0.29148385 0.118280254 0.49504486 -0.6462342 0.10607872 -0.583368 0.11647552 0.6286644 -0.35120118 -0.75164294 -0.15698855 -0.73638 -0.10116907 0.27439064 0.39650163 -0.021164656 -0.3980342 -0.023978716 0.8500773 -0.16422541 -0.26829845 0.04124494 -1.138835 0.056390904 0.08671864 0.20517659 -0.45887828 -0.10943102 -0.03720534 0.29972395 -0.07988226 0.174784 0.100050576 -0.23580971 0.65887755 -0.26826343 -0.1296316 -0.11620236 0.009900452 -0.65687937 -0.23527041 -0.72235364 -0.16095683 -0.0011613107 -0.766536
minecraft:torch -0.37445807 0.4188644 -0.13135149 -0.34686145 0.1688703 -0.073216975 -0.087398954 -0.007819147 0.7869337 0.35883972 0.6316494 0.08172491 0.11914863 -0.011358279 0.0977144 0.33703595 0.6889131 0.5326995 0.2314744 -0.12931816 -0.24087612 0.1735438 0.09463108 -0.005758093 0.20084211 0.11658445 0.6863116 0.008247733 -0.53973883 -0.11751988 -0.08232892 0.11054151 0.0829186 0.3556735 0.30096674 -0.025393883 0.10541579 0.032948866 -0.052673727 0.3367339 0.04085864 0.19538498 0.44631392 -0.2598081 -0.061887026 -0.1786002 0.20612955 0.071694724 0.108976066 0.5517729 0.016227957 -0.07375613 0.082223475 0.57227963 0.012313971 0.08333111 -0.22274469 0.21419771 -0.1296929 -0.19901478 -0.5836164 0.025366537 0.112507485 -0.34500325
minecraft:dark_oak_fence 0.030685563 0.19190663 -0.838642 0.3631172 0.6664379 -0.5840567 1.4044362 -0.10511601 -0.30662626 0.17354746 -0.15027751 -0.16275242 0.21080339 0.27085492 -0.64600486 -0.0391322 0.5701673 0.9498268 0.76337546 -0.49320143 0.09065777 0.10584669 -0.55740005 -0.05225894 0.0378328 0.049625736 0.03298825 -0.2517609 -0.1520007 -0.1260137 -0.09412847 -0.044195097 -0.33301166 0.6107651 0.32831 -0.40766096 0.2629061 0.36874974 0.5375061 -0.17770451 0.18456994 0.013579031 0.7178222 -0.9817332 0.4675663 -0.21931769 -0.11190452 0.1914268 0.24550034 0.065969214 -0.091089316 -0.034730926 0.042756893 0.41639197 0.30149135 0.26200312 -0.08968453 -0.5816214 -0.18363163 -0.33648023 -0.5477018 -0.8399697 -0.12886266 0.49384865
minecraft:bookshelf -0.24304985 1.200123 0.32867995 0.14983678 -0.0011971198 -0.28307438 0.20256537 0.45041245 0.13596 -0.08381224 0.38872147 -0.42615277 0.28287426 -0.31801835 0.096005075 1.1376535 0.26067093 0.30807075 0.060853556 -0.07833915 -0.1866395 -0.105644286 -0.043521862 0.12023371 -0.24820215 -0.042845022 0.6584157 -0.31573153 -0.55219406 -0.14547674 -0.26252574 0.04629173 0.18898207 -0.01607753 -0.1339906 0.38676244 0.1404664 0.1163544 -0.046088133 0.44683495 0.15625146 -0.5703423 0.63966227 -0.3664645 0.060414553 -0.19513832 -0.2257327 0.8420981 0.1267481 0.25489292 0.09002615 0.3042995 0.14427638 0.36379004 0.18838012 -0.3634038 0.1442669 -0.83862054 0.17051466 -0.15896894 0.12235576 0.16469082 -0.15077363 0.062731475
minecraft:quartz_stairs -0.3307635 0.40981668 -0.30147558 -0.5003108 0.5969945 -0.0877131 0.40500832 0.6233707 0.17170303 -0.30497265 -0.050595786 -0.8381905 -0.017358897 -0.046011932 0.23058352 -0.22270869 0.32493186 0.29036024 1.1350409 -0.09587507 -0.13633265 0.054083582 -0.54032344 -0.78677315 0.0734918 -0.09570824 0.013134627 0.47181043 -0.16245317 0.36836368 -0.021999704 -0.22698617 -0.32413694 -0.2640941 0.16281965 0.11222724 -0.17216843 0.44299257 0.1929198 0.42067355 0.48710537 -1.1267438 0.09628063 0.04029317 0.39765668 0.011594165 -0.121494144 -0.18439929 0.008652594 0.09177572 -0.6543335 -0.3963854 -0.75082177 -0.30057156 0.012075494 -0.15797901 -0.5074719 0.02594437 0.3971674 -0.078072235 -0.066340275 0.19101939 -0.034897503 0.04638071
minecraft:stone_slab 0.036075473 0.59657353 -0.09662605 -0.42073098 0.1564133 0.0846299 0.44867668 0.6080009 -0.089468434 -0.0026820288 0.08917663 0.15625446 0.2609019 0.20627068 0.034497205 0.012895473 0.009084859 0.84900284 -0.24244557 -0.1452852 -0.4457754 0.07445118 -0.20245649 -0.7284394 -0.21845028 0.3381066 0.25432977 0.24339329 -0.53788 0.74303406 0.023468304 0.043962542 0.35336715 0.0012190626 0.45919046 0.13980462 -0.04923406 -0.092001274 0.14769968 -0.18488503 0.7513838 -0.33152592 0.7358473 0.07927412 -0.1200695 -0.63698596 -0.072710186 -0.06920746 0.44575667 0.3685266 -0.41950634 -0.49103203 0.012871027 -0.34957752 -0.020951515 -0.010792382 -0.115279324 0.012404824 0.292959 -0.27444345 -0.17261323 0.10978267 0.2740018 0.21256451
minecraft:bed -0.15140983 1.0824112 -0.42450836 -0.5239491 0.19054665 -0.027270619 0.18287954 1.0434843 -0.15176584 -0.043800686 0.047644522 -0.00792452 0.02462996 0.06901962 -0.13312612 0.8817197 0.19362271 0.0026863508 0.41035104 0.06655457 0.23980966 0.09128867 -0.25563037 0.099115714 -0.027152067 0.14235379 0.22625376 -0.48666394 -0.049250472 -0.20668846 -0.3563671 -0.37825224 0.08626201 0.11317118 0.4048246 0.25155687 -0.15775342 0.04386792 0.09799648 0.4179817 0.05535814 0.04677857 0.15579952 -0.0821984 0.3929148 -0.13023888 0.14455232 0.85626525 -0.20748164 0.16980977 0.24053192 0.2383613 0.13013269 0.066198066 0.102018796 0.7558558 0.15973622 -0.18368758 -0.23788859 0.12396081 -0.0181384 0.3387463 -0.16560861 -0.46961492
minecraft:dark_oak_door 0.040032364 0.51253253 -0.10096112 0.05761093 0.5602702 0.17521268 0.18837522 -0.20302455 0.35762098 0.19876705 0.91726243 0.15265399 0.6673058 0.18752873 -0.6809389 0.10638896 -0.09628351 -0.50975317 0.65329826 0.0838103 -0.26497477 0.36595267 -0.20899037 -0.24531794 -0.039661113 -0.114796594 0.20208538 -0.4139904 -0.57955563 0.34507185 -0.6080684 0.013017099 -0.45439923 0.2566169 0.33491203 -0.32003546 -0.12678939 -0.31413907 0.4896016 0.11526345 0.7475219 -0.34781888 0.19392279 -0.69093853 0.5050605 -0.121547356 -0.26751497 0.22725177 -0.36804357 0.39788985 0.20505819 -0.14874241 -0.030211039 0.068934545 0.46161345 0.12677176 -0.5048922 0.07047185 0.18498991 0.086649895 -0.16812345 0.2176995 0.0754224 -0.34547064
minecraft:spruce_stairs -0.49375024 -0.2509933 0.070377685 0.00075906585 0.6042594 -0.78691083 0.38932052 -0.2257096 0.268457 0.78884584 0.81652504 0.017718084 -0.33818525 -0.13625793 0.05255512 -0.18673381 0.50681365 -0.0067313183 0.022223813 -0.14397468 -0.7653645 0.6383545 -0.63529927 -0.28933558 -0.39849353 0.1252324 -0.20584781 0.1380708 -0.65553486 0.062164493 -0.17398661 -0.11732465 0.7923592 0.1310333 0.23788828 -0.45556918 -0.56808376 0.47917894 0.7402407 0.08235585 0.03565336 -1.0389724 0.5920935 -0.60180795 0.4109434 -0.1618359 -0.12717009 0.418789 0.2384446 0.18507524 -0.44005078 0.23042089 0.368778 0.55051273 -0.05817829 0.79901713 0.26178807 -0.5723952 -0.5823191 0.034546345 -0.23409681 0.41365588 0.03985902 0.09012989
minecraft:oak_stairs 0.24895467 -0.09315632 0.12759006 0.2868043 0.60215527 -0.20318854 -0.050181177 0.16628923 0.8215812 0.54686844 0.9236217 0.36231664 0.21073292 0.493037 0.03548029 0.9112459 0.33637774 0.6868451 0.005278893 0.06807934 -0.22043788 0.18964523 0.31326205 -0.010531838 -0.45080522 0.14636765 -0.0065539693 -0.53079814 -0.24044389 -0.14223662 -0.07019539 -0.5693939 -0.06042656 0.40545285 0.63121146 0.33550078 -0.8413214 0.44852483 -0.15072694 -0.20148511 0.12651494 -0.54932874 0.18725705 -0.33326963 0.3358476 -0.9767453 0.017648427 -0.11045314 0.45600653 0.15409023 -0.039198738 0.43557945 0.14923248 0.7438135 0.30865705 -0.10005536 -0.10532628 -0.91094065 -0.12983702 -0.36966813 -0.8108607 -0.2980833 -0.20367084 -0.5118798
minecraft:wool -0.16363528 0.111805335 -0.020781584 0.17495114 -0.25392213 0.22018087 0.46454734 0.5883601 0.47856322 0.2995757 -0.22786604 -0.21199077 0.65398717 0.36617395 -0.19332825 0.4482696 -0.25151038 0.34079257 0.06380809 0.18972479 -0.01551727 -0.094596736 -0.20932625 -0.26928467 0.21527779 -0.34360275 -0.046297733 -0.014796731 0.14237334 -0.1193421 -0.49558237 -0.62984043 0.2967477 -0.16564475 0.5418467 -0.20244135 0.13672735 1.0402238 0.19981976 0.50723493 -0.08790423 0.179589 0.53268814 -0.4503432 0.7610375 0.13624325 0.5684437 0.053666174 0.10818573 0.66535616 -0.85685736 0.12214681 -0.73803395 0.6506945 -0.25048915 -0.21148391 -0.12860724 -0.27183807 0.09708883 -0.1094557 -0.33155775 0.3543249 -0.18985431 -0.16685222
minecraft:wooden_door -0.36791366 -0.07945998 -0.3255397 -0.38457838 0.41185573 -0.54587996 0.18186577 -0.44578695 0.04603609 0.3227861 0.4195481 -0.16882573 0.07274787 0.4133628 -0.20316096 1.2774961 0.4218851 0.43805456 -0.02885731 -0.6204446 -0.082014315 0.19819897 0.093604766 0.37138626 0.043421403 0.51171005 -0.12611048 0.08495596 0.19228986 -0.24078265 -0.16028735 -0.23054758 0.40605325 0.02202376 0.02333687 0.122919366 -0.116178244 0.10693857 0.018961048 0.58216673 0.5205151 -0.25701007 0.52000576 -0.50598663 0.5256868 -0.6982022 0.23026235 0.15641828 0.3248136 0.57797503 0.41862297 -0.37249902 -0.5158119 -0.10509899 0.4456832 0.22955455 -0.7825744 -0.16213459 -0.3132668 0.21001044 -0.073752105 0.20400296 -0.14568299 -0.18874045
minecraft:glass_pane 0.22000252 0.016070653 -0.22993836 0.046661675 0.5699218 -0.5399642 -0.02255858 0.77257806 0.5901834 -0.27473626 0.30484053 -0.28127968 0.191033 0.16897611 -0.3522246 0.33176374 0.27454802 0.31052792 0.037524648 -0.375564 -0.42029935 -0.15797083 -0.6481758 -0.40757066 -0.009169651 0.31454635 0.5106141 0.13624293 -0.35147437 -0.42493862 -0.38661143 0.28058267 0.503684 -0.28924966 -0.1671627 0.26245973 -0.3784849 0.24627088 0.4505346 -0.21299763 -0.088003166 -0.083619356 0.41488117 0.2855236 0.34655008 -0.2244784 0.020421846 0.45402738 0.1265997 0.12476768 0.06922725 -0.3643008 0.094366245 0.34296188 0.31346306 0.35814926 -0.43449533 -0.3328665 0.24549063 0.40409935 -0.17134918 -0.24942788 0.37045315 -0.9901819
minecraft:brick_block 0.20455429 -0.12676255 -0.15244271 -0.09574763 -0.07556055 0.03049272 0.83518374 -0.2645978 0.27988225 0.07810426 0.18598422 -1.1037623 0.3039448 0.55016845 0.02877577 0.27674788 0.11967212 0.40575176 -0.11648099 0.1478876 -0.8346854 -0.04453227 -0.02126402 -0.53996515 -0.7289956 0.30270272 0.14275515 0.30598122 -0.19699283 -0.06467056 -0.5029 0.26017746 0.211826 0.18418045 0.52015847 0.44567287 0.20925471 -0.18112846 0.6792989 -0.19721764 0.19578002 -0.075090885 -0.2745359 -0.63223577 0.27995217 -0.9020265 0.1493793 0.28226146 0.52554655 0.43307486 0.17518699 -0.08293893 -0.5361824 0.5954359 0.01229993 -0.08650576 0.22609207 -0.6666589 -0.2289024 0.2709973 0.026322395 0.30821115 0.15500985 -0.16012059
minecraft:concrete -0.08303664 0.36886492 0.12969285 0.15778689 0.35860154 0.12238195 -0.32616314 0.2563926 -0.2950937 0.05517066 0.36999464 -0.20495467 0.5328712 -0.005048012 0.32619017 -0.11974368 0.3625948 -0.13844182 0.30788937 -0.123229235 0.13396768 0.352746 -0.19023034 -0.5878775 -0.91213846 -0.12646738 0.28708142 0.23659748 -0.090043634 0.13568586 -0.4643044 -0.6088924 -0.2285104 0.037564456 -0.08016964 0.14432892 -0.44289342 0.1317092 0.8567829 0.35827816 -0.012326582 -0.18791635 -0.0035630427 -0.13758816 0.5707245 -0.59712785 0.5701133 -0.107677296 0.81858414 -0.16326705 -1.2092808 -0.30718565 0.0088882 -0.22653429 0.42171565 -0.0021243826 -0.22645462 0.09259217 -0.008907029 -0.02024923 0.29818246 0.04586201 0.27120528 0.06010539
minecraft:double_stone_slab 0.45935315 0.25969332 0.017973589 -0.46186423 0.15278685 0.109301165 0.17203455 0.3414072 -0.106774345 -0.24629025 0.36386117 -0.37203163 0.56931865 0.015210799 0.022077477 -0.042294305 -0.36947316 0.8232201 -0.14564435 -0.27676332 -0.033232473 -0.14989561 -0.6607576 -0.5222147 -0.30165425 0.44797546 0.5312315 0.13695948 -0.3137978 0.3406314 0.22731702 0.002368575 0.0549328 0.76853067 1.035843 0.15501416 0.15821795 -0.11322241 0.6806378 -0.20433632 0.9528362 0.2092002 0.92355675 0.09839592 -0.21159343 -0.75507355 -0.112703905 0.26093426 0.21552543 0.06777994 -0.40955877 -0.7987763 0.0398824 -0.25901106 0.3094487 0.28807503 -0.09431499 -0.115481466 0.0471189 -0.017434096 -0.57235783 0.40720314 -0.16745465 0.29835644
minecraft:stained_glass_pane -0.033430424 0.18684208 0.07539615 -0.6465757 1.1192054 0.07843391 0.41458312 0.7440714 0.4264622 0.78658473 -0.053832337 0.28680182 0.5912038 -0.2229013 0.32913938 0.13891037 0.33059272 -0.036466543 0.34090528 -0.043545038 -0.16673887 -0.27053183 -0.10219639 -0.57031703 -0.6130444 -0.18712327 -0.16409364 -0.006393614 -0.287238 -0.14262559 0.3131788 -0.086329706 0.2909495 0.31430757 0.23422363 0.31535357 0.25239363 0.58055323 -0.25508866 0.6024743 0.33986074 -0.02723725 0.019474665 -0.36067483 0.362781 -0.14050902 -0.088068336 0.21668546 0.25408736 0.25120607 -0.34996486 0.23417002 -0.12656534 -0.27952838 -0.15669163 0.4461412 -0.0672184 -0.49411952 0.19120255 -0.3153157 -0.08382976 -0.02610027 0.4022828 0.22307998
minecraft:cobblestone 0.050211508 0.03565286 -0.10695323 0.11795416 0.19396225 -0.37154087 0.52225435 0.5001662 0.48343632 -0.33040175 0.5527584 0.37215582 0.00312347 0.57263315 -0.09830424 0.5269169 -0.05947201 -0.076704435 0.3911385 0.083130315 -0.8077846 0.36510527 -0.6039707 0.10701878 -0.3891367 0.7436187 -0.35381666 -0.33126503 -0.17471059 0.07655593 0.27202457 -0.5733564 0.19418295 0.59484607 -0.41116413 -0.17320423 -0.018226901 -0.22369084 0.49951708 -0.2998011 0.16583788 -0.018085888 0.5747323 -0.15669326 -0.24151625 -0.3103255 0.2006918 -0.33539233 0.87817705 0.6832136 0.10572987 -0.27944463 -0.5715757 0.93546355 -0.29000154 -0.108664624 0.43627578 -0.3839182 0.12512833 -0.40294966 0.0086930385 -0.009559655 0.09006576 -0.4801757
minecraft:log 0.16136232 0.16226135 0.061234515 -0.0032526613 0.41526613 -0.8516556 0.80782855 0.0056266305 0.13611346 0.3848373 0.7099387 0.15450138 0.03770471 0.27318165 -0.14012495 0.021372627 -0.12741385 -0.18037021 -0.18607923 -0.010241483 -0.6965986 1.2767451 -0.38383836 -0.07293746 0.05798556 -0.07759863 0.41373158 -0.3264222 -0.21712339 -0.14044267 0.3495164 -0.6826215 0.22361495 -0.27192613 0.41687256 -0.15893842 -0.36555752 0.79594016 -0.16333948 -0.045629047 0.27088848 0.27472812 -0.23807856 -0.10023597 -0.14167008 -0.70166284 0.107475415 0.5265323 0.74667406 0.37020952 -0.3029299 0.037300806 0.01264619 0.35020405 0.1493111 0.039741475 -0.1967613 -0.34428078 -0.0002662585 0.15825438 -0.14387217 -0.11255825 0.14040557 -0.05084384
minecraft:flower_pot 0.37702373 0.43578547 0.11533947 -0.0725608 -0.19217421 0.14168417 0.031370718 0.3248385 0.6355653 0.18732299 0.22623868 -0.18384187 -0.37493193 -0.16060337 -0.08379815 0.37863642 0.61333746 0.08007231 0.12916678 -0.06232051 0.054680508 0.4362866 -0.41345075 0.06969108 -0.3932567 0.34234327 0.048884276 -0.67533994 -0.38059744 -0.32786426 0.06612113 -0.1246663 0.31992924 0.24759093 0.58134556 0.55262095 -0.2137666 0.06609058 0.24349947 0.21133415 0.19229388 -0.2639891 0.0841309 0.028933177 0.4162856 -0.48432866 0.19866362 0.3617359 0.21323347 0.40742528 0.23065688 -0.00027553027 -0.20495278 -0.24573146 0.28648883 0.19707304 0.09852887 0.04873797 -0.1063463 -0.40120083 0.040090963 0.15079488 -0.17804492 -0.53375834
minecraft:stone_stairs 0.050042566 0.6597558 0.08016941 -0.05759955 0.56560105 -0.7067723 -0.03853562 0.020184813 -0.10875595 0.24208641 -0.05867164 0.31678024 0.6006486 0.68369305 -0.8970117 0.5748074 -0.14404033 -0.22367135 -0.28734097 0.1740895 -1.1846566 0.32981446 -0.80981946 -0.080865644 -0.14921886 0.45564216 -0.20318134 -0.11699226 -0.6367306 0.44521406 0.4144146 0.07591454 0.29502544 0.48375404 0.2046875 -0.2231963 -0.025552727 0.08852112 0.51023805 -0.2816517 0.8462479 -0.41258657 0.4219557 -0.26457164 -0.18666829 -0.67662096 -0.21235144 -0.021889055 1.2144115 0.4689341 0.095112056 -0.13580835 0.13448018 0.7485326 -0.29263574 -0.28122842 0.40141732 -0.05440038 -0.19739476 -0.6357579 -0.23380843 -0.17313927 -0.23601936 -0.72316223
minecraft:chest -0.78881913 1.477105 0.28423768 -0.26615065 0.34617513 0.03203621 -0.0006110611 0.27653933 0.54022586 0.25007132 -0.06850204 0.04068365 0.05630188 0.10229856 0.040709175 1.0951409 -0.054256618 0.028124133 0.281069 -0.04407375 -0.11627101 0.47770348 -0.25130013 0.033009954 -0.13892253 0.28798312 0.27366993 -0.5476008 0.002009146 0.12744112 -0.18232223 -0.14142813 0.050695855 0.023706539 -0.07707379 0.237675 -0.089434884 -0.009927211 0.17785119 0.2361125 0.043589376 -0.030932369 -0.17647022 0.024500228 0.24936064 -0.3030069 0.26611814 0.4891136 -0.07153628 0.17734973 0.023208203 -0.5877934 0.20110616 0.12195582 -0.07805014 0.22104777 -0.1440898 -0.2141317 -0.10930538 -0.11194732 0.3189146 -0.28257546 0.2956496 -0.46636716
minecraft:trapdoor -0.0004724028 -0.011510954 0.24712302 0.56849164 0.46930054 -0.06625184 0.46452004 0.3246429 0.43133953 0.20517924 0.34153888 -0.18599425 -0.2096226 -0.063957915 -0.13708284 -0.2578011 0.17176197 0.2323154 0.18783347 -0.42172682 0.24478166 0.28115386 -0.60135895 0.28579402 -0.43797693 -0.4345304 0.17509037 -0.23055108 -0.40275645 -0.15527724 -0.5444958 -0.6053011 -0.07934876 -0.058420014 0.478209 0.38988993 -0.5861272 0.3305097 -0.04541204 -0.3601832 -0.3132138 -0.462725 0.20322526 -0.20961386 -0.1126315 -0.60865885 0.29720777 0.6170531 0.74190205 0.14458019 -0.3267466 -0.591156 0.054255463 0.33124512 -0.24328707 0.5093234 -0.55838096 -0.2107543 0.1588587 -0.8516292 0.14085038 -0.13452163 0.02941159 -0.5086268
minecraft:jungle_fence 0.7203273 -0.41577166 0.25727203 -0.37589636 0.8631241 -0.8956483 0.99371123 -0.06208158 0.35299656 0.7964576 -0.032186195 -0.49874032 -0.28899103 -0.16178341 -0.0006680094 0.14795166 0.11014518 0.75038326 -0.088889495 0.18464635 -0.13053617 1.2499461 0.081080854 0.21031928 -0.007388682 0.5631442 -0.19634737 -1.102794 -0.84876 0.13074122 -0.2497798 -0.3334964 0.83127207 -0.12112992 0.15983732 0.5897727 -0.88700074 0.34892395 0.3498833 0.12072811 0.77968913 0.08784827 0.36022905 -0.7640116 -0.028402997 0.20596778 0.32175314 -0.06297941 0.5490177 -0.20218134 0.052820403 -0.32027763 0.3258783 0.2431669 -0.25392368 0.31585094 -0.36835957 -0.40490413 -0.23179626 -0.28741208 -0.13836578 -0.91199654 0.051872797 0.370936
minecraft:jungle_stairs 0.20217347 -0.088894345 -0.19547419 -0.70098233 0.040500216 -0.93943435 0.39846417 -0.2497309 0.186678 0.6445547 0.5284905 -0.19060278 -0.1310587 -0.15370098 0.12017815 -0.30296072 0.3345228 0.5071156 -0.27082363 0.2461912 -0.17636779 0.71568775 0.40757388 0.11601482 -0.828841 -0.33331674 0.07038379 -1.3769329 -0.9040257 -0.091649264 -0.16319524 0.07669561 0.93866247 -0.35730195 -0.14864898 -0.08044906 0.10253747 0.46681923 0.6818521 1.0733297 0.6876516 -0.14115193 -0.1445308 -0.36357576 0.28375396 -0.51482594 -0.25887346 1.3177831 0.032567564 -0.23282848 0.14685407 -0.18598884 0.055272605 1.5331388 0.1003796 0.44398865 -0.3145828 -0.5141978 -0.03291984 -0.4362426 -0.021730807 0.13305704 0.37661192 0.16299725
minecraft:brick_stairs 0.019917788 -0.013201672 0.20031205 -0.73556995 -0.34282833 0.109399006 0.76616335 0.21249 0.9687823 0.7301901 0.342096 -0.18606567 -0.1659591 0.9699818 -0.7514213 0.29083002 0.09540649 -0.2039964 -0.10035334 0.099282116 -0.49930125 -0.17970176 -0.4914772 -0.4241381 -0.92228 -0.11760166 -0.13309725 0.14344116 -0.5060178 0.40299124 0.033334147 0.2762923 0.03220441 0.20476352 0.98811823 0.43686694 -0.27196604 -0.31117597 0.9305056 -0.08510218 0.44923753 0.115286 -0.3876349 -0.2460412 0.08532074 -0.67165834 -0.106656514 -0.16458984 1.3517835 -0.110346735 0.33313397 -0.5476292 -0.802293 -0.15081193 -0.011920597 -0.16709249 0.16343692 -0.3386597 -0.045881458 0.22454286 0.055100296 -0.06258468 0.09625109 0.2136501
minecraft:iron_bars -0.28597173 0.103302605 -0.58613604 0.22491482 -0.028222375 0.093066394 0.491434 0.65505385 0.030374566 0.09816843 -0.041195467 -0.54844433 0.67900836 0.6674568 -0.1923539 0.49336782 0.02938995 0.0645377 0.5107098 -1.2341549 -0.87370205 -0.011572301 0.15455586 0.06791853 0.06135832 0.072122276 -0.02706824 0.093490146 -0.47048357 0.25820476 0.045096442 0.14720432 0.09513743 -0.22636217 -0.21831948 0.28328392 -0.32037398 -0.14138062 0.26725012 -0.32420945 1.0860872 -0.016089326 0.2377453 0.0018352309 -0.41117117 -0.1037494 0.17141934 -0.5339009 0.41501945 0.1162304 -0.035187505 -0.7711955 -0.13405123 0.7220566 0.53509456 0.9732098 0.2114621 0.26425382 -0.14607339 -0.4273616 -0.20355658 -0.2997171 0.5946321 -0.3581619
minecraft:cauldron 0.023078846 0.8575475 0.42253911 -0.090946674 0.36431858 -0.15732777 -0.07877185 0.29520583 0.50456876 0.32873705 -0.20117632 0.23301561 0.018421873 -0.035196755 -0.15363753 0.5805028 0.04210703 0.23021227 0.4262557 -0.9871117 -0.21987128 0.08766119 0.06676932 0.15707026 -0.46915236 0.11994255 0.48717445 0.14173813 0.06158962 -0.091925554 -0.25401324 -0.3647864 -0.03870333 0.2133145 -0.07819652 0.6660112 -0.73730797 0.23222204 -0.022109935 0.029105647 0.0051181335 -0.40203738 0.6058333 -0.22368234 0.14771676 -0.06999077 0.19593632 0.023455642 -0.14860706 0.43838093 0.3399021 -0.72327065 0.05142058 0.24904086 -0.12649946 0.70068616 -0.12827644 -0.13910913 -0.6141784 -0.20356625 0.041627392 -0.51557165 0.11220001 0.18879627
minecraft:furnace -0.07569329 1.3782289 0.618863 -0.5622778 0.32013714 -0.122455895 0.2398501 0.08970026 0.5524947 0.54049355 -0.043998003 -0.188188 -0.12859933 0.29261476 -0.069136396 0.79286194 -0.17674229 0.09734059 0.38998616 -0.3450627 0.08751209 0.28905487 -0.2233787 -0.28002796 0.27397874 -0.07406162 0.3548833 0.07113985 0.33809355 -0.4407973 -0.07372387 0.15197384 0.0060406374 0.27891168 -0.18425255 0.31584635 -0.047400683 0.13349804 0.117688455 0.2335207 0.30932438 -0.119515255 0.12670036 -0.16719484 0.047448102 -0.5168398 0.16058986 0.06683971 -0.21249619 0.31231555 0.10607653 -0.5850561 -0.22675718 0.31653073 -0.27780607 0.43747047 -0.026133094 -0.22099288 -0.3158942 0.15371928 -0.016357923 -0.10258001 0.115481965 -0.52334636
minecraft:enchanting_table 0.12547424 1.0362736 -0.18214354 -0.093769856 -0.21872066 -0.27319112 0.03771663 0.3957498 0.29792404 -0.15368435 0.36760214 -0.61530715 -0.024473747 -0.023208322 -0.051612623 0.82544047 -0.049896188 -0.16393284 0.43688998 -0.5702652 -0.33921397 -0.016541194 0.012579258 0.11845523 -0.12583911 -0.19692034 0.53976125 -0.5137936 -0.11278074 0.06241144 -0.040349502 -0.19784915 0.22975458 0.09276115 -0.2572896 0.28212276 0.2113712 0.23534608 -0.28987464 -0.010592725 0.14599246 -0.4513398 0.51386553 0.016876541 -0.033131633 -0.19068706 -0.0119053675 0.6205434 -0.1625399 0.9451721 0.13221452 0.12514633 0.27429667 0.367052 -0.0050724726 0.27518582 0.012136381 -0.40686405 -0.06701793 0.07306152 0.13364112 0.044333145 0.24378382 -0.3528883
minecraft:fence -0.06942278 -0.024028063 -0.29692048 0.090193346 0.24599347 -0.9928892 0.26162088 -0.3467597 -0.022497978 0.5908299 0.5671019 0.005073415 0.09467809 0.5399135 -0.3636519 0.9113602 0.32371378 0.14576188 -0.40409124 0.184528 -0.047466192 -0.046060354 -0.14907514 -0.16676092 0.14429367 0.8278803 -0.072987825 -0.16170193 -0.23740146 -0.060293864 -0.9553683 -0.23186813 -0.089009136 -0.29583767 0.60407203 -0.21905607 -0.8622949 0.22157378 0.04772611 -0.28383094 0.2436777 -0.15749146 0.31520745 0.059708934 0.17423394 -0.18653245 0.10737255 0.8102254 0.6106003 0.3128975 -0.21839891 -0.4330935 -0.13579942 0.45857626 0.14600924 -0.18404378 -0.44348374 -1.0014905 0.46290216 -0.8786613 -0.03386353 -0.16695589 0.26905492 -0.25037044
minecraft:jungle_door 0.029306084 -0.29579124 0.2056621 -0.4221245 -0.1946616 -0.15307555 0.6587855 -0.3873229 -0.070997015 0.3174911 0.3084288 0.21706255 -0.14352596 -0.62721294 0.21658264 0.02324393 -0.025694609 -0.032191433 0.20165294 -0.36769122 -0.14876391 0.62714994 0.35700685 0.23098539 0.20265809 0.8021931 0.37965938 -1.0461545 -0.028937833 0.29106417 0.045252252 -0.4071027 0.43308505 0.26141226 0.09378337 0.5374616 0.31252855 0.4882153 -0.086758465 0.40162325 0.59085697 -0.7163163 0.36070073 -0.44972858 0.4697979 -0.2760766 0.24401444 0.44018003 -0.14447354 0.36119416 -0.12220367 -0.27085367 0.15034227 -0.11864841 0.31998917 0.7025626 -0.7471639 0.3001058 0.19411415 -0.4152036 -0.6457683 0.1334716 0.04915923 -0.34618977
minecraft:red_flower 0.27340645 -0.20958398 -0.65496475 0.19926284 0.35220188 -0.6419537 -0.0886981 -0.2071142 0.31606698 -0.2974494 0.18525033 -0.087487996 -0.21496688 0.3207833 -0.8568843 -0.22664961 0.16125736 0.15272823 1.2794297 -0.1853453 -0.17365615 0.11957302 -0.45460963 -0.001371484 -0.5558704 -0.08321178 -0.28136048 0.17273755 0.04975416 0.04903778 -0.42194766 -0.50578564 -0.27129942 0.12982021 0.61378825 0.3587617 -0.11917525 -0.062262118 -0.10752534 0.31820056 0.059545543 -0.0041823406 0.31267327 0.15942141 0.41953182 -0.028183118 0.19645457 0.46352294 0.99078983 0.6530765 0.15449347 -1.1345572 -0.12469382 -0.028420951 0.0537416 0.26659906 -0.40384248 -0.44489005 -0.4835448 -0.78947157 -0.17143056 0.52345693 0.5685281 0.032356434
minecraft:stained_hardened_clay 0.24507906 -0.31289503 0.21331783 0.09528216 0.48500896 0.215058 -0.14595532 0.5911522 -0.25378376 0.2300124 0.6769206 -0.04842228 0.5527592 0.014370862 0.43645662 0.22609296 0.008678351 0.7772718 0.34186974 -0.038604006 0.12907666 0.8249359 -1.1261541 -0.15811273 -0.8153523 0.2853256 0.35287917 0.29730728 -0.27096406 0.13267615 0.30222008 -0.1757032 -0.10949353 -0.2868277 -0.39934126 -0.110802054 0.13467053 0.9657806 0.63991153 0.53862506 0.9116159 -0.03960758 -0.18399775 0.043201778 0.048658263 0.11733874 -0.13200225 0.19795142 0.024811761 0.8482115 -0.18504235 -0.17280173 -0.485923 -0.3280003 0.21220975 -0.010477853 0.029575568 -0.47316548 -0.20896585 -0.18378198 -0.047435466 0.35873172 -0.12019784 0.08417138
minecraft:gray_glazed_terracotta 0.08646657 0.43432403 -0.25640184 0.07793323 0.3837848 -0.3613468 -0.14767776 0.7818424 -0.32334223 0.1541719 0.9001156 0.58383095 0.30417222 -0.170261 0.14469188 0.4260088 0.56506026 -0.36350524 0.2720041 -0.27478027 0.26611355 0.41523606 -1.1945584 0.2122648 -2.0956302 -0.6000995 1.477647 0.13138346 0.07083337 0.2513397 -0.44562846 -0.1589541 -0.22935282 -0.20280081 -0.13021553 -0.29901344 -0.34944966 -0.37653777 1.3974884 -0.58567166 -0.019578028 0.039785728 0.48880786 0.18577927 0.06577376 -0.031306226 1.2789309 -0.22040448 0.3039704 -0.22566383 0.10951146 0.26241118 -0.2822468 0.13720408 0.44082093 -0.12582207 0.76531386 0.59398735 0.47497988 -0.22287229 0.1402988 -0.24456978 0.46583346 -0.9528806
minecraft:acacia_door 0.0667846 0.015915329 -0.6519759 -0.67198515 -0.19919099 -0.1481919 -0.5086935 0.22092262 0.04860202 0.63923687 0.021997476 0.036551833 0.5992187 -0.19870503 -0.5361823 0.6136914 -0.0883332 -0.20178792 0.14073196 -0.7182994 -0.20348121 0.3818923 -0.29722938 0.11950613 -0.3886205 0.10579007 0.23617214 -0.31259978 -0.119365074 0.14678499 -0.13867734 -0.4356606 0.42510644 0.22460094 -0.27021328 0.9342175 -0.56155896 -0.18793418 0.27362895 0.58995575 -0.09813673 0.07498006 0.30892208 -1.0964559 0.102530405 -0.3117884 0.0198318 0.14480191 -0.3530029 -0.065605074 -0.39880309 -0.103783265 -0.27492428 0.05724507 0.057721578 0.034408174 -0.37239638 -0.22483665 0.27686858 -0.25971347 -0.3707235 0.15955178 -0.051148497 7.749672e-05
minecraft:stonebrick -0.06413805 0.005648955 -0.065520704 -0.022448948 0.2552558 -0.040922727 0.7129358 -0.19412237 0.7916102 -0.19640526 -0.03429944 0.003135658 0.79495156 -0.09449184 -0.53191334 0.37596834 -0.21421735 0.37411582 0.18061346 -0.12873098 -0.055695042 0.6107291 -0.010386464 -0.6147227 -0.5582145 -0.20746578 0.21679871 -0.5538787 -0.3027127 0.541933 -0.07786434 0.17108485 0.31802246 0.30536523 -0.32408166 0.4743311 -0.1826441 0.45916253 0.6850515 -0.17300077 0.44156224 0.18952778 0.77752995 -0.23052989 -0.25701728 -0.40035555 -0.17697592 0.053316124 0.5594336 -0.12798657 -0.33800894 -0.6043019 0.14398068 0.78662807 0.17802341 0.014396332 0.20622969 0.45248562 -0.17038417 -0.23305243 0.40581807 0.43206728 0.2350746 0.094062075
minecraft:stone -0.038810574 0.031762153 0.14773834 0.08040829 0.060308736 -0.59573317 0.10482238 -0.022538368 -0.29884058 -0.2554853 0.15552388 -0.42240918 0.19702683 0.3711041 -0.21892004 0.34859672 0.20422451 0.13075463 0.10674105 -0.33042797 -1.0208117 -0.041136153 -0.16973354 -0.89664 -0.02421617 0.22563565 0.5371064 -0.0061584897 -0.18843329 0.487315 0.10961406 -0.85190415 -0.08705582 0.40851223 -0.12824023 0.38310438 -0.19999352 -0.12964925 -0.17819177 0.2689061 0.671586 0.11115059 0.57948595 -0.03680287 0.6116714 0.22180997 0.09257604 0.25842205 1.135465 0.54328215 -0.016740596 -0.3811257 0.17914902 0.7372774 -0.055275775 -0.07905798 0.13765885 -0.10588753 0.17372216 0.3233656 0.16079144 0.009428647 -0.3010126 -0.50964195
minecraft:grass 0.4246532 -0.22631033 -0.07240098 0.07759118 0.4211503 -0.707717 0.73140657 -0.21455084 -0.22641587 0.07027721 -0.056464538 -0.39215472 0.08634925 0.5452493 -0.543235 0.03724209 0.43108663 0.13741127 0.45992443 -0.2250468 0.07746977 -0.22455558 -0.07786471 0.10930465 0.040925976 -0.34423834 0.0047649927 -0.7480422 0.36498034 0.076583125 -0.5630402 -0.32932103 -0.22817191 -0.2409138 0.39456913 -0.11713943 0.25775048 -0.15389943 -0.12900437 0.50404906 0.30692303 0.05480443 0.8589179 0.095471136 -0.015592765 -0.5027916 -0.02824973 0.048405327 0.61396134 0.25088856 -0.3657076 -0.7421908 -0.096327975 -0.010775888 0.04104298 -0.18088166 0.1611389 -0.5928212 -0.36443886 -0.74241745 -0.11165144 0.005936739 0.4404588 -0.54799974
minecraft:prismarine 0.4964174 0.33633277 0.19953239 -0.3836638 0.6205157 -0.50747675 -0.2850147 0.33622676 0.07533627 -0.19269854 0.0711395 -0.3521451 0.24043292 0.13719602 -0.4005254 0.1647138 0.012932198 1.674108 0.09385817 -1.0088006 0.0016825066 0.54958165 -0.72595257 -0.575126 -0.62193596 0.0962921 -0.10282305 0.049220275 -0.53706396 0.35929713 -0.96125895 0.084974654 0.5863938 0.33742958 0.37574703 -0.4547364 -0.088314414 0.15702768 0.1555892 0.071462125 -0.141407 0.58111995 -0.1972373 -0.8799052 0.9198593 0.07629712 -0.035290852 -0.37648302 -0.03627835 -0.18896575 -0.3011817 0.4545384 -0.9649811 -0.15741125 -0.2231724 -0.2709142 0.34887803 0.5608748 0.18260637 -0.5659178 0.28222075 0.19925201 0.4030308 0.21862492
minecraft:stained_glass -0.014350876 0.5262224 0.04775789 -0.7958578 0.602257 0.15212761 0.47934136 0.4212699 0.37472847 0.11255599 0.52222127 -0.52560157 -0.029304817 0.12091976 -0.28191286 0.77307 -0.08745161 0.34301293 -0.016695755 -0.03678511 -0.6449119 0.27754152 -0.5890954 -0.028227916 -0.20109649 -0.32395375 0.04425206 -0.42019156 0.20945695 0.36652246 0.18898976 0.124073766 -0.16832513 0.3150987 -0.061902847 0.29133314 -0.042860124 -0.034686405 0.29574716 0.36720768 0.21801795 -0.34848198 -0.17304699 0.32844916 0.35922277 0.5345443 0.4064181 0.09582982 0.48660657 -0.044563275 -0.48781186 0.21219417 0.21088758 -0.12050778 0.28858054 -0.059630625 -0.6180254 0.3475189 0.09300144 -0.40575352 -0.48697665 0.21600871 0.20739421 0.22492355
minecraft:stone_brick_stairs -0.015248486 0.36581486 -0.06398012 -0.98911446 0.85848767 0.10388822 0.108752206 -0.27874705 0.9251555 -0.2660334 -0.011132403 0.22548078 0.3116585 -0.2740272 -0.09597547 -0.05830185 0.2676853 -0.20894665 0.051536735 -0.22601056 -0.3054215 0.057212155 -0.74566334 -0.5510834 -0.29509836 0.35551158 0.7200866 -0.15612736 -0.099075444 0.3462076 0.21446148 0.115367904 -0.20661034 -0.27850252 0.05253435 0.07681786 -0.108780086 0.31078872 0.013937819 -0.1878211 0.21863094 -0.82205224 0.9522358 -1.1211501 -0.13578252 -1.0030832 0.16836774 0.64671534 0.31577805 -0.2551981 -0.36298472 -1.158766 0.2368427 0.22404344 0.24467021 -0.43782377 0.23352985 -0.0856147 -0.0145506 0.31418145 0.024302814 0.31217226 0.38384002 -0.055991452
minecraft:diamond_block 0.15413311 0.11209888 0.1836185 -0.012958438 0.24897598 -0.47725096 0.45542574 0.893093 0.099365294 -0.28122142 -0.04529692 -2.4488862 -0.24291272 0.27918172 -0.07963039 0.3385651 -0.24265793 0.31496683 0.06669693 -0.064132094 0.0292297 -0.23915398 0.050251245 -0.4822959 0.19172141 0.7904533 -0.13777322 -0.1766628 -0.005150807 0.58498645 0.18627079 0.10560252 -0.57876116 -0.16586699 0.007856331 -0.14111003 0.44569236 1.3111386 -0.17895459 -0.0156222535 -0.124540366 0.009247585 0.4892391 0.09680173 0.42112792 -0.039433956 0.96340525 -0.24225645 0.2247109 0.6888555 -0.808832 0.23386917 -0.4106812 -0.15043709 0.541906 -0.09998065 0.22435606 0.52729905 0.23891175 -0.05142389 0.114004135 0.9829182 0.4194478 -0.21947335
minecraft:birch_door 0.201735 0.14967264 -0.10557451 -0.15387703 -0.076533265 -0.030235078 0.48743168 0.56795025 0.14094642 0.7392466 -0.043947656 -0.025069414 0.1538755 -0.06344346 -0.41610909 0.62669796 0.21597642 -0.11464807 0.53288674 -0.47170892 0.14505602 -0.15117745 -0.05570983 0.12167755 0.03181457 0.6257801 0.50115657 0.11098536 -0.5251495 -0.39847836 -0.17608567 -0.17537323 0.110518105 0.6013959 0.13192144 -0.3029771 0.036510203 -0.17187087 0.3045417 0.6855353 0.9017414 -0.8605258 -0.04809623 -0.07187292 0.55679446 0.0767609 0.36855638 0.5888145 -0.44645932 -0.008841293 -0.53730446 -0.38964617 -0.52813214 -0.033139408 0.2254921 -0.269097 -0.7442211 0.0884702 0.19990522 0.042676024 0.24040891 0.08800814 0.8260345 -0.36391166
minecraft:diamond_ore 0.124309815 0.7565499 0.08785778 0.039727792 -0.3773624 -0.2071486 0.14769678 0.077631734 0.36564407 0.063721456 -0.20332637 0.1987639 -0.3121984 0.0450547 -1.1718411 0.1673854 -0.12178973 -0.028001092 -0.2338907 -0.9740325 -0.8303537 0.031329285 -0.06115568 -1.1462721 0.07163562 0.55281377 0.09374721 -0.685092 0.26857263 0.6731918 0.08036198 0.23205397 -0.16371761 -0.24156784 0.27478045 -0.15463488 0.15606394 0.93454546 0.105212875 -0.19726697 -0.22250411 0.1567778 0.4695863 -0.15555477 -0.23474012 0.20471314 2.0528567 0.9209027 0.18087955 0.5136888 -0.7881407 0.31044644 0.084837936 -0.13354087 1.4291692 0.12316791 0.19607359 0.28225538 -0.080388464 -0.001065085 -0.51869166 0.4114155 -0.36341465 -0.9927914
minecraft:redstone_torch -0.08397874 0.32583016 0.28260738 -0.30030492 0.046733085 0.03260682 -0.030988624 0.68907523 0.5389016 0.21279733 0.03886541 -0.40336752 0.0632814 0.19356957 -0.4235176 0.29371914 0.11946829 -0.6850226 -0.2606113 -0.67162144 -0.29544786 0.39901465 0.120841354 -0.150592 0.22552602 -0.096973814 0.3703224 -0.31836364 0.31128737 0.04442763 0.08899786 0.16322125 0.38674834 0.63320273 0.46687865 -0.16782591 -0.56129265 -0.018716363 0.48079386 0.23011585 0.76790327 -0.2236674 0.09321859 0.2512803 0.24641788 0.14797935 0.017841602 -0.02026642 -0.38118675 0.86519295 0.31506178 -0.09832013 -0.37991622 0.53195786 0.50805676 0.12255912 0.26725012 -0.6311253 -0.16566356 -0.22420081 -0.21950369 0.34655398 -0.06812241 -0.13713996
minecraft:ladder -0.48523426 0.6613892 -0.03986998 -0.0009962062 0.008610256 0.17359711 -0.24812867 0.83808917 0.16978899 0.20012867 0.57284826 -0.2903014 0.44242924 -0.34458253 -0.83779407 0.20746246 0.09780269 0.043907177 0.81918865 -0.58481014 0.18060954 0.51969904 0.26836836 -0.016479377 -0.05299743 0.3759499 0.075667694 -0.44440335 -0.02900829 0.2607149 0.12543479 -0.41926843 0.8048284 0.57947236 0.116394155 0.08743339 -0.02284705 0.03076472 0.14067529 0.37057963 0.16940132 0.2741747 -0.07376487 -0.028318621 -0.23365822 -0.13674873 0.33267036 0.06255886 0.08968281 0.18957065 0.0046507753 -0.63421506 0.1304069 0.42002535 -0.3363438 0.44949076 -0.64595634 -0.9618408 0.23430826 -0.19380756 -0.38244104 -0.141125 -0.1091706 -0.43583077
minecraft:ender_chest 0.19742706 0.95244795 0.052680004 -0.5649363 0.0069893072 0.024856744 0.09518594 0.091567166 0.33022 -0.12782736 -0.12576245 -0.5039939 -0.036049947 -0.04416348 -0.28883958 1.0957772 0.07535657 -0.10689064 0.39761794 -0.38579375 0.011439821 -0.09338636 -0.5402174 0.09698244 -0.7213818 0.10103672 0.29803428 -0.10938895 -0.014169981 0.118602 -0.13252966 0.146785 0.5488044 0.17644219 -0.47583872 0.019063964 0.07475025 0.52814484 0.023058275 0.13220844 0.38790905 0.12309564 0.13268013 -0.063458994 -0.056363333 0.09056538 -0.03356832 0.9322047 -0.33542296 0.35586667 0.570275 0.055924304 0.31548214 0.5257932 0.42971298 0.52143663 -0.012736175 0.09029326 0.1245813 -0.05513195 0.15773903 0.27908373 0.36873692 -0.31772655
minecraft:emerald_ore 0.31895489 0.13314356 -0.061410576 0.3117207 -0.28310785 -0.35946333 -0.10157445 -0.45232514 0.5447061 0.15269025 0.97076154 -0.7935787 0.6190105 -0.114988826 0.29194728 -0.34241295 0.35745403 0.05122887 0.2179788 0.14287905 -0.206326 0.1377299 -0.06774353 -0.5188402 0.36850488 1.7887486 1.3723948 -0.5469264 0.5692263 0.18992461 0.055217847 0.090774685 -0.29713967 -0.35394943 -0.5705922 0.0070616147 -0.21033458 0.021252746 1.3152187 0.54634154 0.018252445 -0.12632957 -0.026581176 -0.2457764 0.020813731 0.2522295 1.156631 0.43413168 -0.20920256 0.07123659 -0.34670725 -0.52343434 -0.015317376 -0.139937 2.2790904 0.338465 1.0019668 0.1295836 -0.21989645 0.1911156 -0.44255936 -0.062262286 0.6702877 0.1371221
minecraft:emerald_block -0.032854106 -0.0664099 -0.331074 -0.0779737 0.11309216 -0.9442397 -0.17647052 0.3382799 -0.21353444 0.77069455 1.0395302 -0.29468045 0.17749271 0.14550802 0.23750846 -0.061083864 -0.4303641 -0.14832316 -0.41050684 0.28018275 0.055389203 0.08753643 -0.13937236 -1.3217098 0.07785802 0.6285519 0.24170814 -0.2949633 0.24090083 0.4981731 0.14087045 0.15296867 -0.041751616 -0.6252552 -0.20926197 -0.19953105 -0.58477354 0.49683642 0.10722004 2.3793058 0.30722985 -0.32905126 0.0762855 0.49825516 0.1899851 0.102719985 0.5504433 0.54969096 -0.15642604 0.6049749 -1.0006342 0.22206253 -0.7690849 0.068331584 0.66998494 0.3655709 0.37628955 0.46351793 -0.5259285 0.35699418 -0.010138419 0.06010664 1.002355 -0.049418457
minecraft:leaves 0.10534917 -0.33178338 -0.014003416 0.111513115 0.3000537 -0.5269149 0.24217512 0.7685742 0.072029136 0.25384822 -0.2075853 0.17753588 -0.059291963 0.7026299 -0.59600943 0.40881127 -0.059598997 -0.18722102 1.1352394 0.045498233 -0.1904744 0.23219196 -0.102976434 0.17957276 -0.59771955 0.21574433 0.6663059 -1.1211557 -0.39560986 -0.26470557 -0.15139274 0.12763621 0.012832451 -0.035981223 0.29244515 -0.35155207 0.0077446043 1.199534 -0.13103491 -0.19856551 0.5911489 0.2591598 -0.22980395 -0.01322526 0.21693523 -0.6105873 0.100066066 -0.29310215 1.0814703 -0.2594843 -0.19816352 -0.8249973 -0.10508323 -0.14037865 0.120737866 0.11977558 -0.1830885 -0.4615968 -0.061979283 0.043789487 -0.6492684 0.041721556 -0.084790826 0.19319843
minecraft:acacia_fence 0.32975328 -0.12927105 -0.22793733 -0.47113466 0.5134474 -1.3433402 -0.24960642 1.0456135 -0.38077122 0.073442124 0.09217766 0.10882798 0.12501387 0.1871736 -0.5468749 -0.14745097 0.3892781 0.24928154 -0.20258553 -1.2227339 0.011288882 0.07125025 -0.18617186 -0.19004092 0.09867592 0.87938315 -0.08877807 -0.567138 -0.11592395 0.016281419 -1.0334965 -0.6630862 0.13379091 0.7094478 -0.29258785 0.19793761 0.18698505 -0.14312333 0.20297438 0.34205702 -0.0006416102 -0.3583128 0.037774913 -1.1567963 0.021091275 -0.06884977 -0.03399201 0.2985947 0.40418777 -0.110058434 0.054503113 -0.38388443 -0.4025936 0.10324355 0.16453607 0.79035634 0.3657352 -0.23777412 0.3825973 -1.6017625 -0.16939062 -0.18701166 0.16801809 0.14053786
minecraft:birch_stairs -0.01199249 -0.110374376 0.13519537 -0.1522233 0.5026423 -1.0272578 0.28286287 1.3267069 0.6100109 0.81479204 0.08711278 0.45900717 -0.0715349 0.025831575 -0.24734522 -0.23659371 0.117896855 0.22264987 0.56277555 -0.4245262 -0.441785 0.26872978 -0.20055293 -0.02291807 0.32049292 0.48075888 0.877011 -0.40852562 -0.08383678 0.18051201 0.10914621 0.04731318 -0.35010722 -0.6053167 0.05359556 0.26016057 -0.33372203 0.17422275 0.5346477 0.63465333 0.16126378 -0.6873607 -0.30774263 0.12133953 0.36183223 -0.8285206 0.3379274 0.034116667 0.49608943 -0.011918248 0.22939813 0.22228643 -0.28530174 0.5518658 -0.43889806 -0.37760848 -0.5016651 -0.796884 -0.041495893 -0.12825727 -0.17628688 0.40508744 0.0036912265 0.061542988
minecraft:gravel 0.48436585 -0.08969941 0.031182325 0.26577994 -0.046790026 -0.71460634 1.3132228 0.5955571 0.49048457 -0.323109 0.018047884 0.111792 -0.40078434 0.4012364 0.20175892 0.124911234 0.14335446 -0.2665902 0.48011243 -0.034810014 0.27737918 0.30053282 0.19780628 -0.1396267 -0.7107188 -0.037056696 -0.3912378 -1.0593624 0.2617189 0.02983354 -0.78669095 0.44915536 -0.11946953 0.3043721 -0.1961315 -0.06193893 -0.14823009 -0.13350229 0.5390898 -0.15210655 0.62604636 -0.2834999 0.059100218 0.05748659 -0.14064953 -0.83477527 -0.17565477 0.58227485 0.045572355 0.68973905 -0.17553985 -1.094889 -1.4094607 0.10269001 0.19365817 0.23264176 0.39834478 0.0034499755 0.38650626 -0.69007427 -0.18256813 0.44149143 0.29944074 -0.5335589
minecraft:sand -0.15213782 -0.22509432 -0.045222536 -0.3286929 0.022513982 -0.9834165 0.94029146 0.9607378 -0.24344736 0.20844066 0.51479745 -0.28554934 -0.1444828 0.188253 0.18702617 0.8367129 0.16558272 -0.13048568 0.007550076 -0.44619215 0.12290654 -0.039094236 0.24985896 -0.7425077 -0.8733369 0.5606549 -0.24541189 -0.38678086 0.073725 0.57942396 -0.61218596 -1.1263326 -0.2938782 -0.12537004 0.13875462 -0.23476292 0.42301795 -0.058007125 -0.05708883 -0.100116186 -0.1575046 0.19355765 0.18387018 0.027928274 0.121225536 0.34081593 0.4313587 -0.28721493 -0.17830153 -0.16643295 -0.06787529 -0.5575167 0.05504238 0.4097285 0.73298055 -0.00084297074 0.047525387 0.36692044 -0.21148387 -1.0461805 -0.46370214 -0.18676929 0.22930072 -0.0812475
minecraft:cobblestone_wall 0.25077054 0.23125076 0.25926054 -0.38449845 0.22767639 -0.31862098 1.7543422 0.14909063 0.31567684 -0.12487617 -0.20460026 0.12469228 0.27868426 -0.090339206 -1.3266836 0.6171723 -0.046186604 0.1393648 -0.26008406 -0.16337702 0.099508084 0.63978124 -0.3179811 -0.34773707 -0.3419203 0.3149274 -0.16450945 0.16170171 -0.07680881 0.41006356 0.58185774 -0.26126143 -0.32805017 0.0991269 -0.30096647 -0.26016918 -0.32635307 -0.25010198 -0.14249878 -0.16863482 0.080495894 0.37332055 0.674516 -0.17563863 -0.14112096 -0.18866315 0.09612788 0.22313224 0.6747222 0.25432774 0.114095666 -0.56167257 0.2666643 0.8333767 0.15341763 0.5979964 0.34569326 0.24640831 0.516202 -0.7033676 -0.5996694 -0.5301343 -0.23917454 0.053104065
minecraft:acacia_stairs 0.28317738 0.72148997 -0.09073551 -0.5950549 0.060526535 -1.1263852 -0.31620014 0.19831643 0.49271485 0.082666256 0.8718248 0.03990573 0.22117485 -0.030891174 -0.010598306 -0.13300544 0.56741256 0.9758577 -0.05863027 0.06465633 -0.16696201 0.7112043 0.18100084 0.022032885 -0.3113817 0.26545706 0.36446446 -0.4066132 -0.28662002 -0.13123503 -0.70069385 -0.7203317 1.0728937 0.0461747 -0.038640417 -0.16592816 0.15056607 -0.19734898 0.040961992 1.1838777 -0.27713805 -0.7687784 -0.34379512 -1.0781523 0.09119055 0.036856264 0.3524462 -0.06176277 0.09828018 -0.3974041 0.20899175 -0.10908804 0.22952054 -0.023637582 0.39812797 1.4107686 0.029086921 -0.16120142 0.41090405 -1.7637111 -0.2889069 -0.20045476 0.84503347 0.39331597
minecraft:tallgrass 0.67385685 -0.30982196 0.3882971 0.04446305 0.25209886 -0.8450292 0.19386956 -0.40645444 0.14648126 0.07232766 0.13052453 -0.025891319 -0.14772038 0.5932444 -1.0568784 -0.07890704 0.0023454726 0.44205314 0.7504742 0.07687678 -0.23679252 0.14588827 0.30643773 0.06454445 0.006950247 0.17575166 0.23131348 -0.71599525 -0.3549754 0.015323934 -0.53161436 -0.79673517 -0.10664934 0.2123037 0.61184853 -0.17337345 -0.5249831 0.3073613 -0.47687572 0.26582277 -0.17092097 -0.06444868 -0.059001554 0.24921308 0.103295304 0.086036794 -0.035211924 0.988368 0.7808191 0.33655915 -0.35848212 -0.96587217 -0.016780991 -0.13351634 0.09571295 -0.13315913 0.45490834 -0.4542205 0.3527053 -0.6516392 -0.15511674 -0.08901898 0.58392715 -0.18432973
minecraft:birch_fence 0.35446742 -0.7031698 0.5887427 -0.12196316 1.0130196 -0.63529706 0.8332839 0.17055541 0.5637162 -0.07143401 -0.2476968 0.00038700504 0.0070379297 0.025880871 -0.06994206 0.05819894 0.4845564 0.42377892 0.30208576 -0.64781255 -0.115473226 0.11395894 0.23247238 0.1504251 0.2252885 -0.16411187 0.88286936 -0.15849803 -0.47676155 0.0733337 -0.7958467 -0.943806 0.4852108 -0.11445739 0.2964938 -0.2949532 -0.40321124 -0.025141278 0.3601059 0.06573509 0.15411809 -0.31925687 -0.40923944 0.16144381 0.31779614 -0.5088354 -0.19546391 0.767899 0.3105719 -0.025312854 -0.020385321 -0.041218825 -0.49324012 -0.11389018 0.72549 0.49140167 -0.44753787 0.24827743 0.4636622 -0.82627803 -0.42076603 0.6044772 0.13321044 -0.24009672
minecraft:quartz_block 0.008336848 0.5481657 -0.14407763 -0.12892133 0.019187747 0.2689344 0.31678703 0.34808785 0.12907194 -0.20477772 0.30836874 -0.43316367 0.3457237 -0.19477306 0.2793737 -0.19721395 0.14184801 1.0004201 0.51273185 -0.04508035 -0.32847974 -0.21238695 -0.12719804 -0.534572 -0.9298805 0.5222965 0.5195965 -0.17635459 -0.10493548 -0.28978306 -0.6413629 -0.17289178 -0.20599544 0.22050858 -0.05741893 0.28023073 -0.5913118 0.28559166 -0.27956527 0.58596635 0.8373175 -0.028731048 0.19485539 0.30009043 0.5857371 0.041445345 0.048538674 0.32451618 0.5141377 -0.008687813 -0.6314877 -0.347657 -1.0975393 -0.20736168 0.18124369 0.099533506 -0.059773643 0.2590981 0.13053049 -0.34856156 -0.23587868 -0.19305293 -0.09556718 0.18142378
minecraft:green_glazed_terracotta 0.32952142 -0.27527574 -0.078145996 -1.0037977 -0.28394702 0.13573304 0.119790845 -0.016129252 0.5469103 1.3390061 -0.189437 0.13573168 0.49457636 0.16520256 0.08647732 0.448399 0.08470971 -0.12219352 1.414067 -0.04355184 0.13546973 -0.24001081 0.35294187 0.18654297 -1.1310444 0.15713808 1.3103273 0.0014955273 0.26152974 0.20769997 0.04117025 0.35854948 -0.32154608 0.56401396 -0.2517931 -0.6217612 0.35967827 0.49528688 -0.09533085 0.016052932 0.030116385 0.44464123 0.59994924 -0.6451972 1.1358552 -0.17568219 0.76232016 -0.27495828 1.003737 -0.15021159 0.18305339 0.34937316 -0.42186266 0.17540422 0.004070555 0.76463914 0.5862536 -1.3557286 0.03558737 0.00066990464 -0.27272138 -0.11158315 0.104417406 -0.75937676
minecraft:crafting_table -0.01905277 1.2335701 0.36245152 -0.36693174 0.27858403 -0.37361965 0.4000422 0.26856247 0.36595896 0.48876736 0.18404235 -0.17782709 0.004968847 0.3952165 0.027879687 1.1495634 -0.08108685 0.33656576 0.40759417 -0.06341699 -0.12303917 0.25205827 0.0797007 0.107269764 -0.16132337 -0.17616922 0.18773049 -0.34165612 0.008617306 -0.29015365 -0.12150866 0.012466486 0.09766801 0.3799777 -0.12332852 0.37681684 -0.24167438 0.17994244 0.048981916 0.05300786 0.1364672 0.16809261 0.24994239 -0.09117065 0.30217636 -0.3083074 0.28794494 0.03623518 -0.20596153 -0.100063 0.22221212 -0.6832492 0.17143378 0.23247552 -0.14434977 0.49732727 -0.06994281 -0.3808024 -0.39605206 0.3357893 -0.18688057 -0.06690619 0.02693467 -0.32242253
minecraft:anvil 0.06378521 1.7655051 0.1330832 -0.39795685 0.1259468 0.06494604 0.29344636 0.0052238335 0.5176624 0.0833134 0.2772933 -0.091480926 0.010527831 -0.15403625 -0.053074844 0.49411497 -0.18968996 -0.15623988 0.3526023 -0.5452367 0.014961536 -0.21706897 -0.1747953 -0.09678061 -0.5637872 -0.03145966 -0.10235352 -0.19963433 0.023947231 0.07438289 -0.4286218 -0.0759898 0.21532889 0.5699423 -0.20053405 0.115548186 -0.21969749 0.3276004 0.24170893 0.19418725 0.3452677 -0.2907224 0.12571412 -0.31415462 0.23145886 -0.24713221 -0.102577046 0.26182202 0.022630835 0.42598787 0.10113827 -0.7461897 0.33520737 0.5022149 -0.09241201 0.14928983 0.25464535 -0.37579778 -0.12839667 0.257641 0.06134252 -0.084518135 0.034254 -0.28531164
minecraft:dirt 0.16410221 -0.2563485 0.18147069 0.11661591 0.9037172 0.08525489 0.38780448 -0.17024326 -0.23620538 0.28404492 0.2576839 0.06264656 0.5100323 0.9680179 -0.47820675 -0.16677092 -0.000978248 0.2252237 0.91044784 0.08291648 -0.32114026 0.115841284 -0.0835559 0.16011868 0.04386139 -0.046794783 -0.22659886 -0.9719447 -0.15133563 0.18594365 0.052814703 -0.5567773 0.63769287 0.06499025 0.22078364 0.14090493 -0.3686913 -0.18561633 0.09641345 -0.14297427 -0.1753943 0.27655405 1.3477623 -0.14872184 -0.030269349 0.21200612 0.6665175 0.9295968 0.3483677 0.19925396 0.12506236 -0.5961944 -0.8336606 0.1511662 0.087423205 -0.13523245 0.0966459 -0.10048659 0.500544 -0.16885434 0.123788685 -0.05206655 0.30260077 0.09810853
minecraft:fence_gate -0.05636556 -0.26908723 0.30911136 -0.38660052 0.21125202 -1.1356653 0.21298409 0.009348447 0.07990968 -0.09959964 0.35565165 0.40023747 -0.3335221 0.06039659 -0.8214485 0.625723 0.26335764 -0.31364414 0.32231998 -0.4272046 -0.14858277 -0.038838908 -0.41751343 0.11666855 -0.26320475 1.5260906 -0.23646484 0.16960129 0.22736609 0.105301484 -0.61380726 -0.66472125 -0.37092796 0.23217766 0.9103512 -0.32866603 0.13122036 -0.120998174 0.38739488 -0.5349515 0.08025281 0.23195612 1.4550407 -0.30609483 0.29112238 -0.029325642 0.11948468 0.6847925 -0.025238387 0.0024813323 -0.16810976 -0.94676435 -0.17794974 0.67046076 0.2742671 -0.44692916 -0.24489066 -0.78794783 0.099961594 -0.60347074 -0.3127148 -0.110037975 -0.18165262 0.28414273
minecraft:wheat 0.2578323 0.03992363 0.29543942 0.19054358 0.38457325 -0.161825 0.7797168 -0.0006587936 -0.1761824 0.38710272 -0.17137872 0.13279513 0.23698284 1.0304803 -0.96224993 -0.13239771 0.2077822 -0.029358678 1.4160544 0.77250946 0.39258242 0.023580797 0.5011381 0.14474678 0.07983636 0.0024782177 0.17893419 -0.40271306 0.36622292 -0.09318019 0.20639639 -0.16983205 0.8137417 -0.30970395 -0.049917936 -0.5025356 -0.24691488 0.44681358 0.07938771 -0.28009608 -0.3209627 0.28802285 1.264945 0.4567931 -0.13813366 -0.4249234 0.19865072 0.6594999 1.0156386 0.8968701 0.102854155 -1.1462605 0.0001455479 1.0109253 0.38682184 -0.35765952 -0.0706392 0.0051723565 0.14848043 -1.0417906 -0.044243015 0.82631326 0.26434118 -0.27046013
minecraft:wall_sign -0.50994545 -0.10060204 -0.50130963 0.38815722 0.52437454 -0.09689382 0.1516036 0.08213398 1.0149131 -0.02537589 0.3243694 0.15649249 0.42179397 -0.016088603 -0.38749298 0.28682306 0.114988945 0.2510765 0.2651665 0.33081847 -0.100187026 -0.27683574 -0.09356631 0.1036601 -0.3332873 0.6747239 -0.2815544 -0.5513259 0.024042161 0.17905542 -0.940716 -0.45495164 -0.38109392 0.22471422 -0.08685622 -0.28521886 -0.7013827 0.58190835 -0.10884176 0.21005961 0.15610486 -0.3959283 0.8195846 0.3308228 0.75708115 0.0751302 0.19632326 0.12437144 0.35042313 0.053739134 -0.3594026 -0.2671863 0.026427522 -0.13159372 0.22915599 0.34598482 -0.51426655 -0.02696692 -0.069321066 -0.3628274 0.02226841 -0.06303122 -0.051446326 0.21939981
minecraft:spruce_door -0.06103273 -0.19171411 0.26814818 -0.16159996 0.08941623 -0.27542043 0.62108934 0.06375762 0.5079885 -0.23432143 0.28373706 -0.06781798 0.5065401 0.23203148 -0.004284688 0.79969186 0.12749855 -0.04161661 0.8489313 -0.7890132 -0.067454256 0.32416427 -0.29743895 -0.005219966 0.5798602 0.03470691 -0.3864501 0.48650143 -0.44065323 0.37438586 0.035696708 -0.112926126 0.40006748 0.5370451 0.30294546 0.53541034 -0.52867997 0.0126392525 0.36189124 0.62840945 0.5728456 -0.5376138 0.30044028 -0.10874023 0.17155984 -0.15992759 0.12194775 0.47155726 0.1127358 -0.027011678 0.11487528 -0.1860197 0.3575496 0.5774873 -0.19100274 -0.45124972 0.20318452 -0.24976468 -0.53113294 -0.048205096 -0.55315125 -0.32210898 0.05197812 -0.28828812
minecraft:lapis_block 0.14130121 0.057280745 -0.14621425 -0.2520596 -0.15952545 0.18999298 0.072830215 0.26873252 0.01929183 -0.25714642 -0.07399235 -0.48675066 -0.2109956 0.8683783 -0.37838942 0.08218329 -0.2146275 0.99916136 0.22528149 -0.24277554 -0.5482521 -0.14624633 -0.10889283 0.14093906 0.16921449 0.027841229 1.1575063 0.09086602 -0.34115496 0.6903778 0.08978946 -0.33196217 0.24362588 0.19057149 -0.09004218 0.6362965 0.078040704 1.2236912 0.7995992 0.19702055 -0.0850926 0.55237484 0.5871854 0.38130063 0.52680385 0.47339085 0.3976903 -0.15913232 -0.090636946 1.3078305 -0.2252056 0.36366227 -1.2472723 -0.063968495 -0.04812809 -0.046125233 -0.15602452 0.15748343 -0.007912815 -0.42834595 -0.07497779 -0.18640411 0.07631285 -0.016520517
minecraft:double_wooden_slab 0.17393222 -0.22005212 -0.23979197 -0.0671669 0.8871848 -0.048738327 0.005594572 0.23866524 0.32581997 0.9652765 1.1041546 0.21722536 -0.18797447 -0.13401885 -0.07357239 -0.1378175 0.20997643 0.8585078 -0.20413315 0.1856386 0.0050751907 -0.111931406 -0.48594287 -0.09939099 0.2055945 0.41766205 0.619482 -0.11782072 0.2791374 -0.012735263 -0.11897244 -0.756191 0.55402666 0.20737165 -0.28649485 -0.31489703 0.026064588 0.19666718 0.6279051 -0.1669754 -0.20283984 -0.5102139 -0.13344453 0.17398356 0.8747713 -0.9788034 -0.07901795 0.73443305 0.7396821 0.046312798 -0.0055900766 0.10596324 -0.21559577 1.0994031 -0.032770455 0.4938838 0.005941808 -0.28946388 -0.22601163 -0.8992618 0.054886337 -0.28719905 -0.05844562 0.17498964
minecraft:glowstone -0.29513565 0.012568927 0.30988798 -0.34970766 -0.23606502 0.36754867 0.43869326 0.55552876 0.11294774 0.39290458 0.5066312 -0.21406719 0.3412013 0.42576206 0.13467267 0.14083865 -0.07470632 0.23578571 0.27267992 0.2360909 -0.33193773 -0.02772988 -0.7893292 0.04367008 -0.155009 0.6504513 0.68061095 -0.50353 0.17420034 0.49378225 -0.42608264 -0.5668918 0.0019702574 0.13765213 -0.14245076 0.2193273 -0.1960135 0.47148195 0.06735727 0.35117632 0.07600882 -0.35742837 0.7941755 0.005415701 -0.16450834 -0.2567066 -0.14531404 -0.28196755 -0.10969325 -0.27394307 -0.0065761274 0.16596521 -0.42699063 -0.041864194 0.21172516 0.52687335 -0.31972194 -0.81577134 0.06423126 0.26257706 0.22629584 -0.066345535 0.24143225 -0.36152118
minecraft:jukebox -0.2821635 1.338261 -0.33982363 -0.558144 -0.2541271 -0.18561055 0.30346116 0.25991887 0.1583697 0.19205637 0.2513418 -0.30558994 -0.28891882 0.42514184 -0.0012783001 0.19154418 -0.052110817 -0.16424906 0.46020728 -0.48564485 -0.31583434 -0.030173333 -0.6101534 0.0013870796 -0.31617782 0.23397751 0.22812766 -0.45455596 -0.15387645 -0.53363836 0.05614246 0.25767702 0.059032608 0.24726094 0.14970614 -0.040702526 -2.956045e-06 0.293336 -0.39039496 0.043291345 0.69913334 -0.4667205 0.10807051 -0.25602952 0.33592138 -0.03274117 0.26950157 0.73074275 -0.031419523 0.25849923 0.2549933 -0.14981796 0.32110733 0.28687802 0.27286083 0.4852313 -0.41512668 -0.45185542 -0.13424101 0.121823624 -0.027850369 0.044711173 0.2753687 -0.44651738
minecraft:birch_fence_gate 0.32681713 -0.16432059 0.5129643 -0.059983384 0.21101855 -1.1177922 1.1490779 0.38988692 0.36239925 0.075895466 0.33035693 -0.26393685 -0.31538343 -0.2280397 -0.24111076 -0.22821498 0.54427177 -0.17308894 1.0117241 -0.5740828 -0.16981368 0.10848683 -0.05259861 0.17517996 0.33953217 0.1044737 -0.11028208 -0.6662573 0.19775744 -0.17039429 -0.4139721 -1.4443036 0.04844404 -0.455327 0.52415115 -0.8302351 0.1692516 -0.30984333 0.22423379 0.5831222 0.31581765 0.09284502 -0.40642378 0.24327497 0.38890022 -1.1101031 -0.0993734 0.3509305 -0.008154902 0.048290327 -0.30188212 -0.84509385 -0.27065325 -0.08281632 0.7206776 -0.44826987 0.0032397925 -0.55185115 0.619743 -1.025447 -0.5388441 0.22468324 0.4699522 -0.7520111
minecraft:white_shulker_box 0.04642957 1.0122046 -0.2612497 0.51092976 -0.02535899 0.2545813 -0.053841386 -0.16882253 0.04703335 0.31443977 -0.39947334 -0.0749703 0.96252805 0.84347147 0.003632044 -0.19161022 0.2509998 -0.46826392 -0.26830512 0.24144407 0.08218461 -0.017811945 -0.9630269 -1.3741148 0.06770464 -0.12334097 0.17596208 0.065055 0.89158857 1.1788286 -0.019807486 -0.4129497 0.592864 -0.30131653 1.8121392 0.10098174 0.26529074 -0.038518548 0.8961437 0.019790847 0.6799061 -0.1467002 0.13574526 -0.4674971 -0.26965496 0.46163258 0.36900237 -0.2802499 0.15338413 0.076936945 -0.5541538 0.40341428 -0.38167325 -0.042278897 -0.2647387 -0.2078182 0.25376764 -0.02250094 0.30135545 -1.2171024 -0.53278196 -0.39842245 -0.06348073 -1.2192671
minecraft:lapis_ore 0.27495256 0.09388229 -0.26001704 0.1474812 -0.039008975 0.29606113 -0.06258541 -0.14661062 -0.22767547 -0.13047378 -0.15562469 -0.039292727 -0.34554732 0.17158206 -1.2256474 -0.10622482 0.35962626 0.09177016 0.9262798 0.42488673 -1.1294006 0.056953296 -0.60397285 -0.20829576 0.1538567 -0.11286053 1.4191697 -0.3375881 0.5323889 -0.1414801 0.19177347 -0.17933351 0.76875275 -0.2790616 0.73466945 -0.10311753 -0.16034013 0.7806452 0.5918641 0.124667354 -0.19557126 0.031314965 1.1687207 -0.2104836 -0.020043094 0.13121893 1.611254 -0.18116869 -0.20295633 1.5768818 -0.35130292 0.14815837 0.34134644 -0.048792426 0.7473085 0.0028151178 0.33071816 0.12910505 0.017916607 -0.32259703 -0.10336098 -0.18402466 -0.21247976 0.04117064
minecraft:yellow_flower 0.9313405 -0.21028343 0.395148 0.33248496 0.43152684 -1.560355 0.06748479 -0.18916498 -0.42681918 -0.022371206 -0.24535176 0.05713339 -0.20040777 -0.25424132 -0.058687493 -0.20057356 0.14796592 0.27506864 0.3301645 0.15120445 0.05929545 0.33584887 -0.09844754 0.05674204 -0.53609836 -0.2438431 -0.0678386 -0.51866287 -0.2725898 0.1207551 -0.37763184 -0.0019615353 0.12437123 -0.37763357 0.28689983 0.4115918 -0.38106218 0.11872529 0.12469177 0.8899851 0.4513562 0.13653676 0.4278165 0.4309281 0.38222218 0.24917094 0.30813292 0.23698874 1.2557122 0.24384832 -0.03164449 -1.5492276 -0.28036132 -0.017743139 -0.4169705 0.23470692 -0.45296073 -1.2048682 -0.5153359 -0.06741951 -0.22490759 -0.16018267 -0.047715623 -0.20060754
minecraft:netherrack -0.18065418 0.17241682 0.20482716 -1.0186405 -0.34996122 0.4198989 0.9941966 -0.123059124 1.6526438 -0.1621202 0.022895722 -0.51800525 -0.0547522 2.110693 0.11535319 -0.05191611 -0.08168676 0.08383624 0.6574207 -0.72642386 -0.09461598 0.1516568 -0.014095809 -0.605924 -0.24405965 -0.3436541 -0.04010245 0.018180199 0.5530669 0.57547075 0.22719724 0.25279102 0.5969151 -0.12693977 -0.18987668 -0.22682986 0.024378652 0.10496195 0.35149607 -0.036617156 0.7350253 -0.27174744 -0.18994379 0.22288412 -0.15978995 0.3791902 0.19062898 0.03510388 0.24197373 0.8099885 -0.035432946 0.08379943 0.29169545 -0.10135303 1.0922625 -0.5150036 0.4784602 -0.66160697 0.11612402 -0.033373315 -0.54512274 -0.117346264 0.070949405 0.14937696
minecraft:obsidian 0.665116 0.2605031 0.29338568 -0.8238322 -0.13935217 0.094147176 -0.37133762 -0.15595677 0.39033833 -0.17753462 0.42813435 -0.65321493 0.9337832 1.2270352 -0.3470969 0.30921477 -0.11138845 0.6143662 1.094654 -0.0067273867 -0.8617498 0.48919952 -0.10284762 0.06983547 -0.34319866 0.15760295 0.13126472 -0.944002 0.13304749 0.28756824 0.0840812 0.3621385 -0.13536862 -0.1027066 -0.20054796 -0.36533073 0.107874006 0.17655352 0.6950283 0.37500593 -0.20894921 -0.0065622567 -0.16614647 0.2795883 -0.41274658 -0.08485802 0.5313103 0.4203504 -0.11434954 0.045300916 0.047448527 -0.16729833 0.0676766 1.0821668 0.39545572 0.53737956 0.50016683 0.34734318 0.52928406 0.13591182 -0.10198422 -0.22711597 -0.07308377 0.097253285
minecraft:sea_lantern 0.04327023 0.46322277 -0.43815607 -0.3530977 0.22888888 -0.31647924 -0.048362818 0.86343366 0.11544993 -0.48745504 0.0067486377 -1.1459632 0.08638997 0.7059556 -0.5718856 0.18672448 0.18152353 0.44774094 0.18581522 0.05625005 0.14553255 0.18333094 0.2433752 -0.6495935 -0.08449369 0.733857 0.45513642 -0.19057769 0.09951866 0.18976128 0.18055916 -0.61905277 0.17110139 -0.009122077 -0.38878518 -0.21341857 -0.45081484 0.5934525 -0.319793 0.6734121 -0.30355364 -0.18214196 -0.1754616 -0.12521105 0.6869753 0.19116636 0.057062566 -0.38848862 0.15799764 -0.3456672 -0.50346637 -0.2488714 0.15478948 0.059388038 -0.54028565 0.11784409 -0.5631016 0.02504127 0.21681537 -0.3928525 -0.15501405 0.5447182 0.48746264 0.016559359
minecraft:brewing_stand -0.16440052 1.4390942 0.35413855 -0.27836764 0.46651924 0.15222113 0.14935246 -0.17756379 0.92895216 0.24893354 -0.12937632 0.36821693 0.1798002 0.14281234 -0.35244116 0.5909626 0.1400034 0.39852506 -0.12362259 -0.5252697 -0.31153214 0.42009076 -0.4600247 -0.098296426 -0.47873026 -0.1414829 -0.077428706 -0.17075117 -0.41252616 0.08632382 -0.25959295 -0.17751586 -0.41267177 0.83392173 -0.36898088 0.46608615 -0.5388661 0.7938807 0.03445377 -0.3855602 -0.019450739 -0.13371603 -0.025578374 0.08331254 -0.018369874 0.045871414 -0.36587396 0.40061468 0.068592966 0.28275186 0.39893463 -0.5473761 0.23949574 0.96416616 -0.08544023 0.4541803 0.32251716 -0.2364596 -0.0024901135 -0.32683504 0.009558825 0.17997459 -0.03841904 -0.12755598
minecraft:spruce_fence -0.29715702 -0.3989481 -0.80320984 -0.35676295 0.53075564 -0.16942436 0.9711189 -0.5707509 0.79942864 0.048985485 0.1951664 -0.17185198 0.035829257 0.017671706 -0.06465751 -0.1965736 0.020632211 0.7225099 0.63839257 -1.0195782 -0.2536192 0.09569702 -0.8205887 -0.22547482 0.3360975 0.0061149606 -0.2842119 -0.13734399 0.038981333 -0.2913955 0.1315995 -0.39944887 -0.18943428 -0.15452698 0.14722954 -0.1299527 -0.6994445 0.12201322 -0.08513134 0.2914814 0.18209913 -0.20271233 0.16074705 -0.092020154 0.003968549 -0.74828815 -0.011841899 1.4786608 0.32622293 0.5776334 -0.2284578 0.2884241 -0.4253721 0.35843512 -0.12824541 -0.18780006 0.023346713 -1.3418144 -0.018737167 -0.4201694 -0.76141346 -0.28606308 0.24890827 0.068029486
minecraft:tnt 0.67683387 -0.14815581 0.207178 -0.14194404 -0.34180036 -0.48475468 -0.030843152 -0.19591613 0.34055996 -0.09524559 -0.39711234 -0.2021996 -0.12544449 -0.036051705 -0.5752902 0.01688875 0.19476268 -0.2637028 -0.017386952 -0.9210042 -0.6486709 1.3703552 0.21695834 -0.35764387 -0.53754324 -0.016897295 1.6848749 -0.1405083 0.33797994 0.41108552 -0.85188806 -0.18911818 0.8032703 -0.004399731 0.118427634 -0.4491578 0.21460652 0.48515394 1.8295088 1.403994 1.346774 0.2000522 -0.19572432 -0.6638792 -0.09796298 0.09768862 0.81059176 -0.07878222 -0.2158571 -0.093974054 0.019847067 -1.1667346 -0.15580398 -0.061321005 -0.22751983 -0.11628631 0.12668785 -0.34696636 -0.567071 -0.051087942 -0.5496788 0.2795645 0.031669173 0.064323455
minecraft:vine -0.24675857 -0.12632634 0.270658 0.083217636 0.6208248 -0.31061488 0.5725179 0.0621835 0.13805903 -0.095952645 -0.7314213 -0.39454216 0.021152142 -0.095755406 -0.7609351 -0.14254521 0.2236392 0.048803467 0.2004081 -0.1663896 -0.4557952 0.3229387 -0.33419922 0.2281131 -0.3257698 0.9130449 0.19739707 -0.93232495 -1.0100825 0.22619839 0.14392726 0.30751336 0.72766757 0.26072177 0.382811 -0.38092288 -1.0832273 0.052989054 -0.39611948 -0.13095714 -0.1371052 0.24056877 0.3273639 -0.32168275 0.169743 -0.05241483 0.2003771 0.15955976 0.5031327 0.20140271 -0.0693635 -0.6085401 -0.047762085 0.16377422 0.5828014 0.10229063 -0.117097914 0.101257555 -0.9755908 -0.29574454 -0.5470332 -0.039271127 0.37508067 0.028937066
minecraft:double_plant 0.16737835 0.0054395907 0.41705757 0.11588717 0.24265338 -0.39891317 0.046617858 0.09104852 0.76569104 0.20873915 -0.3330389 0.08361643 -0.07237206 0.46214378 -1.0548468 -0.3108847 0.12985677 -0.15839113 0.24032064 -0.25061905 0.02238572 -0.05532499 -0.28888988 0.07447995 -0.25634715 0.24668607 -0.3144211 -0.003252897 -0.25932348 -0.08361013 -0.767321 0.3522555 -0.1779009 0.37091815 1.374765 -0.42772728 0.37573484 -0.07733434 0.2720294 1.2316062 0.28154448 -0.065093085 1.3517287 0.22753122 0.08397557 0.12329942 0.39715508 0.25155035 1.1664484 0.55805355 0.075711936 -0.41989255 -0.08096814 -0.08049453 0.38194764 -0.0025363972 -0.19098748 -0.6548048 0.18325968 -0.41187912 -0.3600065 0.37822852 -0.06812594 -0.04973204
minecraft:orange_glazed_terracotta 0.5555072 -0.3007619 -0.59512144 0.0025899012 -0.32198742 -0.025027148 -0.18277144 0.51060754 -0.078741506 1.8934066 -0.33632725 0.10470473 0.69298553 0.032341752 0.02381358 -0.00817185 -0.07797844 -0.20737998 1.4558238 -0.032703977 0.2840491 0.013832596 0.09391083 -0.39852706 -1.242403 -0.52251756 -0.040391598 0.4285884 0.48721647 0.5241147 -0.1236358 0.1652671 -0.00095563615 -0.04363422 0.039244812 -0.2790411 -0.071365036 1.0964357 -0.095676176 -0.32369596 -0.025973525 0.44217744 0.11059125 -0.52563226 1.2838616 0.2946774 0.72122717 -0.29840684 0.87719303 -0.36113545 -0.30429634 -0.09703837 0.0040181954 -0.03882983 0.77638257 0.7544459 0.027640011 -0.22277537 0.8047938 -1.1897874 -0.30346727 0.7599232 0.3056681 0.14315973
minecraft:monster_egg 0.56633484 0.010546552 -0.133067 -0.48703766 -0.1915696 0.046244875 0.09711161 -0.43073168 0.35907567 0.2603927 -0.13957435 0.2670794 1.3608509 0.021160413 0.046638165 0.20118335 0.06947542 0.8566835 0.8656536 -0.3650645 0.18085462 0.7045273 0.012403941 -0.91462326 0.15837675 0.15014851 -0.3046954 -0.05552608 0.25546482 0.19477512 -0.095392115 0.2072311 -0.118840985 0.32877123 -0.36748782 -0.2430067 0.32297355 0.9080067 -0.047031328 -0.3272058 0.2907634 0.5060072 0.56661004 0.031912398 0.47176364 -0.62865347 -0.14123443 0.5473905 1.3279798 0.06772998 0.044462178 -0.1560585 0.054718703 0.9307347 0.89534956 0.057744272 0.34614664 -0.7574246 -0.7243994 -0.32033706 -0.11844711 -0.24284081 -0.17897543 0.013628377
minecraft:iron_door 0.24380755 0.41228303 -0.31460318 0.24942045 0.2512598 -0.09474172 0.6430188 -0.30073708 -0.25972232 -0.12170056 0.21063176 0.075067624 0.56418014 0.104328334 -0.24128884 0.9311964 0.08537898 -0.022948591 0.8519686 -0.59433573 -0.36958227 -0.12786204 -0.17400676 -0.14908355 0.24769065 -0.06587274 0.3218474 0.50972426 0.8764278 0.27380776 -0.14199053 0.3756435 0.23841384 0.6933657 0.13453217 0.07113884 -0.4302893 0.2229068 -0.11806538 -0.145717 0.49917915 -0.78649384 0.098331824 -0.1302877 -0.031266324 0.080387466 0.027761737 0.03801442 0.029931707 0.36537588 -0.7895198 -0.27709258 -0.21790384 -0.29423052 0.33049774 0.5907033 -0.38902715 0.011170836 0.14291133 -0.25833625 -0.1245492 -0.20138477 0.08941132 -0.8063832
minecraft:mycelium -0.057743233 1.1474482 -0.27850503 -0.40749863 0.016391419 -0.5933505 0.20860958 -0.22293879 -0.15734795 0.65395445 0.01120649 -0.5854282 1.0626944 0.7780183 0.25721028 -0.46074426 0.92716956 0.29425266 1.5165062 0.35686454 -1.2075825 -0.52792406 -0.1514873 -1.4432598 -0.108480796 -0.1990915 -0.28956085 0.38728786 0.24483801 -0.17843391 -0.58748513 0.25407985 0.036096405 -0.33290762 -0.046270203 0.05197689 0.3566029 -0.40772405 0.4940352 1.3983986 -0.012043657 0.24560453 -0.08895403 -0.29592013 0.17804554 0.12046259 0.22992882 -0.22603703 0.26695672 0.2454768 -0.09048188 -1.0710177 -0.1363802 0.17931046 1.4601227 0.045731448 0.42511326 -0.31186154 0.23962246 0.3947296 0.044953007 0.2982678 -0.18115383 0.24864335
minecraft:trapped_chest -0.5008191 0.8410673 0.93839836 -0.34413537 0.1369815 -0.11960644 0.09810326 0.2431646 0.08269082 -0.12948886 0.3217522 0.24011204 0.5496445 0.22401124 0.038149185 0.30980477 0.13122061 -0.5465924 0.0847863 -0.07740739 -0.27355134 -0.19536498 0.32984856 -0.19588652 -0.49272442 -0.4120153 0.27789983 -0.11294072 -0.16028419 0.114351556 -0.9933235 -0.3349832 -0.1527798 -0.15863228 0.3117449 0.7755637 -0.10353762 0.03258334 0.60555446 0.42174158 0.18113576 -0.3022365 -0.09352711 -0.7031777 0.48528966 -0.13594934 0.5316846 -0.017309409 0.14985596 0.5419777 0.15039138 -0.47158006 0.6057686 0.54676205 -0.14463466 1.3891621 0.26618537 -0.55555624 0.076868944 0.21594393 -0.31362808 0.2645145 -0.17876649 -0.12727585
minecraft:snow -0.065939486 0.3670002 -0.017885787 -0.48381516 0.013771149 -0.22559407 1.244977 -0.4292304 0.4689607 1.0970539 0.9605969 0.18846846 -0.2568037 0.014950056 -0.8549499 -0.39138097 0.018264718 0.005624585 0.10957675 -0.016580658 -0.2793742 0.37894505 -1.0258324 0.16176243 0.14404689 -0.27995127 0.32975066 0.054015085 0.22871384 -0.085607335 -0.6876828 -0.40983772 0.021243872 -0.0042085056 -0.10965966 -0.0435971 0.31675127 1.4643097 -0.010923264 -0.19423014 -0.18972163 -0.045297842 -0.1341965 0.3571232 -0.13120134 0.16505462 -0.09001358 0.40562803 0.34701225 -0.33704224 -1.0976813 -0.0056489273 -0.39942953 0.59159154 -0.08461921 -0.15295702 0.6624969 -0.29853076 0.26585072 -0.720794 0.02858783 0.80238307 -0.45237854 -1.2493289
minecraft:wooden_pressure_plate 0.09532541 0.53870344 -0.2666385 0.026531879 1.0527266 -0.16182378 0.23981775 -0.13161404 0.86948884 0.82496893 0.7479356 0.12364159 -0.2335335 0.049694654 -0.0063279215 0.55225843 -0.16407911 0.25714245 -0.019520901 -0.48091173 0.035603426 0.24511217 -0.258226 0.22119996 -0.26982352 0.27768394 -0.21023114 0.008982357 0.25894833 -0.0928948 -0.1904944 -0.46743298 -0.14255655 0.43111894 0.56935424 -0.56742966 -0.6115771 0.098565176 0.24460866 0.17347172 1.1764985 -0.48983923 0.1513642 0.24553126 0.7772287 -0.08836625 0.018579913 0.07706903 0.33690944 1.0620604 -0.4059632 -0.5715181 0.23367643 0.10941239 -0.028214969 -0.23890857 0.087163314 0.17269036 -0.18498644 -0.0054933326 0.27569047 -0.2698514 -0.30171865 0.23290956
minecraft:red_sandstone 0.33216903 0.13293944 0.049165946 -0.6759614 0.60470533 -0.16670693 -0.10177483 0.97751224 0.2967763 0.85005707 0.31758937 -0.063804545 -0.12872954 -0.33335304 0.33209255 0.43478423 0.0060282173 0.40582377 -0.26385435 -0.1863236 0.45940417 1.1050955 0.2401498 -0.1603824 -0.5412006 -0.056804646 -0.33282554 -0.2507154 -0.47954452 1.2942688 -1.3829978 -1.1921505 0.6226883 0.4081939 -0.09191711 0.3710937 -0.023271242 -0.31316543 0.25855392 0.14621639 -0.08240604 0.12418224 0.34160566 -0.16660176 -0.46152407 0.26321945 0.3221788 -0.5517493 -0.111951396 0.75909376 -0.33215636 -0.35971528 0.011576776 0.37166777 1.3241194 -0.21938986 0.46353883 0.25220472 0.21961002 0.13468665 0.15426731 -0.17329344 0.079102695 0.10744545
minecraft:nether_brick 0.31318733 -0.23893577 0.24717839 -0.94921994 0.19906597 0.2822559 0.07124115 0.6428575 0.28510845 0.0024010108 -0.096808076 -0.55373096 -0.15587218 0.61712676 -0.019585649 -0.09045497 -0.11311002 0.07191486 0.4618607 0.12848547 -1.1401337 0.053438533 0.091904745 -0.6731938 -0.8002643 -0.63485366 -0.014212558 0.22661826 -1.317926 0.53593725 -0.73533696 -0.18062869 -0.23074149 0.33724722 -0.52794945 -0.051559515 -0.27651155 -0.13429716 0.9678686 0.38168707 0.74908346 0.4507528 -0.12168391 0.23421332 -0.12953562 -1.1131912 0.08320141 -0.06633618 0.016923217 0.17225051 -0.09569166 -0.82871056 -0.02197632 -0.22660087 0.31905848 0.048664995 -0.52131194 -0.77045166 0.15181783 0.29395968 -0.21626377 0.15848762 -0.41416714 0.26874143
minecraft:pumpkin 1.4800286 -0.20237534 -0.26448593 -0.48265967 -0.3176028 -0.21783677 -0.11707639 0.008750292 -0.04907322 1.0476897 -0.20711607 -2.0201967 0.71471936 0.011979993 0.15933932 0.17309812 -0.16655107 -0.05654709 0.14306282 -0.10757855 -0.63985777 1.8496152 -1.5785832 0.058926046 -1.6272862 -0.08356955 -0.13746879 -0.5604397 0.3940803 0.5622493 -0.8577171 0.09744022 0.24792838 -0.20748961 0.0011848034 -0.21950637 0.0058264756 -0.1036433 -0.13295953 -0.13462704 -0.04353759 0.22426961 0.10192739 0.079110265 -0.06384954 0.26704285 0.63663167 0.38125643 -0.10078752 1.0851339 0.091324665 0.1710332 0.02890194 -0.16395265 -0.0894336 -0.11946782 0.11258493 0.22139297 -0.42202127 -0.18560205 -0.013200044 0.13263784 -0.15680291 0.14706863
minecraft:concrete_powder -0.28312418 0.18919171 -0.19493228 -0.06461021 0.48767665 0.2402711 1.2012018 -0.052929115 -0.28686756 0.10227828 -0.37336195 -0.45519575 0.8482618 -0.09054405 -0.015292026 0.05698125 -0.15821375 0.16715734 -0.054199763 -0.6874485 0.15408096 0.5210444 0.3021556 -0.46485698 -1.1661725 -0.4771591 1.527668 -0.22782798 0.5083659 0.3119162 -0.4701929 -0.08726303 0.0049267965 -0.50978 -0.077496484 0.25248486 0.05544284 0.28476432 1.0750424 0.4527995 0.072220206 0.11988817 -0.23166291 -0.59066045 0.40045068 -0.11527636 0.81400555 -0.3586611 0.9873809 -0.14638996 -0.6362868 -0.7677222 0.19604339 -0.30854338 -0.1945359 -0.04483502 0.04966849 -0.9551255 0.81334704 0.16246644 -0.020620044 0.122957796 -0.03985109 0.11890053
minecraft:stone_button 0.19297235 0.43845448 -0.78685725 0.029801723 0.13694562 0.34423625 0.2212441 0.04929287 0.19375579 -0.17767479 0.4726653 -0.36076868 0.5621807 0.016152307 -0.15563664 0.7732476 0.22871308 0.44873092 0.46148434 -0.3359264 -0.49931338 -0.26011062 -0.2803961 -0.16008893 -0.305456 -0.11619583 0.09553909 -0.061033763 0.281237 0.083402134 0.22238407 0.28260678 -0.057022046 0.82045054 0.18225965 0.31924412 -0.35275143 0.34151772 -0.10997903 0.20123257 0.8962089 -0.736147 0.009933616 -0.027454238 0.178274 0.42202446 -0.054430563 -0.24427272 -0.27640882 0.46845418 -0.58546835 -0.29643792 -0.4125804 0.044697825 0.13364862 0.93844944 -0.27068725 0.091781154 -0.27707225 -0.27029622 -0.023343919 -0.38637713 0.41604206 -0.5572535
minecraft:sandstone 0.15633617 -0.05738493 0.043709476 -0.6775336 -0.07605766 -0.7989973 -0.24420264 0.12169107 0.32214084 0.054628734 0.13163897 0.08269147 -0.10208913 -0.09644929 0.0847876 0.16029318 -0.21068348 1.2634724 -0.24649619 0.016421786 0.21098907 0.23165093 0.24539484 -0.8656653 -0.12582521 0.35374036 -0.29848605 -0.333222 -0.5619791 0.09817261 -0.081962876 -1.339543 -0.23763345 0.022902578 0.32308316 0.04919896 0.012463826 -0.013816839 -0.24095422 -0.20177178 0.966384 -0.17960797 0.55720663 -0.23607548 -0.30589202 0.2456596 0.81461525 -0.006766375 -0.011828859 0.15097986 -0.36207297 0.043792605 -0.4213539 0.5997757 0.6642422 0.002626405 -0.16964531 -0.32458505 -0.14253926 -0.57783306 -0.1285984 0.03141547 0.22716391 -0.5564388
minecraft:carrots -0.15084055 -0.32160452 -0.37666285 0.07236925 0.20885438 0.028923202 1.2556962 -0.20931192 -0.20489618 0.27205986 -0.11658857 0.14031515 0.056519758 1.5604084 -0.81379884 -0.18512219 0.0719949 0.9937554 0.5663159 0.30032247 0.122818485 -0.09054634 -0.11014278 0.13535495 0.21009046 0.1593673 -0.100327775 -0.3865373 0.5598877 0.021785062 -0.10607039 -1.0400931 0.5199333 -0.4552578 0.516614 -0.6449288 -0.2485152 0.054854963 0.17588311 -0.13041085 -0.14927372 0.1586925 1.5659609 0.22083493 -0.13067114 0.052409813 0.33917278 0.25631276 0.32149902 0.761075 -0.26086184 -0.79957396 -0.91412175 0.23338996 0.07674672 -0.43210497 0.7112176 -0.93988127 0.072804436 -0.6697003 -0.118632965 0.7904993 0.045688774 0.1880074
minecraft:flowing_water 0.18983144 0.029918792 0.033133082 0.11855405 -0.15709196 0.069675595 0.057693426 0.40067565 -0.55130696 0.15596269 -0.38234457 0.09851825 -0.10664672 0.85776365 -0.044427127 0.67494214 0.26263613 0.73672086 0.5192689 -0.33904546 -0.15475176 -0.24504042 -0.37022713 -0.46182987 -0.109813035 0.16150957 0.4954469 0.022438737 0.5976639 0.67656344 -0.13991581 -0.31192935 0.3070776 -0.20862952 0.072981834 -0.124602996 -0.7374956 0.40822554 0.048686597 0.28551486 -0.016949514 -0.06005252 0.38677764 -0.43703446 -0.44765115 0.4403051 -0.137536 1.2093108 0.16217324 -0.12893713 -0.33076528 -0.49101752 -0.7269524 0.5571795 0.26529554 -0.15915364 -0.5482442 0.18213494 -0.14027801 -0.8611323 -0.43446073 0.24337162 0.253575 0.1617178
minecraft:potatoes -0.27270544 -0.33309653 0.46886596 -0.19246085 0.017521057 0.2573271 0.5111304 -0.049241044 0.019716268 0.012343862 -0.19685613 0.18960059 0.3630021 0.8443684 -0.33034757 -0.22502288 -0.15331526 0.08655881 0.83786255 0.30260074 -0.18718134 -0.18891346 -0.09457722 0.114703335 0.13086328 -0.20929435 -0.17091778 -0.02124966 0.46687883 0.00049395877 0.12068401 -2.1440473 0.90700424 -0.35653466 0.7715467 -0.4658655 -0.42253605 -0.020320462 -0.030921565 -0.18823107 -0.19478375 -0.3552263 0.7841085 0.21759564 -0.22910303 0.10015624 0.54532 0.8266322 0.8015269 1.2802181 -0.17029318 0.107087806 -1.314272 0.046441354 -0.17486018 -0.27303395 0.557157 -0.83876824 0.3457245 -0.5219285 -0.019659083 0.83691376 0.080130294 0.24180499
minecraft:iron_block 0.26570857 0.7291096 -0.113081574 -0.15988714 0.13695748 0.017962413 0.69773734 0.49393782 -0.085583545 -0.08346638 0.5448949 -0.18778631 -0.037020683 0.8631549 -0.26116627 -0.18617433 0.068516776 0.61608595 0.21998245 -0.8575387 -0.18674393 -0.32974806 0.021855501 0.021668736 0.16081232 -0.1323532 -0.18873607 0.3287904 0.094558656 0.7447579 0.045000445 0.12990233 -0.058377672 -0.32020915 0.24675657 0.6498876 0.29908133 0.3117208 -0.08404759 0.030380558 1.1290045 0.19926345 0.046299387 -0.28217793 0.9868919 0.26915634 0.8848261 -0.32789254 -0.016242888 1.255912 -1.2885257 -0.19773106 0.113997385 0.42136413 0.31317642 0.092608176 -0.42498562 0.008132258 -0.68877625 0.12989421 0.34837797 0.18976615 0.10319365 -0.028423708
minecraft:log2 0.29701015 0.64962983 0.016841698 0.17829643 0.8862145 -0.62051386 -0.10207559 0.21680744 0.93014276 0.66697365 -0.13236165 0.13240626 0.07169067 -0.037221566 -0.25039485 -0.1452109 0.004221008 0.37099984 -0.35542202 -0.25699434 -0.1511444 1.8540977 -0.17746507 -0.29282287 0.31955522 0.28618896 -0.17870289 -0.024561618 -0.107124515 0.25158113 -0.6855673 0.099793315 -0.53069407 0.8052122 -0.103679836 -0.120518595 0.2791195 0.86406237 0.26258278 -0.12854238 -0.18387496 -0.11189255 0.6716566 -0.5814548 -0.12308249 0.18480608 -0.14467491 0.6146546 0.8773341 -0.3010006 -0.2285948 0.07490836 -0.02745241 0.16104545 0.29430574 0.27886736 0.47307453 -0.07469697 0.027408218 -0.28017777 -0.06884694 -0.0050887186 -0.1635089 -0.40644062
minecraft:beacon -0.009061479 0.4914786 0.10554241 0.060371898 0.052684315 -0.78459084 0.36397815 0.3221454 0.20473379 -0.14684083 0.30179217 -1.0279905 -0.2032876 0.03486337 -0.24134848 0.120414585 0.11470097 -0.050006405 -0.3483945 -0.3956844 0.38896787 -0.20106925 -0.050462417 -0.016524948 -0.16629507 0.30728552 -0.26703236 -0.038554713 -0.21307424 1.0755053 -0.34309533 0.13687241 0.2246401 -0.20510262 0.106651686 0.0834877 -0.4503526 0.7272892 0.33164483 0.011297552 -0.2910449 -0.22226606 0.45935428 0.15281194 0.049316682 0.029131643 1.0076587 0.17860216 0.17880857 -0.05321626 -0.7845758 -0.07352917 0.01750074 0.06625254 1.1470764 0.68409985 -0.42462412 0.42284432 -0.58911526 -0.1974721 -0.02353134 0.48528448 1.346929 -0.083452836
minecraft:mossy_cobblestone 0.35900944 0.5134072 0.5598126 -0.03405741 0.15847501 -1.057079 1.2529088 0.094871365 -0.13148807 0.024907878 -0.03936592 -0.5497487 0.24811509 -0.08707357 -0.29452315 0.4564626 -0.1059767 -0.06397861 0.6166883 0.022153337 0.19117902 -0.24219191 -0.9582167 -0.23788099 -0.44411063 1.1621861 0.06488849 -0.7455168 0.24237186 0.3529766 0.15295558 0.3948184 -0.020254096 0.34444147 -0.006582428 0.08857717 0.17917207 0.22324146 0.7192474 0.15066187 -0.34581026 0.48142505 -0.16037153 -0.340885 -0.03683372 -0.24477136 0.32367358 -0.2995266 0.124579996 0.923203 -0.036033727 0.40284413 -0.02544391 1.640724 0.09169955 -0.2413758 0.3847698 0.3503541 0.79383624 -0.402215 -0.05307418 0.52217054 0.027335914 -0.27086067
minecraft:noteblock 0.033533856 0.87960714 0.4131611 -0.22521482 0.03788081 -0.0030963754 0.08390703 0.36924207 0.15797007 0.23929153 0.5942953 -0.7021995 -0.0019279469 -0.26809835 -0.2498775 -0.22659378 0.2940454 0.048163254 0.9619571 0.053773724 -0.45845702 -0.22311187 0.23298167 -0.12544176 0.17385228 0.7414838 0.17537536 -0.14355426 0.20194706 -0.19699514 -0.70839983 -0.3952957 0.31294182 1.3220304 0.24498513 0.17906368 0.28274274 0.88926613 -0.112148836 0.010745993 0.5023576 -0.27606672 -0.29886937 -0.08445177 0.7944628 0.12645966 0.120793924 1.6310368 -0.2077205 0.13910253 -0.16475561 -0.59477293 -0.016447505 0.14722905 -0.42304352 -0.3527874 -0.4652322 0.15984252 -0.28291333 -0.17679387 -0.20497178 -0.20405398 0.41979572 -0.99414045
minecraft:nether_brick_fence 0.3801073 -0.10887966 -0.55276763 -0.4233183 0.83651793 -0.12440728 -0.15356663 -0.45757353 -0.22060364 0.43567705 -0.10999044 -0.30369103 0.36829004 0.20786747 0.24670927 -0.31584966 0.385644 0.17216519 0.2475612 0.5105435 -0.12075917 -0.4313545 0.17100082 -0.103089936 -0.2726321 -0.13094515 -0.19098903 0.23654911 -0.3518963 0.34744233 -1.1207876 -0.74513495 0.18283264 0.17652066 -0.588569 -0.18979605 -1.2431188 0.10938237 0.063924015 0.4390164 1.7680106 0.25120845 -0.11089481 -0.10461266 -0.2181644 -0.3890172 0.12943244 0.21445549 0.5935765 1.0291984 0.23650292 -0.82405823 0.34196484 0.17544004 0.5161009 0.41571605 -0.0057343044 -0.19819058 0.7930392 -0.12037225 -0.34393775 0.45111498 0.5987711 0.39038226
minecraft:white_glazed_terracotta 0.95598084 0.22626412 -0.62131524 -0.2318724 -0.018680522 0.020825788 -0.10538156 -0.0016481053 1.0350846 0.16997285 -0.23309289 -0.5102499 0.9338528 -0.044007257 -0.26043597 0.38658908 0.22177008 -0.008122214 0.14663841 0.7462878 0.4641996 -0.44400817 0.26618037 0.1643562 -0.9360461 0.6297533 -0.15880041 -0.033992194 -0.10405413 0.16365612 -0.6967811 -0.08686599 -0.02918387 1.0583042 -0.13021912 -0.422129 0.6305642 0.2605756 -0.088524476 1.664314 -0.342617 0.08516914 0.6170902 0.2888616 0.9654281 0.30787706 1.0988904 -0.27000418 0.6238851 0.17054717 -0.5653318 0.20999251 -0.85929877 -0.26521084 -0.4124226 0.47721148 0.088980876 0.026957963 0.37933728 -0.12121487 -0.13371968 0.56670076 0.42367703 -0.17321703
minecraft:light_blue_glazed_terracotta 0.7448423 -0.19295618 -0.39112228 0.011620703 0.16534424 -0.58516353 0.011328653 -0.27940303 -0.085615344 0.42534164 -0.06068983 -0.8830888 0.531 -0.07667591 0.09071793 -0.19842288 -0.07319425 -0.010134702 -0.11077392 0.30076212 0.23877889 -0.25588432 -0.1585649 0.12708516 -1.5595213 0.39069536 -0.19822435 0.21367115 -0.28714126 0.55291677 -0.95680654 0.29127175 0.89145106 0.26920623 -0.40220955 -0.25978363 -0.082183346 0.16019116 0.80756485 0.64707124 -0.17174797 -0.29759052 0.16415207 0.11461624 0.7397267 0.12786227 1.7291291 -0.5674013 1.547956 -0.3654306 -0.21366057 0.112307236 -0.231428 -0.17869218 0.102542594 0.5003064 -0.09218794 -0.26931986 0.5197931 0.18183209 0.1418932 1.0084158 0.57648027 -1.0144066
minecraft:lime_glazed_terracotta 1.84073 -0.21554999 -0.7033655 -0.05843119 -0.12881762 -0.107433975 -0.12068825 -0.06099488 -0.060628045 1.0518707 -0.2464268 -0.04382441 0.41359225 0.36067137 -0.8530539 -0.11530059 0.13926868 -0.17331074 -0.09677085 0.3033133 0.048296217 0.0483305 -0.57707244 0.11175168 -1.2457119 0.11871096 -0.40804896 -0.05290639 -0.3118754 0.27654493 -0.06614762 0.1253154 -0.19890983 0.5866608 0.32238555 0.18471806 0.2925837 0.07845674 0.5288783 2.454168 -0.22214223 -0.029540766 0.013347177 -0.1561893 1.073584 -0.033790838 1.354583 -0.1408498 0.14862628 -0.12284719 -0.013893873 -0.107175656 -0.3521865 0.100124165 0.4060749 0.4608008 0.03320909 -0.015989153 0.13789408 0.13390768 -0.317121 0.49630988 0.03758265 -0.86032003
minecraft:pink_glazed_terracotta 0.46964443 -0.15064639 -0.135269 0.12247306 -0.07537017 0.18213181 0.40379465 0.2145301 -0.07169909 1.417016 -0.15327136 0.119988225 1.4955498 0.8452775 -0.5556201 -0.027554508 0.118294284 -0.17325358 -0.080908954 0.19057332 0.17889881 -0.08948468 -0.52610695 0.082667395 -0.8330186 -0.07772599 -0.08665197 0.18510856 0.019236205 -0.086287424 -0.0147429565 -0.42301285 -0.054366253 -0.1871911 0.29739934 0.13791572 0.096952714 -0.10792395 1.1359863 0.12552969 -0.22582489 0.0090468265 -0.051900174 -0.009841963 1.2687768 0.17057046 1.8067359 -0.09120957 -0.036776066 -0.21890011 0.103351735 -0.082487546 -0.8644144 -0.21072012 0.20642427 0.20659083 0.05477739 0.08461372 -0.021924533 0.18314983 0.024946546 0.21380973 0.09056779 -1.1763421
minecraft:yellow_glazed_terracotta 0.87038684 -0.38381255 -0.3049223 -0.2134402 0.19822386 -0.72973865 -0.16373368 0.19176129 0.14630756 1.1209018 -0.13721432 0.21949632 0.23933442 -0.16115208 -0.16682246 0.00025207968 0.39229342 -0.09717393 0.7973176 -0.062205408 -0.24400118 0.31337222 -0.9297954 0.35303244 -1.4064084 0.6772301 0.08322153 -0.1957162 0.07772834 -0.03696598 0.49068964 -0.2622656 -0.37878397 -0.12306757 0.049362652 -0.7494157 0.23863696 0.25968835 0.9322598 1.759668 -0.29229534 1.02809 0.081317075 0.13733701 0.94876426 0.41489697 0.46067727 -0.14416152 0.020245476 -0.077648096 0.15485758 -0.30038384 -0.10997517 -0.3900843 -0.060854904 0.34866783 0.022517921 0.028071905 -0.611316 0.12017754 -0.3568931 -0.31868175 -0.049146708 -2.0004957
minecraft:blue_glazed_terracotta 0.7107389 -0.017412499 -0.08755974 -0.1835512 -0.13510408 0.06314141 -0.096019 0.05799548 -0.80067176 -0.22630213 -0.0053566806 -0.2667782 -0.23801525 -0.08059255 0.03911 0.29689237 -0.15703559 -0.07683969 -0.041229066 -0.9811325 0.11821746 -0.03401107 -0.16292486 0.0656058 -1.2713045 0.033369314 0.40556744 -0.22391546 -0.34485838 1.2528521 0.073220655 0.24873544 0.084932186 -0.35044622 -0.054959085 -0.45775157 0.015717817 1.3713775 0.8556805 1.2657436 -0.27782962 -0.31551215 0.11532219 0.36750212 1.5722567 -0.14420442 1.302199 -0.19531053 0.5589534 -0.17780478 -0.07339676 -0.101005994 -0.36448342 0.08429998 -0.10596686 0.6438428 -0.4676422 0.008909613 0.55252993 0.386625 -0.09139051 0.21865888 0.113214694 -0.7446967
minecraft:red_glazed_terracotta 0.41294637 -0.15477388 -0.18058857 -0.031277478 -0.13045669 -0.28540987 -0.21411097 -0.43150708 -0.13451941 -0.011577653 0.0807161 0.19511236 0.076153964 -0.24870408 -0.09831027 1.257414 0.084262796 -0.14415841 1.3361979 0.35479575 -0.09504425 -0.19834988 -0.54947394 0.15613419 -1.5124972 0.5851245 0.7081375 0.15132615 0.19458304 0.66358626 0.13360259 -1.3003027 -0.357714 0.7337215 -0.48795894 -0.053369544 0.21890217 0.14540738 -0.023322538 0.2103193 -0.21852592 -0.27275556 0.30229124 -0.11676649 0.29516822 -1.0489188 1.6254789 -0.10536117 0.87595737 -0.09470047 -0.08466552 0.26954886 -0.7932839 0.03072041 -0.08788628 0.34033328 1.1333936 -0.2225243 0.037835237 0.122964956 -0.3743288 -0.24635865 -0.17106725 -0.99655735
minecraft:purpur_pillar 0.3156714 -0.25514787 0.39625722 -0.5172045 1.2401849 0.34166038 -0.11657644 0.17865762 -0.041424707 -0.1338669 -0.12916702 -0.55927235 0.18501872 -0.34608686 0.15526089 -0.10070242 0.3962935 -0.16026798 0.5896766 0.13144733 0.02710442 0.50116974 -1.0173419 0.077469915 -0.10599287 0.07793115 0.57123375 0.41721454 -0.7379175 0.056718428 0.0055632945 0.19448188 0.15509638 0.9128612 0.18337929 -0.014574321 0.19621968 -0.18229951 0.18386987 0.7069196 0.5016241 0.19170529 0.37552273 -0.051049415 0.66347605 -0.4412745 0.29897958 -0.43040162 -0.020616425 -0.20340843 -1.6637111 -0.10118906 -0.9945589 -0.272621 1.9688021 0.17032275 0.11346319 -0.22853342 0.24654584 -0.4912371 -0.19917439 -0.13411263 -0.17354912 -0.022592174
minecraft:purpur_stairs -0.44167843 -0.2170242 0.2564564 -0.2707388 0.9149285 0.07854641 -0.14664812 -0.098318875 -0.3188471 0.08917199 -0.37547073 -0.5367018 0.29560554 -0.22178459 -0.14149565 0.6560458 0.58058167 -0.05276869 0.35637653 0.044088587 0.29214388 0.660729 -1.2388453 -0.56583524 -0.08971503 -0.28200525 1.135778 0.08364057 -0.40264133 0.5474004 0.29680413 0.28961104 0.47993684 -0.29987174 0.25951272 0.296948 -0.24270542 -0.073511936 0.5397496 -0.10994314 0.12772742 0.011863294 0.97774965 0.05396127 0.40707773 0.31527188 0.71160734 -0.09625098 -0.4332879 0.3313876 -0.83759683 0.27996212 -1.0862837 -0.35186374 0.7649299 -0.29642683 0.061111208 0.10050411 0.21248986 -0.017661912 -0.037479945 -0.19883165 0.4840734 -0.055330664
minecraft:purpur_block 0.38195756 -0.26974484 0.40660763 -0.28728542 1.033604 0.23458974 -0.10387183 -0.057499863 0.6871355 -0.12905447 -0.12681027 -0.87438023 -0.2681698 -0.2149946 0.05232757 -0.50731224 0.6404081 -0.16420846 0.4930638 0.16250175 0.09986673 0.41705093 -1.2506316 -0.6688231 -0.02676369 -0.31518003 0.18624896 0.08544797 -0.34685752 0.5138864 0.0050139967 0.048856568 -0.07409124 0.24051666 0.370123 -0.113647856 -0.83809596 -0.281441 -0.23316234 0.4275339 0.45398787 0.21059506 -0.38947347 0.12217373 0.8178527 0.07312523 1.4803293 -0.15768676 -0.114043824 0.085759096 -0.9227167 -0.033623792 -1.3950753 -0.086325526 0.95857006 -0.092512585 0.37200356 0.30518952 -0.22132052 -0.93790823 0.112131946 -0.35407063 -0.3601414 -0.5747351
minecraft:clay 0.47256964 0.19433552 0.22630104 -0.4040759 0.4200919 0.40148014 1.0689132 0.020359656 -0.10336346 -0.22582433 -0.14724825 0.0059602037 0.54271996 -0.067715816 0.29973456 0.2895467 0.15146439 0.16570349 -0.094806224 0.32531354 -0.3843118 0.11771991 0.026974322 -0.58324414 -0.83187944 -0.1024304 -0.16343649 -1.4059298 0.10339029 -0.03328138 -1.4839199 0.13938619 -0.17904651 0.6099509 -0.28620267 0.64826196 0.5991462 0.05269424 -0.02871964 0.9327329 0.7616208 -0.724911 -0.32309112 -0.72174966 1.3011616 0.2329564 0.0012988421 0.21094526 0.972758 0.17255628 -0.1455666 -0.81897837 0.036912646 -0.0148953805 -0.15884951 0.547304 0.48818102 0.32660884 0.067868166 0.33311784 0.09903528 0.6832491 0.08467864 -0.4438809
minecraft:end_rod -0.097004846 -0.1538041 -0.38428205 -0.15617922 0.38024068 0.079809934 0.24565575 0.7060667 -0.10369405 0.34902647 0.098731935 -0.43779543 0.06012192 -0.16802636 0.022380233 -0.13663587 0.38274452 0.054368638 -0.10695251 0.045177814 0.49681896 -0.36960045 -0.83292013 -0.9235652 0.209751 -0.3473599 0.47985333 0.2151076 0.34740108 0.27394223 -0.16536087 -0.23741122 0.30414966 0.08097755 -0.20797396 0.6882725 0.056803137 0.19419247 -0.0008936689 -0.13568789 1.0554777 -0.6445858 -0.13141888 -0.25999314 0.64322656 -0.10229173 0.15354148 0.5437008 0.05876432 0.2152764 -0.64147985 -0.06523846 -0.44180608 -0.2563331 0.20232272 0.9015865 -0.3294631 0.2100927 0.11638293 -0.3529922 0.28020144 0.12418787 0.48202977 0.114613295
minecraft:sandstone_stairs 0.554566 -0.46377763 0.030934697 -1.4994593 -0.21364713 -0.88778603 -0.22899364 1.4158195 0.27392295 0.057593033 0.22603326 0.22660322 0.11492216 -0.22967473 -0.33463448 0.86402154 0.24965176 0.8001684 -0.46944714 0.2733487 0.14409633 -0.22156756 0.18466632 -0.12375601 -0.20384426 0.73549956 -0.10493729 0.14954926 -0.43486124 0.5744507 0.074435435 -0.52812266 -0.09243594 -0.44462308 0.535234 0.017644476 -0.005264625 0.090030946 -0.14039107 -0.22854367 0.30744138 -0.59919095 0.6450575 0.12149581 -0.16027336 0.16927393 0.31164065 -0.18433154 -0.24399747 0.27266732 -1.0806135 -0.8596326 -0.3621493 0.6502751 0.40949243 0.3860591 -0.09448637 0.08801042 -0.15245163 -0.24667308 -0.088099934 -0.6073718 0.23821156 0.041240312
minecraft:sapling 0.42117327 -0.23322128 -0.048874795 -0.0479868 0.6413574 -0.2982326 0.36705533 -0.124638475 -0.372787 -0.16774267 0.49443176 0.23884341 -0.13548678 0.29185098 -0.2287032 -0.07864417 0.1891425 0.19254816 0.81823444 0.19725354 0.054954126 0.38820547 -0.11969089 0.07437524 0.11234628 0.029935336 -0.15308356 -0.3878302 0.026693927 0.08646741 -0.014333669 -1.0529702 0.36649433 -0.37850952 0.72118217 0.30373326 0.018383006 -0.3085598 -0.068937495 0.6551488 0.104339786 -0.1960432 0.31542674 -0.67002636 -0.31529328 0.041160047 0.40704328 -0.30190876 1.5503197 0.29450122 -0.210577 -1.0162568 -0.47447044 0.06915977 -0.09932004 0.46339843 0.4445156 0.18667865 0.293797 -0.4042241 -0.29751354 -0.28266507 0.12072772 0.033480763
minecraft:light_gray_glazed_terracotta 0.9986299 -0.04476615 -0.80647403 -1.7803596 0.33998242 -0.0541757 0.7331814 -0.15443726 0.26270303 0.19228551 -0.043786872 -0.32789084 -0.29228473 -0.3157796 0.11914166 0.3661277 0.24967235 -0.42555645 0.28021768 -0.12345121 0.13818792 0.23306967 -0.5977237 0.2693652 -1.089503 -0.2050188 0.37240997 0.12274793 0.09228173 0.3611639 -0.18702099 0.28814676 -0.28316474 0.21728058 0.0488858 -0.76596606 0.35189313 1.203447 0.8319693 0.6409602 -0.06126832 0.16120596 -0.23596928 0.44460073 0.031771846 0.5204714 0.16777858 0.70078367 0.002730704 -0.16905215 -0.099980794 0.17081706 -0.026048806 0.82717997 0.503968 -0.15463288 -0.5096002 0.006788945 0.053166065 -0.5152609 0.09132723 0.91939574 0.22754157 -1.2879027
minecraft:end_portal_frame 0.40641657 -0.08351943 0.07195231 -1.2407752 0.115318745 -0.68867356 0.07459634 -0.13223016 -0.12267335 -0.018980874 -0.2509606 0.025516363 0.27340811 -0.10238856 -0.96624285 0.75311244 0.09287476 -0.31265152 -0.16182525 -0.60063195 -0.026647275 0.017727379 -1.7759681 -0.8449864 -1.059389 -0.6183518 1.1527203 -0.13246961 0.1513286 0.08343824 0.086786695 0.08578046 0.6305109 -0.36107418 -0.078804456 -0.93796885 0.071780205 0.03467799 -0.24667402 -0.34710655 -0.06333385 0.33662027 -0.16306174 0.12911373 0.12247696 0.0430186 0.09359157 0.6635202 0.14419903 1.664007 0.28473428 0.0669184 -0.4717878 0.4313581 1.0108017 0.70089453 0.44700146 0.18137902 -0.42933542 -0.6778597 -0.06496313 0.29257944 0.30948386 0.061210956
minecraft:hay_block -0.2850189 -0.17653258 0.6259748 -0.10391647 -0.085727796 -1.7165287 0.09753524 0.2965256 0.057958454 1.2022893 -0.2907011 -0.13274965 0.2439497 -0.14079459 -0.07121418 0.2813684 0.1888546 -0.045843672 1.748247 0.123246826 -0.15322787 1.0497884 0.27686355 0.22444458 -0.15515426 -0.14979629 -0.16322777 -0.32303673 -0.8397049 0.11421554 0.026642052 -1.2796081 0.5336446 0.2644094 0.81321627 0.36535734 0.20168927 0.13326794 -0.13848042 0.32028008 -0.3093216 0.4377935 -0.08485848 -0.51242375 1.555783 -0.022660488 0.6570786 -0.038938545 -0.14970103 0.043723103 -0.36524782 -0.7764346 0.0932691 -0.11129424 0.5747731 0.11773483 0.21834828 0.17682843 0.06615415 0.18830697 -0.12694903 -0.1864571 0.124899164 -0.41288975
minecraft:web 0.41562256 -0.011676432 0.33561084 -0.43593484 -0.08702538 0.16090557 0.048211195 0.20519835 0.51103646 0.5988702 -0.34946617 -0.5623357 0.5562723 0.15277983 -0.33229843 -0.11567028 0.26011172 -0.319367 0.5789624 0.4867809 -0.46469778 0.6614339 -0.3704137 -0.38701627 0.07242941 -0.023378307 0.7442076 -0.29437837 -0.3561993 0.55524015 -0.90363306 0.025791768 -0.18100987 -0.28255662 -0.39163694 -0.17589813 -0.9692373 -0.36164594 -0.30367044 0.035947286 -0.1574938 -0.27630863 0.21913452 0.026340432 0.2906395 0.2281508 0.7754783 1.3925391 -0.21286756 -0.0016183152 0.050935816 0.25832167 0.03089481 0.1706309 -0.31868988 0.03673876 0.3501035 -0.17053063 0.1014879 -0.2924345 -0.28004408 0.04602815 0.353151 0.46202514
minecraft:beetroots 0.6249005 -0.03808831 0.57450974 0.207093 0.08035837 0.068538584 0.81825525 -0.20224589 -0.15738605 0.16215254 -0.18186109 0.042437643 0.95662826 1.7239007 -0.8836121 -0.14038032 0.065299734 0.67381036 1.1993228 0.20347819 0.13332446 -0.10672121 0.16102329 0.033745047 0.1903836 -0.22930855 0.06930245 -0.3682499 0.39524975 0.28258938 -0.44297364 -0.8495971 0.3476164 -0.03495747 1.1645192 -0.26844236 -0.35327724 0.11414823 -0.017616693 -0.05998479 -0.100160316 -0.028329462 1.4066273 -0.70130044 -0.092687055 0.22439942 0.7614224 -0.054682 0.10051618 0.25755212 -0.38476053 -0.7827954 -1.3807497 -0.10103633 -0.13242292 -0.12741484 0.43733585 -0.0839531 -0.45662183 -0.20948167 -0.067334265 1.016688 0.04405641 0.0026817366
minecraft:melon_stem 0.8617411 -0.2199341 0.6854802 0.04156208 0.45732597 -0.12978621 0.2603561 0.16151549 -0.16479352 0.70460284 -0.21473633 0.19144194 -0.06278715 1.1090815 -0.14449586 -0.07020478 0.2984903 0.29229337 1.6084721 0.029177405 -0.25627342 -0.070269145 -0.108427554 -0.23394355 0.1306102 -0.030454984 -0.1447026 0.07983148 0.13081928 0.13657519 0.047219038 -0.27148315 0.98756975 -0.20474355 -0.043907136 0.22037233 -0.39202026 0.47179112 0.24175243 -0.331703 -0.19734761 0.11641908 0.5771757 0.2685877 -0.095493086 -0.004073872 0.13410911 0.9822518 0.65165454 0.12972413 -0.19021733 -0.8061864 -0.7865879 0.79145163 0.73153156 -0.09711928 -0.05583366 0.059604954 -0.14942797 -1.2624792 -0.10506255 0.54669434 0.089638665 -0.096564114
