218 64
minecraft:air -0.07055844 0.16076297 -0.006476353 -0.11219531 0.14648183 -0.057235327 0.106240995 0.19499594 0.091984466 0.18880072 0.11835976 -0.21179675 0.057749383 0.058456447 -0.34539244 0.0892006 0.7354455 0.15739496 0.12990911 -0.029076904 -0.24241735 0.13760461 -0.11072454 -0.12622568 -0.105200775 0.13286634 0.08509861 -0.15493092 -0.098431416 0.23689502 -0.13744472 -0.19729 0.10769062 0.09862475 0.14131546 0.118465 -0.08902524 0.24456115 0.15090908 0.13207005 0.20471531 -0.1599458 0.18976161 -0.15736134 0.10974301 -0.24722439 0.03510328 0.13614164 0.15392436 0.07118334 -0.1213689 -0.06075098 -0.11618946 0.16834614 0.049174357 0.04909452 -0.13271758 -0.1943487 -0.0068469676 -0.10710376 -0.5177614 0.028516099 0.47025102 -0.1255542
minecraft:planks -0.2392114 0.042100493 -0.047621526 -0.0838626 0.36448094 -0.46636522 0.24901867 -0.031439897 0.31832603 0.27358896 0.27543092 -0.023669736 -0.067650884 0.08666603 -0.0033650803 0.05971848 0.6532622 0.3352421 0.1532076 -0.10483891 -0.83692306 0.9564962 -0.13007028 0.12306237 -0.13540854 0.3606145 0.08246228 -0.22579831 -0.21697235 -0.3100896 -0.4341244 -0.33719757 0.21609403 0.43066013 0.4574283 0.3575794 -0.23502849 0.44235447 0.19934039 0.15184209 0.31831893 -0.12518723 0.056960862 -0.09873517 0.6087298 -0.5664109 0.020445563 -0.060610827 0.021443753 -0.08059144 0.077423565 -0.028869472 0.106723785 0.55482274 0.06263269 -0.024485014 -0.13007711 -0.42258576 -0.027277077 -0.5145812 0.20819639 0.00095751847 -0.3146682 -0.024460897
minecraft:redstone_block 0.46096 0.09028477 -0.20814517 -0.10442548 1.066715 -0.028314475 -0.2889598 0.62601507 0.10949048 0.7234678 0.627201 0.030985493 0.15918462 0.70016116 -0.5277577 -0.22432844 0.08614977 -0.25672114 -0.12966233 0.10208105 -0.4001407 -0.40012276 0.18485275 0.183631 0.45957947 -0.01983753 -0.122903444 0.2876162 -0.097102284 0.4710998 -0.3588608 -0.23746353 -0.09398212 0.4229092 -0.70269674 1.1676798 0.036791857 0.83277136 0.9507921 0.7221003 1.0479678 -0.16130303 0.055593725 -0.12833655 0.60950273 0.063887075 0.42225015 0.029733794 -0.44964424 0.6390631 -0.6632111 0.073468685 -0.014232408 0.55520606 0.61787385 -0.19510409 -0.47853145 0.57155055 -0.39475986 0.2595718 -0.6215737 -0.548014 0.3354186 0.3315722
minecraft:redstone_lamp -0.17894654 1.2510788 0.3830904 -0.014441288 1.1285775 -0.5407604 0.30031708 0.12206759 0.34297165 0.4461374 -0.102948144 0.09419215 0.35250115 -0.09597409 0.11924969 -0.006674755 0.13966225 0.04056661 -0.30682912 0.035520054 -0.35529608 -0.14192344 -0.0257433 0.17139636 0.16652842 0.21186754 0.18758753 0.28739867 0.061993033 0.121982835 -0.6728647 -1.4591352 0.16606708 0.42025602 -0.5348274 0.25501204 -0.87601095 0.20968929 1.0842519 -0.068072096 1.1625053 0.08580083 0.020459848 0.17222972 0.5683216 -0.13164665 -0.021035869 0.34633598 -0.18014339 0.4410183 -0.100390114 -0.29457405 0.5242392 0.29337105 0.19237441 -0.36381426 0.039803825 0.20016244 -0.5884892 0.27528965 -0.3562725 0.12855409 -0.04378534 0.22945103
minecraft:wooden_slab -0.15211408 0.15047467 0.11850168 -0.06722563 0.6640192 -0.38172984 0.046023987 0.044199828 0.43543956 0.7316747 0.86540085 -0.08041542 0.08260006 -0.11056611 0.19927229 -0.08600218 0.43263423 0.6675641 -0.28064921 0.043295916 -0.01274776 0.15758322 -0.2206957 -0.29243985 -0.18980561 0.24668612 0.028435703 -0.68516725 -0.49732912 -0.22109167 -0.07069479 -0.60957223 0.5220114 -0.24627282 -0.20706886 -0.2415617 -0.3297 0.250681 0.68288237 0.25271863 -0.04959268 -0.68357974 -0.02708732 0.16876692 0.917759 -0.5905291 -0.08381292 0.38568464 0.30956498 -0.014970937 -0.024145614 0.037891626 -0.07284885 0.42691478 -0.019262392 0.27223754 0.26585594 -0.18794699 -0.5135467 -0.73860407 -0.5081167 -0.0013607654 -0.06641706 0.21282125
minecraft:glass 0.20920065 0.33599532 0.17812161 0.17780517 -0.2670021 -0.3635772 0.0627238 0.14671801 0.44102746 -0.2847093 -0.1675937 -0.7072332 -0.018496318 0.27704513 0.19365221 0.63932043 -0.22070205 -0.1694102 0.655344 -0.2128286 -0.5362792 0.30671695 -0.032784857 -0.39166152 -0.20005037 0.53020585 0.2830549 -0.33254346 0.1686457 0.33586514 -0.2711864 -0.66451955 0.48481348 -0.15252133 0.43982974 -0.1773734 -0.2577185 0.43382117 0.5024577 0.20160554 0.5043328 -0.09089099 0.64544237 -0.5677507 0.21200943 0.14451809 0.15424718 0.25388432 -0.21180551 -0.022542085 0.06616432 0.028148834 0.013288845 0.07184732 -0.20430225 0.122037046 -0.85470575 0.28026152 -0.5276914 -0.28321895 -0.36834568 -0.104742125 0.12867187 -0.76257426
minecraft:carpet -0.7429856 0.21133147 0.19960603 -0.53871304 -0.065303564 -0.20947519 0.13485147 0.7967664 -0.32624593 0.36949942 0.26912105 -0.45688996 0.49318522 0.14576167 0.32025576 -0.122434855 -0.21187119 0.44508842 0.31963238 0.29985064 -0.112199746 0.40474573 -0.10777361 0.07435745 -0.024257088 0.09074257 0.05117051 -0.45493612 0.18086915 0.049032137 -0.19817948 0.056667104 0.12121157 0.8022788 -0.03616181 0.1694625 -0.1866494 0.2406475 0.3653877 0.49427104 0.044117767 -0.3758163 0.50624263 -0.75172406 0.5347136 -0.010288827 -0.08866897 0.2675683 0.10130171 0.33890215 0.3115394 -0.24392147 -0.007143709 0.2548521 0.44241306 0.16157648 0.098581105 0.022695553 -0.14251514 0.062470853 0.23337516 -0.030930487 0.0087837055 -0.831201
minecraft:dark_oak_stairs 0.10094795 0.9005632 -0.052362643 0.0711664 1.3955716 -0.062926486 0.5454947 -0.19975442 0.2888001 0.3978562 0.56812507 0.22609115 0.75761414 0.31858099 0.0834176 -0.31059703 0.69272536 0.10931551 -0.010529085 0.32649654 -0.04301553 0.415114 -0.51897293 0.10452956 -0.6296922 0.07328618 0.6571712 -0.4285235 -0.80159634 -0.18610527 -0.83159906 0.063607715 0.5486815 0.6254163 -0.09478283 -0.2890171 -0.10661427 0.8817113 -0.083607845 -0.29027042 0.11451771 -1.0046213 0.1420536 0.026351972 0.17561668 -0.47854498 -0.082198545 -0.05975406 0.25103796 -0.10586505 0.103466205 -0.076389715 -0.23085956 0.52289313 -0.41542432 -0.16274509 -0.017633894 0.057447378 -0.55461514 -0.24313194 -0.55029374 0.0029804755 -0.043789856 -0.74394107
minecraft:torch -0.57710534 0.3365786 -0.16613217 -0.35535645 0.15792951 -0.1759696 -0.10592898 0.073974706 0.75880986 0.31574255 0.7087832 0.1686183 0.17241485 0.04366134 0.06591411 0.32350484 0.52870816 0.3685893 0.21329671 -0.18230917 -0.2625974 0.14293131 0.18762384 0.021777902 0.2008251 0.0052939295 0.63766503 -0.076382756 -0.45016307 0.0141711 -0.15485251 0.14431691 0.18511318 0.25084186 0.32828772 -0.07531559 0.22770892 0.08775484 0.006609078 0.2955572 0.14504953 0.13144413 0.44976544 -0.3926119 -0.14020249 -0.09870156 0.30000797 -0.016025139 0.19480292 0.45807895 -0.021796815 0.012747347 0.07250656 0.4160724 0.03196755 0.10294315 -0.2672272 0.20451546 -0.3555959 -0.15037037 -0.6342035 0.095674716 0.048105095 -0.117464006
minecraft:dark_oak_fence -0.05402547 0.3864252 -0.7730099 0.20395851 0.6659361 -0.48045424 1.4406871 -0.35849193 -0.30260018 0.27620333 0.109590575 -0.19303863 0.3130421 0.2909657 -0.49813 -0.23929712 0.63395745 0.96185356 0.6619849 -0.62305164 0.020098157 0.13881244 -0.5377829 -0.11797947 0.05274286 0.06515525 0.123562165 -0.31625238 0.0732787 -0.2228299 -0.15914647 0.118977554 -0.14397982 0.7798879 0.3649356 -0.22426774 0.080066286 0.47099352 0.58527565 -0.17795706 0.17487666 0.06246335 0.7351539 -1.0720816 0.6074958 -0.13180287 -0.15085611 0.34111702 0.122957125 -0.23191477 -0.06690629 0.18772805 0.0044121826 0.32337147 -0.0014476652 0.10023139 -0.068736345 -0.57505 -0.39944503 -0.123808526 -0.6573304 -0.7025665 -0.13609284 0.4765355
minecraft:bookshelf -0.44193602 1.292551 0.4736134 0.09908644 0.03456102 -0.43115497 0.3453685 0.47898674 -0.010095974 -0.23884648 0.34290868 -0.16384393 0.29438075 -0.34263605 0.05645103 1.0050169 0.27421606 0.07352718 0.05135609 -0.13151124 -0.28469795 -0.08560813 -0.05789137 0.115900755 -0.31450698 0.078361794 0.5498358 -0.4495545 -0.5512705 -0.15672027 -0.20195661 0.20795608 0.16142175 -0.09082816 -0.05466077 0.38761064 -0.07373182 0.17751059 -0.031883035 0.49480578 0.08436494 -0.4517304 0.57293975 -0.24649468 -0.014229227 -0.09188316 -0.08355044 0.65055674 0.023665553 0.32887942 0.16720554 0.34544858 0.14991692 0.3224085 0.38747558 -0.3517843 0.054102387 -0.81749415 0.036465216 -0.056446243 0.062239926 0.29661345 -0.31320676 -0.04694775
minecraft:quartz_stairs -0.43924877 0.34509438 -0.2936909 -0.48824602 0.57710433 -0.014640131 0.4063114 0.47022915 0.09318349 -0.3394023 0.03854999 -0.72887474 -0.055787954 -0.23180574 0.18057533 -0.09622913 0.48849234 0.42015004 1.0814112 -0.008745665 -0.17015868 0.029393056 -0.4669343 -0.7971701 0.031072833 -0.039258935 -0.16114432 0.4470864 -0.10911926 0.5046449 0.106904 -0.27224964 -0.3618339 -0.32732642 0.2368683 0.29116073 -0.23197705 0.4698113 0.24457291 0.4065131 0.72724676 -1.2083786 0.26748905 0.010127406 0.20686533 -0.13508277 -0.28195503 -0.14702679 0.05120889 0.07435684 -0.57634646 -0.26199228 -0.6868518 -0.27168465 -0.07974891 -0.31194425 -0.5102514 0.0014368711 0.43947074 0.09077886 -0.087266155 0.09282466 0.09743029 0.030812768
minecraft:stone_slab -0.02514046 0.4908664 -0.09739923 -0.34926945 0.15282884 0.13266565 0.40599614 0.6641718 -0.25869474 0.024742762 -0.02073377 0.12861681 0.21006644 0.12795965 0.017776335 0.07746397 -0.00021005374 0.90501297 -0.19559686 -0.22123708 -0.59739345 0.026950385 -0.21231954 -0.64300007 -0.1908493 0.23754212 0.30672756 0.11041742 -0.5879161 0.8536038 -0.025079235 -0.0034834193 0.4035915 0.046605524 0.5356676 0.177131 -0.14702256 -0.06568443 0.2988645 -0.20877431 0.8273861 -0.3115013 0.596385 0.012691131 -0.12142745 -0.6628879 -0.22293824 0.11797687 0.47248572 0.27942842 -0.47739 -0.32753113 0.08881366 -0.35561538 -0.13633573 0.010621166 -0.1380581 -0.011372261 0.31950083 -0.18827254 -0.10403057 0.22647586 0.43106022 0.21970388
minecraft:bed -0.35935625 0.9555661 -0.5007651 -0.46442214 0.21721652 0.028728094 0.22515202 1.0419589 -0.14672643 -0.096835464 0.08991127 -0.08115302 0.17175607 0.3022049 0.03721507 0.737752 0.23761246 -0.1638002 0.42447895 0.13340281 0.17602846 0.16644548 -0.16429697 0.07109503 -0.07054861 0.1736063 0.16710927 -0.33648518 -0.13093516 -0.06665338 -0.38488364 -0.3436126 0.17152011 0.0802498 0.42455077 0.43160746 -0.09057049 0.19809842 0.13570125 0.38602835 0.055627864 0.23869166 0.23029377 -0.08033196 0.37626082 -0.11687052 0.34834236 0.7307126 -0.19436628 -0.020980388 0.2199803 0.2963357 0.24482834 0.2803042 0.14548068 0.7801825 0.1329192 -0.23417261 -0.18073772 0.2115701 -0.075969525 0.3556013 -0.25300744 -0.40768725
minecraft:dark_oak_door -0.35524505 0.60834503 -0.037353262 0.30184934 0.6378289 0.2882447 0.21336074 -0.19455437 0.24344958 0.3028128 0.8278694 0.18166523 0.4804528 0.12984233 -0.5251931 0.17738417 -0.17786841 -0.3863504 0.74566627 -0.039621163 -0.47731176 0.27658692 -0.08573324 -0.1974841 -0.019330852 -0.15934436 0.20415738 -0.30538324 -0.62972236 0.3059112 -0.6701114 0.030963961 -0.34449574 0.2163487 0.43356916 -0.19182631 -0.4557889 -0.21650895 0.54651237 0.17681447 0.58437836 -0.17998645 0.16218781 -0.7246797 0.5836802 -0.06822558 -0.31765902 0.246449 -0.28717652 0.30375692 0.26278737 0.08463901 -0.013501814 0.061830096 0.17897715 0.112974375 -0.34069532 0.18833293 0.103406765 0.1539826 -0.24004374 0.36336216 -0.2878161 -0.42177847
minecraft:spruce_stairs -0.7582955 -0.24351713 0.24011298 0.016926184 0.55384487 -0.6060344 0.35509795 -0.32136425 0.2784154 0.5927628 0.46328723 -0.0683778 -0.31051996 -0.19549716 0.02686317 -0.35209844 0.66520387 -0.13218676 -0.045069247 -0.20917629 -0.8845846 0.74123734 -0.55939937 -0.21482533 -0.38172185 0.06760548 -0.32226685 0.0835384 -0.4493025 0.08860076 0.011955789 -0.06464888 0.5627503 0.32652983 0.34326673 -0.28220212 -0.6116983 0.49219537 0.510454 0.11713642 -0.007484327 -0.94979036 0.6721962 -0.5887274 0.40289667 -0.37046218 -0.19084534 0.562972 0.2930122 0.07532767 -0.54611963 0.18419494 0.31965235 0.495546 -0.10072992 0.93754846 0.13215241 -0.3958989 -0.9524824 -0.023909653 -0.113465756 0.66505766 -0.12798849 0.16874562
minecraft:oak_stairs 0.19539353 -0.18477064 0.085794196 0.17410289 0.5118062 -0.20306055 -0.06480587 0.2945647 0.9054765 0.6258499 0.9140191 0.46962532 0.27375194 0.64544684 0.16761218 0.48061648 0.39695403 0.6884119 -0.12510191 -0.085465424 -0.12980628 0.22851895 0.27493745 -0.06988575 -0.478618 0.23366436 0.15745234 -0.44480342 -0.1510392 -0.25450626 -0.19017904 -0.5199195 0.09782128 0.33625403 0.66020525 0.31495452 -0.990282 0.43908823 -0.15787593 -0.18633074 0.13819653 -0.58755887 0.035224684 -0.37291405 0.26524222 -0.8203188 0.21182674 -0.06091533 0.6569783 0.21107757 -0.115668386 0.46689713 0.119987644 0.61621845 0.20686598 0.05654859 -0.16167118 -0.75577414 -0.38984424 -0.32477838 -0.8099973 -0.33860132 -0.24099234 -0.53807515
minecraft:wool -0.11721757 0.10158532 0.10448732 0.24899907 -0.23357044 0.35779104 0.30477488 0.601895 0.30606365 0.30180407 -0.22457618 -0.31146672 0.54291075 0.22557406 -0.4500139 0.42955545 -0.4388604 0.38349292 0.10878669 0.16053699 -0.09431951 0.021718089 -0.24096836 -0.23025355 0.20293072 -0.33793113 -0.114642166 -0.038778156 0.10755183 -0.10247744 -0.47836792 -0.6422504 0.32583976 -0.08904971 0.56708395 -0.00067198195 0.18420619 1.0071591 0.25711226 0.47482508 -0.05212744 0.09766697 0.6336503 -0.45336658 0.7241815 0.0858951 0.47467732 -0.15967172 0.082403794 0.5267243 -0.85191226 0.20649451 -0.6376926 0.7677267 -0.227658 -0.19721152 -0.23694395 -0.34971341 0.1264392 -0.10841598 -0.2934249 0.34668857 -0.044067997 -0.2423477
minecraft:wooden_door -0.22934431 -0.00020295051 -0.37449795 -0.3613667 0.29907432 -0.54549426 0.022806728 -0.102735616 0.05910535 0.23887882 0.61868614 0.10387593 0.27752662 0.49208495 -0.18518138 1.2152271 0.038073137 0.40925077 -0.001977805 -0.8801449 -0.089887224 0.28186125 -0.016086567 0.34225476 0.11769285 0.22408187 -0.18443789 0.15279339 0.32156536 0.03972444 -0.03184203 -0.18684968 0.54527247 0.19393197 0.097450316 0.07175335 -0.20457028 0.18601872 -0.0026089158 0.44273227 0.5517575 -0.2963448 0.818605 -0.30789855 0.48293233 -0.6561298 0.58538926 0.08676921 0.3524012 0.53897023 0.28568408 -0.21136779 -0.63521373 -0.083935454 0.20345744 0.006885664 -0.68534493 -0.06586141 -0.48006552 0.26171914 -0.07012791 0.08012346 -0.17269658 -0.12417998
minecraft:glass_pane -0.042979877 -0.07070233 -0.34219307 0.07057803 0.6068071 -0.45954317 -0.04499937 0.7342233 0.5566656 -0.20950203 0.32972798 -0.33501434 0.096556865 0.034864277 -0.33007848 0.22332743 0.45479497 0.37621576 0.031851172 -0.4661866 -0.45436475 -0.09836302 -0.728102 -0.46032718 0.079765 0.3505816 0.43399325 0.13952321 -0.5218233 -0.4073435 -0.43820974 0.31599608 0.5255994 -0.24194735 -0.11402438 0.15065102 -0.41719764 0.24158806 0.5076763 -0.15196109 -0.082835615 -0.1067087 0.31669354 0.27931798 0.28988755 -0.09124687 -0.03295359 0.44352722 0.03688536 0.07875739 0.11079345 -0.27743858 0.2583636 0.34505484 0.20727015 0.4011723 -0.4713087 -0.2727552 0.09061946 0.39476505 -0.06785736 -0.16543588 0.37703153 -0.9344587
minecraft:brick_block 0.19189079 0.01543087 -0.10087813 -0.0148537 -0.06360919 0.028890058 0.6597245 -0.24756354 0.25640875 0.0253638 0.37572706 -1.0366536 0.13767514 0.4456285 -0.012302551 0.34906927 -0.1559995 0.505102 -0.0070854947 0.06060262 -0.90861905 -0.02014073 -0.06617269 -0.5076249 -0.63140064 0.3864677 0.21513824 0.3156571 -0.30520415 -0.001060352 -0.43726292 0.24146175 0.31416413 0.32350007 0.41774455 0.54626304 0.12756573 -0.22986318 0.71009904 -0.23798665 0.2893942 -0.16202521 -0.2830276 -0.7339158 0.24815135 -0.8284533 0.28947705 0.089953855 0.63075143 0.2518041 0.18166748 -0.07430016 -0.5507351 0.4142379 -0.027006254 -0.08273389 0.40369684 -0.67792225 -0.31175005 0.17127101 0.206641 0.24140309 0.10142876 -0.14464392
minecraft:concrete -0.014515566 0.35478786 0.30811846 0.20741718 0.35965693 0.1019958 -0.2180047 0.30270597 -0.20884493 0.1076719 0.2566567 -0.2773557 0.48666885 0.005948499 0.4465489 -0.059064247 0.584213 -0.10736908 0.35103863 -0.108639106 0.081339896 0.36038202 -0.30050138 -0.61330825 -0.6745858 -0.20479551 0.33038205 0.33237118 -0.13645893 0.37848592 -0.39825618 -0.6020158 -0.44274697 0.08796735 -0.135514 0.36306247 -0.6166208 0.23175743 0.88261217 0.39986023 -0.012039666 -0.13978843 0.14322592 -0.057096988 0.29979646 -0.7153727 0.43135983 -0.09631836 0.7070619 -0.14679118 -1.0222882 -0.21669261 0.06334639 -0.2545511 0.31415033 0.06956382 -0.40736917 0.06795866 0.054502685 0.00946334 0.4632461 0.009607446 0.3925473 0.03648604
minecraft:double_stone_slab 0.37345457 0.17026533 -0.09629339 -0.16718876 0.16525716 0.15246813 0.09029377 0.50535774 -0.09824698 -0.22884828 0.4300762 -0.3390196 0.44690156 -0.21976054 0.11970606 -0.036527015 -0.38551348 0.8575954 -0.03849999 -0.2747681 -0.24525923 -0.05747499 -0.64548564 -0.51387733 -0.085424155 0.32168895 0.64521384 0.15762475 -0.17230506 0.40495044 0.13809355 -0.048850898 -0.055192243 0.6701633 1.1094431 0.4486649 0.109820455 -0.18362077 0.48616844 -0.2722104 0.92305046 0.060150933 0.7972707 0.19023202 -0.119941935 -0.7779702 -0.10440011 0.44268182 0.29973993 -0.010745521 -0.27499077 -0.526916 0.17505059 -0.2606394 0.32262823 0.3296477 -0.058340184 -0.12714379 0.107967764 -0.13176246 -0.64312685 0.59825355 0.11260844 0.26373947
minecraft:stained_glass_pane -0.13288824 0.21662074 -0.06955572 -0.61569077 1.0563207 0.06819377 0.41733506 0.6935996 0.51878226 0.78923887 -0.07476311 0.07999046 0.5310173 -0.12857464 0.24602869 0.1261609 0.25924805 -0.038352832 0.3341267 -0.16822578 -0.13146135 -0.39265266 0.0146042 -0.60780776 -0.6376405 -0.15683627 -0.10601812 -0.042325474 -0.26095837 -0.123152286 0.35323098 -0.06938808 0.5748659 0.336387 0.29986295 0.377095 0.2577018 0.5981098 -0.15228856 0.7251711 0.28358778 -0.095626764 0.087634124 -0.38047808 0.31298712 -0.15264715 -0.024459641 0.29838678 0.21625997 0.241166 -0.3916349 0.33860672 -0.14635776 -0.28700116 -0.092793465 0.38698387 -0.2209089 -0.5650299 0.18201277 -0.14710684 -0.053529892 0.11765534 0.39269757 0.25064883
minecraft:cobblestone -0.009121975 0.18542202 -0.18641956 0.03379201 0.31480485 -0.30205646 0.4472424 0.49623877 0.42323083 -0.10438656 0.68348414 0.32118896 -0.09193114 0.29775003 -0.34917936 0.5147362 0.049397998 -0.02939948 0.37453786 0.029822584 -0.8895399 0.38310885 -0.5638488 0.08231337 -0.41894278 0.66847193 -0.4361033 -0.38019496 -0.0177789 0.12683053 0.379119 -0.6666864 0.3234502 0.782571 -0.3323112 -0.34769082 -0.19873889 -0.24593987 0.62948656 -0.39522287 0.2110232 -0.041875936 0.5617163 -0.18811142 -0.23835513 -0.3647551 0.13563438 -0.43825242 0.8052769 0.37749577 -0.0616449 -0.06953598 -0.43503392 0.8864757 -0.37138718 -0.166084 0.46953717 -0.523442 0.022663802 -0.39667273 -0.059350308 -0.16617766 0.04428397 -0.5778623
minecraft:log 0.20212634 0.1307685 0.061562877 -0.10678854 0.43050018 -0.6141534 0.7196158 -0.029458515 0.08458099 0.43109715 0.71737677 0.17191058 -0.026689114 0.1521861 -0.13033143 -0.12662293 -0.13545181 -0.16935688 -0.15737478 0.00022418331 -0.9245099 1.2442347 -0.4154504 -0.17245315 0.0477448 -0.12863907 0.42718017 -0.28370926 -0.19789141 -0.25018287 0.29499656 -0.6259651 0.24804571 -0.30102843 0.44559366 -0.22632033 -0.28242058 0.7321183 -0.122308664 -0.16215566 0.26887283 0.23305315 -0.21779864 -0.15768044 -0.080866896 -0.77755755 0.09180224 0.640715 0.75018954 0.29547662 -0.26857367 -0.0016701273 -0.051395517 0.4885957 0.15377286 0.084137425 -0.31561163 -0.26460648 -0.17167932 0.010026407 -0.13707887 0.019560892 0.036058344 -0.14265029
minecraft:flower_pot 0.236144 0.51313484 -0.16028975 -0.04267685 -0.16083962 0.025559923 0.07414341 0.48019612 0.76285297 0.29595855 0.22653982 -0.18599759 -0.34634075 0.13029645 -0.037034795 0.37946433 0.44957748 0.075161755 0.17573383 -0.031320333 0.13740672 0.38038754 -0.31207246 0.07851902 -0.32573503 0.3140779 0.010394316 -0.7189276 -0.5291273 -0.14115831 0.04099075 -0.07300083 0.30514356 0.0860025 0.6265961 0.63116103 -0.14278768 0.04976713 0.17048864 0.18008573 0.05565026 -0.10481191 0.14314814 -0.065493844 0.29865894 -0.3390736 0.48560053 0.26051748 0.19568625 0.5026483 0.2418402 0.13207774 -0.07203387 -0.33199078 0.24003169 0.44178385 -0.03227065 0.12219365 -0.20918828 -0.41396257 0.053187937 0.13372844 -0.27622607 -0.55540246
minecraft:stone_stairs -0.10304577 0.78750503 0.035301685 -0.0934414 0.58789593 -0.41277042 -0.16738234 0.11872071 -0.13805403 0.23273683 -0.216774 0.3462532 0.48888806 0.30604276 -0.8442541 0.55895954 -0.12443729 -0.24074154 -0.3140401 -0.07692406 -1.2411132 0.29157963 -0.7485269 -0.15980965 -0.20613156 0.33361438 -0.052329086 -0.16264908 -0.60042065 0.4682305 0.43738204 0.08110828 0.22587138 0.78494203 0.20387526 -0.11602877 -0.12636405 -0.06162304 0.45067272 -0.31235942 0.86584234 -0.33833012 0.38359678 -0.20492972 -0.2368505 -0.63339156 -0.28874135 0.16992772 1.0635885 0.19474314 0.057971336 -0.23970202 0.19237415 0.7157782 -0.34658173 -0.37413204 0.24383156 -0.08711486 -0.2760796 -0.57049376 -0.30742612 -0.19307628 -0.2096617 -0.722281
minecraft:chest -0.90709025 1.3303807 0.094224416 -0.22466362 0.2033417 0.07590545 0.2716948 0.32103595 0.5100926 0.07339726 -0.07781355 0.07545008 0.12709613 0.30271116 0.08159393 0.94458944 -0.059205744 0.019500982 0.34599105 -0.024374096 -0.21780872 0.3359225 -0.12039575 -0.03183679 -0.067476 0.32446265 0.21808416 -0.57305115 -0.049557485 0.22647002 -0.1427018 -0.1704076 -0.02384907 -0.0016004458 -0.08764107 0.37917337 0.044150997 0.20676026 0.041237425 0.28784916 0.060823318 0.04910768 -0.08824952 0.04093701 0.083291456 -0.2363501 0.45426485 0.4385298 -0.10347465 0.09138722 0.014282006 -0.5285437 0.20615622 0.0965313 0.03136947 0.26268145 -0.27246213 -0.32150134 -0.081142746 0.15558113 0.16092518 -0.29819134 0.026025698 -0.41814405
minecraft:trapdoor -0.28458497 -0.0561616 0.034545884 0.53907794 0.60764045 -0.18108438 0.5018653 0.54517573 0.43959525 0.018627204 0.2814168 -0.099582784 -0.39398727 -0.20837161 0.06004026 -0.2859681 0.34963384 0.3929888 0.26080158 -0.31008023 0.10242842 0.1570398 -0.61817783 0.22511716 -0.30920118 -0.4092207 0.15502006 -0.20534068 -0.19883284 -0.20558526 -0.6629157 -0.45087308 -0.19885893 0.018770348 0.46361423 0.49964958 -0.41808057 0.44622967 -0.04542907 -0.29643294 -0.29636428 -0.4004065 0.0731585 -0.23597202 -0.22587658 -0.57402915 0.39600894 0.583478 0.65462667 0.28629398 -0.192419 -0.5800112 0.043577604 0.21670218 -0.3817294 0.327471 -0.5222447 -0.31264025 -0.14431323 -0.77858925 0.34228203 -0.052752968 -0.11105692 -0.34933275
minecraft:jungle_fence 0.6781009 -0.43413818 0.125907 -0.4949862 0.94521964 -0.7832828 0.9392749 -0.09538807 0.22051385 0.7691875 -0.036405407 -0.5917465 -0.22807252 -0.46883875 -0.11180414 0.05757749 -0.12554494 0.6001805 -0.105119005 -0.035707995 -0.29342905 1.0660369 0.06209623 0.36748147 0.24125679 0.37947178 -0.2400868 -1.4272757 -0.75382715 0.18018436 -0.09861042 -0.22006705 0.762356 -0.036801364 0.08680904 0.46521357 -1.1670233 0.5608845 0.15956324 0.22938396 0.63607705 -0.0013778651 0.15228988 -1.0381747 -0.14618266 0.09191576 0.42978707 0.09209992 0.6221723 -0.29580572 0.10130527 -0.3299411 0.34238866 0.09087033 0.034873772 0.4547911 -0.5249517 -0.2537979 -0.6062225 -0.27314615 -0.17116444 -0.4810034 0.22327207 0.22674899
minecraft:jungle_stairs 0.061877724 -0.07340502 0.00040823987 -0.7283789 -0.064272165 -0.69876575 0.100760005 -0.26905036 0.11936134 0.49229595 0.8037044 -0.35482493 -0.119814694 -0.20317295 0.15549925 -0.19550382 0.1800404 0.3383655 -0.22922969 0.18795533 -0.20261866 0.72389126 0.31436262 0.21133976 -0.8218588 -0.25761855 -0.046528466 -1.5545237 -1.0845762 -0.19957349 -0.112029746 0.20524627 1.0740631 -0.23705377 -0.048276458 -0.053871516 -0.3589031 0.4857728 0.7080347 0.9219895 0.6000753 -0.11768624 -0.30808342 -0.54935175 0.23680139 -0.5899217 -0.24321233 1.0537328 0.012755686 -0.310388 0.1469298 -0.39646477 0.043243885 1.4106573 0.08214053 0.64455575 -0.3359483 -0.40068385 -0.19843721 -0.71294755 0.09409214 0.38319406 0.15108539 0.29701924
minecraft:brick_stairs 0.14735915 0.011211968 0.23317872 -0.7487325 -0.27608994 -0.016584344 0.86763954 0.43654528 0.8882051 0.6064976 0.4599019 -0.18482621 -0.25004768 0.868928 -0.7392829 0.25900194 -0.28067836 -0.14582981 0.09805603 0.0954228 -0.53767765 -0.16918963 -0.7295807 -0.37007946 -1.0256147 -0.24435271 -0.11787697 0.20066725 -0.4364518 0.47938865 -0.052387677 0.062237773 0.22504716 0.20103809 0.8857304 0.41019216 -0.38441354 -0.39840022 0.87729454 -0.062202178 0.6997463 0.09220312 -0.35525003 -0.33781898 0.077373624 -0.5089818 0.037347578 -0.062688515 1.6433717 -0.14152919 0.22822239 -0.49346486 -0.74443763 -0.22709659 0.012259587 -0.014419256 0.22123815 -0.38005766 -0.19062373 0.25011835 -0.050616417 -0.15310077 0.035500303 0.20461573
minecraft:iron_bars -0.5398439 0.24505572 -0.63253367 0.2981626 -0.064854525 -0.031529326 0.3689578 0.4092881 0.021840079 0.15669465 -0.24513724 -0.46616125 0.33474347 0.31952187 -0.37023735 0.557055 0.12754017 0.033383623 0.6697266 -1.2870706 -0.82517254 -0.001737824 0.16275574 0.059328154 0.10489568 0.037198808 0.005104034 0.15991619 -0.44682693 0.39509624 -0.009756662 0.06894202 -0.12646103 0.09758376 -0.37166417 0.3765759 -0.5054053 0.012074887 0.14911538 -0.30690932 1.1038531 0.117172435 0.41175643 -0.06765497 -0.50568813 -0.22907384 0.044984993 -0.35469452 0.3857029 -0.08064774 -0.026149351 -0.41527805 -0.10467316 0.846128 0.30685157 0.8602406 0.2209996 0.11862446 -0.13914491 -0.3041184 -0.24556644 -0.46633887 0.5529818 -0.3754955
minecraft:cauldron -0.042757507 0.7464468 0.27459383 -0.27392963 0.23535831 -0.1582629 0.24600112 0.47412038 0.41507253 0.074184 -0.45592895 0.34005713 0.112456925 -0.24296114 -0.09029883 0.48304504 0.10275789 0.2473024 0.5592881 -0.7432491 -0.28670436 0.12467726 -0.0071359007 -0.04555686 -0.4911369 0.105052024 0.4011287 -0.0038949915 -0.14663777 0.05021221 -0.33268785 -0.21244763 -0.15937622 0.32081896 -0.16999602 0.7110173 -0.59538513 0.46252722 0.016991772 0.18403727 -0.13229074 -0.31670964 0.57983476 -0.0059937295 0.005555491 -0.059573207 0.49731785 0.06601892 -0.11746873 0.35345703 0.4777552 -0.6880492 0.06931519 0.12776515 -0.17329504 0.6866074 -0.2455466 -0.11026471 -0.52373594 -0.16931818 0.0013592235 -0.52951485 0.12306731 0.2099171
minecraft:furnace -0.2552116 1.3699683 0.4801607 -0.591385 0.23390196 -0.07060355 0.35369456 0.20135656 0.5744081 0.39229143 0.029016595 0.078854345 -0.2132623 0.2627277 -0.04202278 0.56571656 -0.22513585 0.06769336 0.50255454 -0.35820046 -0.120199956 0.32039264 -0.20827311 -0.39895535 0.2943436 -0.104565166 0.34959224 -0.032185353 0.09956248 -0.2819769 -0.12572087 -0.013969401 0.15223157 0.2337196 -0.04685575 0.46664095 0.055154264 0.20101766 0.0047208965 0.30077252 0.3400618 -0.29336998 0.29079857 0.005208848 -0.016429996 -0.54766077 0.41311598 0.16536689 -0.32795483 0.23617141 0.2059098 -0.5645217 0.009415182 0.2854885 -0.32755622 0.45990473 -0.087748356 -0.24999258 -0.30072677 0.20832184 -0.17965877 -0.045876592 -0.13965066 -0.48277172
minecraft:enchanting_table -0.19470863 1.1051757 -0.20651844 -0.110141546 -0.07202831 -0.3459175 0.2044338 0.5865908 0.40959466 -0.092281185 0.37200508 -0.50538623 0.0067846915 -0.18151964 -0.046167128 0.75079215 -0.05637292 -0.09500837 0.4373477 -0.40059835 -0.5158182 0.012593895 0.13753334 0.045532204 -0.13099651 -0.048266716 0.6097161 -0.6175747 -0.24327847 0.03461887 -0.075003654 -0.17601766 0.15908608 -0.015403932 0.00802722 0.11253356 -0.045979165 0.46392998 -0.18464535 -0.020254735 0.19749936 -0.37080592 0.32601678 -0.018329263 -0.004900698 -0.34794167 0.06512357 0.57649964 -0.22558425 0.77122235 0.23365983 0.16543396 0.32753316 0.47777274 0.12312829 0.23022413 -0.0011760647 -0.37599373 -0.3337176 0.0016701065 0.147885 0.15038912 -0.005780931 -0.3479679
minecraft:fence -0.2897147 0.028714634 -0.18387632 -0.05398139 0.3696863 -0.8534014 0.38693786 -0.36388662 0.09636151 0.6958413 0.5389163 0.043180533 0.17650908 0.6826402 -0.3088586 0.71458507 0.21202686 0.11428341 -0.5282025 -0.0034299016 -0.15209217 -0.112691194 -0.42184526 -0.1275436 0.2560456 0.71574515 0.004649317 -0.28655165 -0.28000772 -0.21003313 -0.8700326 -0.15497825 0.020801192 -0.14582118 0.76755995 -0.11473747 -1.1427686 0.1620262 -0.06671423 -0.37043783 0.44130215 -0.18141682 0.36143073 -0.12320117 0.13095008 -0.16679506 0.21169247 0.70945626 0.6832726 0.2414099 -0.22610052 -0.49346507 -0.10990541 0.42457587 0.10680555 -0.16742353 -0.56334066 -0.9392053 0.05864847 -0.6399145 -0.043543328 0.07080664 0.04399741 -0.29572463
minecraft:jungle_door -0.12984702 -0.3694357 -0.32749304 -0.2449518 -0.014583737 -0.06571875 0.5031032 -0.11476691 -0.21140489 0.28527448 0.44226763 0.2740291 0.00026896968 -0.56508845 0.1991315 0.37448946 -0.095317125 -0.051105972 0.37137464 -0.53834283 -0.34515777 0.48982474 0.3716981 0.23262173 0.19814022 0.7000749 0.17933813 -1.0649638 -0.1643798 0.3736952 0.02576334 -0.27171072 0.46910542 0.23688698 0.23257016 0.5962129 0.10388529 0.70061374 0.20862438 0.45164123 0.34274513 -0.7822329 0.15133777 -0.763007 0.6269359 -0.62382084 0.14356534 0.40632653 0.03619093 0.36704135 -0.028087413 -0.23911718 0.15021752 -0.124983154 0.48337033 0.51684296 -0.7703712 0.2724166 0.21558787 -0.4962602 -0.36585194 0.14186408 -0.15661934 -0.24686386
minecraft:red_flower -0.0060159313 -0.08548514 -0.9968332 0.27575552 0.51632655 -0.5991969 -0.14530654 -0.05195903 0.18511477 -0.36209816 0.21176957 -0.0892089 -0.29166463 0.25851128 -0.6780668 0.0020853733 0.21051957 0.2852582 1.2667427 -0.018257724 -0.12107019 0.01102895 -0.4138402 -0.13252711 -0.541916 -0.16820236 -0.2850195 0.20557772 0.18843567 0.031201463 -0.3627753 -0.52547824 -0.34295037 0.19046907 0.5923531 0.23073748 -0.16740204 -0.06715326 -0.086964786 0.37833259 0.119913325 0.015823042 0.33307025 0.03191987 0.3916385 0.02518351 0.18553308 0.19782136 1.0696683 0.5375909 0.11256759 -0.8970755 -0.07677109 0.037648007 0.15157695 0.014271029 -0.4955804 -0.42418826 -0.6473605 -0.7731269 0.020364491 0.20788403 0.47565243 0.0225465
minecraft:stained_hardened_clay 0.25341374 -0.18872058 0.2757971 0.06937305 0.56691456 0.22451012 -0.1930464 0.6284203 -0.25004923 0.3943522 0.727879 -0.13897607 0.4298474 -0.10674432 0.43419275 0.32354802 0.24866866 0.774213 0.4206953 0.044123873 -0.112970114 0.7591012 -1.0206922 -0.045128994 -0.65886545 0.3330053 0.12764484 0.4220297 -0.28310657 0.17131394 0.31282935 -0.2305991 -0.25801525 -0.18263052 -0.27549493 -0.17277217 0.2206559 0.96981215 0.78980947 0.53723407 1.0169883 0.092825115 0.028992275 0.17366119 0.068173856 0.099981785 -0.17143838 0.1368894 0.06324529 0.6748123 -0.07474309 -0.0017184478 -0.32218504 -0.26372623 0.12736331 0.045568146 -0.03401117 -0.47776225 -0.32764784 -0.23742396 -0.1650952 0.45962355 0.16229317 0.05665625
minecraft:gray_glazed_terracotta -0.1383547 0.50579154 0.18499984 0.097901285 0.555536 -0.5785498 -0.16483225 0.97321814 -0.41610703 0.44167736 0.59226245 0.36697933 0.2552922 -0.2848817 0.109441236 0.34253272 1.2778298 -0.40850583 0.2316176 -0.09146606 0.2009903 0.56958896 -0.96992874 0.09554101 -1.7924725 -0.4121189 1.2573122 0.17928588 0.19453532 0.44864738 -0.9209675 -0.24798751 -0.39472756 -0.24862549 -0.044431195 -0.1868261 -0.3670242 -0.23899652 1.682502 -0.5105214 0.120901026 0.19681484 0.34698412 -0.08556836 -0.009404464 0.099403106 1.1760259 -0.20623392 -0.028924763 -0.35114422 -0.09742111 0.2270077 -0.05951268 0.1516051 0.15947731 0.10823348 0.5362061 0.7132997 0.46008936 -0.32566634 0.16933043 -0.3377924 0.8031036 -0.9185535
minecraft:acacia_door 0.12566891 0.18710998 -0.8171302 -0.46352372 -0.20936105 -0.2932242 -0.5421379 0.16235332 0.027800899 0.5875607 0.012686878 -0.047445115 0.5165248 -0.27166322 -0.23032567 0.7457872 -0.23414664 -0.16803539 0.32488322 -0.6932542 -0.19181629 0.46163362 -0.5810925 0.06011478 -0.2623262 -0.06986767 0.30196834 -0.35171753 -0.11864532 0.2528576 -0.17543127 -0.3340799 0.25365737 0.22071156 -0.35000098 0.9281653 -0.84677714 -0.1684257 0.30937305 0.66234815 -0.3104788 0.2002357 0.44212508 -1.1978399 0.07789781 -0.14844677 0.031283747 0.17527197 -0.54494905 -0.12015625 -0.2957106 0.015045765 -0.23708989 -0.05280091 0.27330434 -0.16497837 -0.49115983 -0.37818244 -0.14556657 -0.24906772 -0.23520677 0.21075732 -0.22279039 -0.03224097
minecraft:stonebrick -0.17787729 0.028236117 0.078302525 0.07586879 0.33868355 -0.11248376 0.5813404 -0.2146213 0.70411855 -0.20977348 -0.058281668 -0.047172796 0.57803005 -0.22026443 -0.6852465 0.38446483 -0.362655 0.4288262 0.18015267 -0.10130255 -0.21958224 0.49679357 -0.017197259 -0.546938 -0.47466522 -0.28484654 0.040069968 -0.5178785 -0.39634082 0.5273138 -0.027312212 0.10970207 0.2961115 0.41030452 -0.31479177 0.59211004 -0.28594387 0.4674429 0.74330074 -0.1163567 0.5169843 0.268789 0.6273098 -0.2750856 -0.36102664 -0.55061567 -0.31168324 0.089935586 0.45354766 -0.2385303 -0.2366105 -0.49603108 0.1579027 0.7136863 0.15719004 -0.017533213 0.25071922 0.38560632 -0.1291567 -0.28217384 0.34032393 0.40711188 0.28784537 0.10135728
minecraft:stone -0.058047447 -0.09881355 0.14445443 0.21252467 0.096702 -0.47141585 0.015377701 -0.03981661 -0.3675387 -0.30176938 0.20295157 -0.3156688 0.051591516 0.13663587 -0.49104398 0.36410698 0.41830266 0.1815275 0.07374464 -0.33851674 -1.0431031 0.06623268 -0.19368303 -0.8165312 -0.011634255 0.27549613 0.43212482 -0.11439582 -0.099850796 0.46617314 0.21260302 -0.8202659 0.01890434 0.40032944 -0.1809925 0.5048778 -0.2677122 -0.07101066 -0.17457762 0.2512974 0.64065224 0.06042113 0.5959987 -0.08716452 0.6349517 0.20825759 0.12621169 0.3307669 1.0948118 0.3537505 0.020320311 -0.17948472 0.17915027 0.68955356 -0.11929553 -0.11731384 0.08596407 -0.20802687 0.14937739 0.30451003 0.16866894 0.06667489 -0.14535515 -0.48468235
minecraft:grass 0.21899195 -0.17518851 -0.045091107 0.13265297 0.48140317 -0.5047815 0.520576 -0.16127442 -0.2419155 0.08986794 -0.039166182 -0.4146006 0.15277784 0.5301009 -0.6824762 0.15769902 0.44368818 0.18662792 0.49506128 -0.34452215 -0.004330148 -0.24965027 -0.14797087 0.072885096 0.01184561 -0.33074328 0.10135772 -1.0093653 0.3647864 -0.0033703349 -0.53867894 -0.38265744 -0.113964856 -0.117213346 0.5007482 -0.05329728 0.13884632 -0.18486069 -0.13998541 0.61395264 0.38043925 -0.0011952046 0.6821559 -0.00031286548 0.12990424 -0.60168725 -0.12730989 0.052316606 0.5629683 0.20350713 -0.231339 -0.7500959 -0.071634024 0.10346835 0.07354392 -0.15869379 0.12404914 -0.6288748 -0.31486645 -0.6832696 -0.066046596 0.006907553 0.49747694 -0.46575078
minecraft:prismarine 0.11273257 0.55415285 0.36817402 -0.46437702 0.68450344 -0.45908457 -0.3898411 0.39543355 0.16388758 -0.18189202 -0.034959815 -0.5829209 0.2567382 0.021856109 -0.21920972 0.10170453 -0.112529844 1.4133887 0.32493648 -1.0267776 0.105954506 0.5131257 -0.707723 -0.42094186 -0.45237952 0.15269259 0.05775025 0.083442345 -0.6976937 0.3430542 -0.91514426 -0.15085758 0.59057146 0.7522148 0.546801 -0.38427284 -0.34037858 0.12048662 0.20828566 0.43509182 -0.107293166 0.48598614 -0.3271644 -0.71670055 0.6072516 0.33484733 -0.058378186 -0.36615074 -0.07464867 -0.23004068 -0.41093692 0.47336695 -0.94605523 -0.080089405 -0.2896811 -0.0005849609 0.34748003 0.4635257 -0.0009888527 -0.6553157 0.3868423 0.18582621 0.2440471 0.19333455
minecraft:stained_glass -0.18413614 0.48530775 0.12368648 -0.63519686 0.58138937 0.22999994 0.38628688 0.41244224 0.32656884 0.114140056 0.43587258 -0.5772502 -0.060926948 0.00829093 -0.35812008 0.7597656 -0.06696123 0.44128516 0.03430105 0.068363816 -0.6962279 0.25041014 -0.39682728 0.010159702 -0.19821154 -0.28025004 0.057130728 -0.40058136 0.3050742 0.4739933 0.0728641 0.088889964 -0.142811 0.24499527 0.028468462 0.46553224 -0.11892788 -0.014123344 0.12559727 0.3276394 0.30070546 -0.41034576 -0.22353797 0.4664785 0.34684166 0.3901311 0.31262603 0.103446946 0.39147353 -0.15455726 -0.46598768 0.36557052 0.0935595 -0.11384552 0.29279983 0.04955207 -0.885674 0.4012868 0.070552506 -0.27872762 -0.5402621 0.11493085 0.36152413 0.18990432
minecraft:stone_brick_stairs 0.07862952 0.10199606 -0.060021587 -0.9496636 0.6641345 0.24049996 0.19807833 -0.22323664 0.9049562 -0.30445704 0.092429586 0.33601773 0.33055228 -0.35919803 -0.04100779 0.050048735 0.24911888 -0.0786147 0.19693491 -0.31596082 -0.5537836 0.10876421 -0.6733553 -0.6745227 -0.26852816 0.12523946 0.7339036 -0.2351856 -0.19869442 0.5559877 0.23091501 0.17280132 -0.23160334 -0.19552772 0.12156725 0.11076483 -0.22056255 0.34668162 0.22361286 -0.13657558 0.08528992 -0.7433193 0.8366137 -0.98223287 0.03371735 -0.94892 0.14688963 0.76022595 0.17073709 -0.23100802 -0.3068288 -1.1070578 0.25289854 0.06736914 0.35973817 -0.44490716 0.2581774 -0.15964352 -0.07789383 0.24864613 0.11467616 0.40732452 0.18794522 -0.07705893
minecraft:diamond_block 0.14764689 0.11811503 0.19792299 0.12276824 0.32803378 -0.4674609 0.32978603 0.89660543 0.11677995 -0.2551852 0.07593277 -2.0424602 -0.3786808 0.31565952 -0.45022553 0.30029714 -0.4552642 0.36339313 0.0730301 -0.00333713 -0.048268422 -0.23907122 0.11272996 -0.37507376 0.27941275 0.8403302 -0.0032406286 -0.14603733 -0.023168582 0.6141506 0.18306173 0.0377893 -0.6226658 -0.1826472 0.15509567 -0.2886171 0.4166639 1.204584 -0.2551685 0.06472682 -0.09281637 -0.14512987 0.56878805 0.091662176 0.57535607 -0.29576707 0.71870905 -0.33167502 0.25578848 0.23459783 -0.5942099 0.33112723 -0.45669857 0.01426302 0.2944664 -0.32036597 0.07579358 0.36289 0.31008527 -0.20888692 0.11538278 0.5860379 0.48136783 -0.3329244
minecraft:birch_door -0.057315078 0.091532625 -0.08621419 -0.09075097 -0.15539828 -0.2337728 0.55000216 0.60770273 0.18838888 0.6193043 0.041361574 0.03768831 0.1840326 0.14700378 -0.3302087 0.60391927 0.07055943 -0.2507218 0.6325856 -0.43255576 0.17838609 -0.17046425 -0.10770733 0.1087089 0.07543059 0.5261295 0.74134415 0.12967703 -0.7526755 -0.14835161 -0.07047005 -0.069857135 0.058052346 0.65142566 0.19026412 -0.17789567 -0.18445115 -0.17495553 0.36542544 0.69093454 0.59945303 -0.9659798 -0.019735476 0.05863077 0.46121112 -0.054419443 0.38863778 0.6231124 -0.5062173 0.23252073 -0.5471247 -0.3657652 -0.63219136 0.034593917 0.19148405 0.026145121 -0.82105154 0.13678768 0.1284099 0.027942302 0.24848863 0.25011864 0.1810264 -0.38583001
minecraft:diamond_ore 0.22483636 0.58810246 -0.12492551 0.051980224 -0.27020895 -0.26897803 0.08910137 0.09690253 0.3022245 -0.032675136 -0.3629453 0.05483713 -0.36125755 -0.02565539 -1.1111616 -0.05639196 -0.1944695 0.039454937 -0.17668217 -1.0560348 -0.7399035 0.17599878 0.07364991 -1.4508896 0.052703712 0.635296 -0.010327049 -0.8078058 0.19413199 0.9590598 -0.1560765 0.28759658 -0.28973898 -0.17509067 0.30286336 -0.41249755 0.16390121 0.96307105 0.2784729 -0.17297417 -0.24725372 0.13012505 0.6041542 0.038734768 -0.102790505 0.34092 1.6392921 0.7077949 0.3102956 0.2660628 -0.7823247 0.3679046 -0.10063842 -0.110324666 1.2794285 0.09190939 0.18168378 0.3656558 -0.40528485 -0.14213912 -0.7227441 0.56642205 0.0737697 -1.4464177
minecraft:redstone_torch -0.09203031 0.30719215 0.050907493 -0.26104322 -0.016978277 0.14292406 0.09385845 0.86176527 0.6565273 0.3283222 -0.099311836 -0.27678415 0.0011195737 0.17900792 -0.37886488 0.15276764 0.1748488 -0.6938586 -0.26279765 -0.6000683 -0.39453503 0.5167817 -0.025686622 -0.16558461 0.10862316 0.073689096 0.2797283 -0.08665555 0.2437219 0.30269063 -0.098305106 0.21522593 0.2218053 0.3710428 0.42541826 0.1658158 -0.60882574 -0.10756478 0.34440953 0.25692788 0.7827235 -0.33621606 0.038958415 0.45450303 0.35639337 0.0026669898 0.05903401 -0.20247439 -0.3066476 1.0316827 0.3284001 -0.053180553 -0.39233163 0.6302556 0.42821637 0.43579274 0.2104122 -0.5928905 -0.09643391 -0.16110708 -0.4099452 0.45985192 -0.09565739 0.007487575
minecraft:ladder -0.68730605 0.79436195 -0.13247453 0.16886452 -0.14248052 0.12707552 -0.111733556 0.6851885 0.21820104 0.38768372 0.6155779 -0.13576363 0.37721375 -0.38528404 -0.71317095 -0.021874048 -0.10854485 -0.15602063 0.7895633 -0.6409068 0.25696164 0.4033777 0.19844031 -0.103694625 0.058624234 0.31851667 0.06991083 -0.26745716 0.01835277 0.3756698 0.12651107 -0.35512686 0.79098946 0.4453378 0.16235375 0.26216534 -0.21138532 0.20713508 0.12061522 0.34025422 -0.014530509 0.22599164 -0.02863166 0.12528552 -0.3752802 -0.30905202 0.39998853 -0.06903624 0.13789706 0.22043453 -0.023646167 -0.3237104 0.20956008 0.34311938 -0.12119623 0.45684627 -0.7987444 -1.006499 0.11857633 -0.10941942 -0.386972 0.028490936 -0.20829085 -0.2801842
minecraft:ender_chest 0.007914718 0.874211 -0.15099423 -0.55152977 0.069449484 -0.2183606 0.08894785 0.18414706 0.38205674 -0.2043672 -0.06149049 -0.25300482 -0.101360686 -0.16953546 -0.17795648 0.8749358 0.031733416 -0.11944298 0.3169993 -0.23907265 -0.03264884 0.02215049 -0.53794146 0.16522855 -0.7700739 0.034544326 0.31298852 -0.16221483 -0.16429693 0.28020865 -0.13880552 0.09204011 0.48308727 0.22299953 -0.18711087 -0.07556174 -0.08994969 0.8219096 0.08230557 0.052516203 0.33872285 -0.07820031 0.06890985 -0.036551464 -0.18281512 0.06876062 0.016659752 0.79150045 -0.35003993 0.24942088 0.51650125 -0.0828092 0.36848673 0.52886045 0.5190516 0.44179443 -0.2184207 0.11938514 0.051904667 0.03610865 0.110157005 0.39142343 0.1546835 -0.27115312
minecraft:emerald_ore 0.16054733 0.18111062 0.11577006 0.40735465 -0.12770654 -0.47111502 -0.0032694133 -0.5531784 0.5710747 0.18483911 0.782361 -0.6514976 0.62537724 -0.2555126 0.1522079 -0.30977458 0.30068454 0.014958027 0.17852855 0.23493604 -0.35090637 0.35436782 -0.07249145 -0.67559266 0.37852025 1.8508897 1.0162016 -0.31081456 0.4277044 0.27408433 -0.012686748 0.1284683 -0.4885885 -0.46229568 -0.64855236 -0.03133198 -0.0033838246 -0.012400192 1.3981299 0.62841403 0.1439026 -0.3036702 0.13938308 -0.07900093 0.16455917 0.27535567 1.0594466 0.36786208 -0.094051234 0.16813114 -0.47316605 -0.52791804 -0.016889475 0.05713965 2.1339157 0.5864247 0.64619094 0.2619288 -0.12497538 0.0030341446 -0.43614542 -0.13796973 1.0486537 0.062329575
minecraft:emerald_block -0.096570544 -0.04314795 0.0574809 -0.02145215 0.20739281 -0.6715626 -0.19482225 0.22783954 -0.35284674 0.90012485 0.8737808 -0.28982902 0.056085307 0.12552075 0.34466463 -0.24129184 -0.5865504 -0.0021734352 -0.55152684 0.36122444 -0.11961435 0.2425643 -0.1925861 -1.2453567 0.12674336 0.77584344 0.13283798 -0.059372447 0.18421529 0.3893354 0.21310093 0.070636444 -0.25216705 -0.6952533 -0.25186622 -0.37208316 -0.43112996 0.42928204 0.06661805 2.4366 0.47458956 -0.0011799097 0.44213992 0.3728854 0.44713792 0.023148771 0.11687388 0.5780994 -0.14768632 0.59566444 -0.92543495 0.1760211 -0.71369326 0.45805427 0.64990914 0.59811753 0.26081607 0.58775884 -0.57119143 0.19381379 -0.007724063 0.15148276 1.119531 -0.44435617
minecraft:leaves 0.11743672 -0.34747785 -0.14076886 0.041643392 0.4388818 -0.44099474 -0.009927994 0.74241304 -0.045965046 0.11365898 -0.19512545 0.13013351 0.061014593 0.4952319 -0.60325456 0.384636 -0.11575185 -0.24684724 1.2513931 -0.041413475 -0.26093212 0.17110136 -0.25294316 0.02517017 -0.53794235 0.17289141 0.46950242 -1.0206139 -0.21677427 -0.31013522 -0.24122421 0.041313294 0.017094092 0.12053985 0.21707262 -0.31614637 -0.26606652 1.1850744 -0.014409226 -0.12861302 0.6638268 0.23955455 -0.25030282 0.03692292 0.22113745 -0.7972606 -5.8525737e-05 -0.27693284 0.9976742 -0.27450016 -0.2855183 -0.6706609 -0.14318395 -0.09463272 0.27760568 0.080488294 -0.1346545 -0.58294183 -0.22650152 0.055185013 -0.7643512 -0.07208609 -0.08150947 0.25170052
minecraft:acacia_fence 0.11142398 0.07640991 -0.4627287 -0.53096706 0.60696995 -1.1383972 -0.258066 0.8196433 -0.32103777 0.047962733 -0.05535363 -0.02546506 0.28076914 0.11957772 -0.29380533 -0.101871595 0.30602986 0.013256433 -0.13857195 -1.3215473 0.09946122 0.1015491 -0.52076757 -0.30773214 0.23584549 0.9533366 -0.2469325 -0.48499426 -0.24619836 0.12159051 -0.90389603 -0.6752399 0.12139009 0.9794382 -0.17854282 0.10182332 -0.00735954 -0.30728734 0.20666705 0.61712104 -0.006269638 -0.43693167 -0.0032625564 -1.011208 -0.15329047 0.06186559 -0.12084593 0.34905884 0.34924293 -0.07386025 -0.08991147 -0.39783388 -0.35190004 0.19988056 0.2432352 0.57972825 0.28552794 -0.4198225 0.20017198 -1.4211259 0.019608459 -0.30370077 0.007877321 0.30035323
minecraft:birch_stairs -0.20214856 -0.15467869 -0.0338018 -0.31170845 0.41348666 -1.0760365 0.4436027 1.1583498 0.59064144 0.6522343 0.15974897 0.5256901 -0.11083721 0.08322216 -0.26660132 -0.25432566 0.20346595 0.17187381 0.56657654 -0.23372105 -0.476905 0.15168379 -0.34442377 -0.1882661 0.4517586 0.5120431 0.6020422 -0.5459188 -0.09333073 0.07817879 0.05649602 -0.037817776 -0.255195 -0.66051257 0.008103817 0.28802013 -0.38563436 0.117382064 0.5726793 0.76035345 0.07767575 -0.57149494 -0.41307595 0.21871357 0.5274679 -0.88524604 0.12307693 -0.05785927 0.364177 -0.23993799 0.166656 0.23183562 -0.3551619 0.64111936 -0.42816123 -0.39320374 -0.54089206 -0.64633536 -0.22737393 -0.15081629 -0.29214367 0.37181213 -0.052241426 -0.033636324
minecraft:gravel 0.23630743 -0.05766454 0.08995495 0.290354 0.11802602 -0.57595396 1.0996959 0.9351872 0.58356017 -0.2209308 0.033971533 -0.084119916 -0.4759753 0.39730966 0.16677958 0.32291937 0.03412485 -0.14282148 0.49666765 0.06075002 0.1954967 0.30809507 0.117931135 -0.2033059 -0.733471 0.037767235 -0.5318795 -1.0737259 0.3412606 -0.0028403574 -0.695092 0.42240232 -0.074140936 0.4041347 -0.21947782 -0.04050459 -0.24126323 -0.17645247 0.60581005 -0.07171284 0.79376704 0.10071722 0.0057979883 -0.29277468 -0.06945337 -0.9523128 -0.21639591 0.36437196 0.031850148 0.83702147 -0.14500998 -1.0230784 -1.2354485 0.13159655 0.19241786 0.060134973 0.43200567 -0.0010138071 0.29943138 -0.7754615 -0.16988695 0.43214417 0.39047116 -0.49131188
minecraft:sand -0.32729307 -0.32874048 -0.10426508 -0.2224048 0.06746702 -0.70517725 1.0060568 0.81876045 -0.28460532 0.36339197 0.5335004 -0.40142056 -0.028827267 0.23337102 0.16635692 0.80431134 0.2687576 -0.090143666 -0.14802583 -0.5933323 0.1771237 -0.012832108 0.20589359 -0.6956487 -0.7246859 0.666772 -0.30118203 -0.3777063 0.02348626 0.6202879 -0.61410904 -1.1795542 -0.2594932 0.0914572 0.22699067 -0.30912057 0.1211148 -0.06533203 -0.13965705 -0.04986158 -0.09091939 0.13778596 0.1797318 -0.072519735 0.062465187 0.358544 0.18756887 -0.4508519 -0.06718582 -0.3435677 -0.14887498 -0.44939467 0.030153532 0.41560736 0.519865 0.029978504 0.088610016 0.32437706 -0.056084402 -0.7823134 -0.573953 -0.08391657 0.5410742 -0.06694952
minecraft:cobblestone_wall 0.2095548 0.20554887 -0.01098068 -0.5971152 0.38635737 -0.22611119 1.9358987 0.15528505 0.15264997 0.0025411728 -0.20296076 0.03208019 0.32293722 -0.22251904 -1.3662082 0.6643791 -0.097688206 0.42582384 -0.28595635 -0.36372262 -0.039798424 0.6435393 -0.37510598 -0.32256445 -0.5525636 0.16867097 -0.18976042 -0.0005140826 0.014993757 0.40187305 0.45321906 -0.050706003 -0.23477224 0.2981775 -0.20190562 -0.20879759 -0.23070465 -0.19916531 -0.071158215 -0.25443095 0.100883715 0.48750314 0.5164153 -0.36966646 -0.12963872 -0.39400434 0.0041736714 0.31803578 0.7156686 0.13206996 0.04585686 -0.5901068 0.32021847 0.6503658 -0.04556742 0.49746358 0.10689321 0.2715872 0.5545905 -0.66490346 -0.86502326 -0.44053197 -0.13216479 -0.09371116
minecraft:acacia_stairs 0.10841673 0.92747426 -0.4259191 -0.58279526 0.058630478 -1.0628611 -0.26030096 0.0145970415 0.39692533 0.07581189 0.4673677 -0.030211747 0.55644286 -0.1612342 0.12014733 -0.118319534 0.43928507 0.54754317 -0.025981776 0.051931247 -0.034756437 0.66870534 0.09122357 -0.07575739 -0.27575165 0.47900167 0.2014165 -0.66403246 -0.53976345 -0.10410037 -0.66061103 -0.64319915 0.71520257 0.026183974 -0.009570812 -0.22202504 -0.12343144 -0.15841629 0.12057075 1.2731304 -0.17097293 -1.3099903 -0.376429 -0.931816 -0.13355982 0.28600964 0.44830742 -0.06658575 0.17160968 -0.25108495 -0.037569616 -0.25606036 0.2014852 0.10777184 0.33794424 1.7354611 -0.25019664 -0.091226116 0.26724675 -1.4054569 -0.145264 -0.16890456 0.41600648 0.5219068
minecraft:tallgrass 0.11530423 -0.43966597 0.36964384 -0.026954297 0.5255798 -0.8809157 -0.04829803 -0.42750505 0.21019748 0.034312543 -0.10809115 -0.02403403 -0.08598005 0.41933265 -0.8753761 -0.068293564 0.0034108497 0.35653183 0.71847636 0.09662967 -0.14818846 0.14613187 0.17840488 0.025208335 -0.040937908 0.18156956 0.20965937 -0.83935326 -0.34754694 -0.19907829 -0.3015015 -0.7006093 -0.20023976 0.29578236 0.71221066 -0.15230887 -0.6027348 0.17339711 -0.5026063 0.3388105 -0.17160046 -0.20612958 -0.08038225 0.07433475 -0.0060049663 0.12837428 -0.046157517 1.0385513 1.0184788 0.7967058 -0.2347242 -0.9780984 -0.081832215 -0.08588064 0.31109938 -0.07821 0.07852796 -0.52897865 0.18206589 -0.82967955 -0.16533095 -0.20546539 0.24266541 -0.09679686
minecraft:birch_fence 0.04088996 -0.73295575 0.40452024 -0.0788287 1.0083085 -0.6355839 0.84225833 0.2016541 0.5773869 -0.14344527 -0.27731773 -0.012680024 0.042154595 0.14760916 -0.16725422 0.21526992 0.70228827 0.30724186 0.37259865 -0.62142086 0.045955013 0.17957893 0.1626289 0.29164377 0.3782667 -0.13981739 0.543897 -0.18048152 -0.38017926 0.0009738365 -0.82812804 -0.8565522 0.44562912 -0.10770007 0.24538642 -0.090477355 -0.39562538 -0.05743373 0.3038935 0.16230334 0.11234656 -0.3171327 -0.55358666 0.08935777 0.29914767 -0.40362334 -0.15704325 0.65725195 0.38315254 0.16971289 0.070969716 -0.12493482 -0.70379794 0.007298737 0.570181 0.56191826 -0.4252471 0.25099924 0.38996276 -0.84872615 -0.41487235 0.6834876 0.019151881 -0.070086956
minecraft:quartz_block -0.058652647 0.3035789 -0.14102468 -0.16513596 -0.08089547 0.22440147 0.1845466 0.43037745 0.06656914 -0.2574918 0.26878688 -0.40051845 0.3124689 -0.33335847 0.2419211 -0.24071579 0.21125935 0.92023176 0.5356505 0.10251278 -0.32464796 -0.2101349 -0.1057927 -0.44425857 -0.8021588 0.5436224 0.3653854 -0.045792557 -0.115698 -0.308962 -0.5844559 -0.23363125 -0.19493148 0.17346328 -0.13094874 0.57772905 -0.53228223 0.37987557 -0.13498934 0.63566387 0.93732715 0.16009444 0.2475845 0.2600709 0.47326973 0.016223272 0.19218151 0.23280995 0.5301366 0.1197692 -0.58731186 -0.28618175 -0.9951083 -0.3051464 0.06965429 0.05225459 -0.06638661 0.2726159 0.3574736 -0.32713994 -0.10608346 -0.04950082 0.09553737 0.05904682
minecraft:green_glazed_terracotta 0.1416936 -0.29000103 0.04872456 -1.1857756 -0.3116336 -0.06172274 0.080232 0.06785103 0.49002856 1.096733 -0.21924195 0.16027029 0.7032227 0.01652022 -0.18995284 0.40679958 -0.13274547 -0.13356267 1.355805 0.043941285 0.13535559 -0.21068203 0.42825386 0.11617907 -1.0195302 0.0064703994 1.2639741 -0.065019704 0.30643705 0.07875192 -0.31845266 0.37996736 -0.16148688 0.22900438 -0.17775759 -0.38831484 0.3976001 0.607233 0.1284065 -0.11957635 0.043909717 0.3275964 0.588789 -0.6878437 1.5305936 0.05752148 0.5998019 -0.38500002 0.80013776 -0.144891 0.15517849 0.34397587 -0.3571452 0.16287516 -0.084274314 0.896069 0.28668576 -1.278933 0.19524637 -0.084825955 -0.17368804 -0.09630797 0.11580224 -0.4249356
minecraft:crafting_table -0.16313277 1.2475843 0.39999652 -0.44678462 0.2884161 -0.43529403 0.21721162 0.5484426 0.3591965 0.40570033 0.308693 -0.008483767 -0.00063691335 0.35453826 0.100445405 0.9408085 -0.17831497 0.31509143 0.46912903 -0.11629818 -0.255482 0.40159252 -0.041042928 -0.0061096377 0.03016145 -0.1622595 0.23106638 -0.36687806 0.03270141 -0.19988489 -0.35581633 -0.09037308 0.14573495 0.38164926 -0.058296204 0.43286422 -0.31205052 0.40667078 -0.015445912 0.1889757 0.14999637 0.08405513 0.28729177 0.03477283 0.3218041 -0.2342057 0.52360606 0.040849276 -0.27143285 -0.3158095 0.1782729 -0.5873934 0.30496773 0.07974746 0.026838072 0.55514824 -0.053782582 -0.4020483 -0.3728649 0.41620547 -0.27359167 -0.030932698 0.0046671643 -0.39752904
minecraft:anvil -0.1504649 1.5688537 0.12773898 -0.61260957 0.074107386 0.018920926 0.3584335 0.12795843 0.43894204 0.04531342 0.23175831 -0.038182355 0.016886067 -0.3097687 0.121759206 0.44099522 -0.093085796 -0.081584685 0.47890288 -0.5394222 -0.19596907 -0.1273464 -0.052531824 -0.027640011 -0.6282177 -0.03914785 -0.04238766 -0.26260912 -0.049661253 0.07470387 -0.4168785 -0.1675082 0.11239248 0.7495391 -0.0009613614 0.35205394 -0.32658526 0.37882337 0.25804842 0.1227926 0.23421383 -0.38140145 0.16842157 -0.33428213 0.16883312 -0.34185407 0.22390406 0.20141914 -0.13025877 0.41401207 0.2391126 -0.8071792 0.41982245 0.6918476 0.017357394 0.24324793 0.16596688 -0.52381986 -0.17523827 0.31490147 0.0069545708 0.07493746 -0.111594565 -0.22363572
minecraft:dirt 0.061472677 -0.26621872 0.06746757 0.19730644 0.9118718 0.10339935 0.28680494 0.00030638766 -0.22941191 0.25628346 0.24887253 0.0014363725 0.5541808 0.5044897 -0.64953506 -0.07804145 -0.19619176 0.31068033 1.0671654 0.06805041 -0.3730858 0.1259503 0.026503395 0.20452067 0.032121524 -0.079604976 -0.267664 -0.7648148 0.06004181 0.07837141 -0.05500788 -0.470729 0.6698168 0.06532406 0.33590055 0.051615365 -0.7229373 -0.1837832 0.20823267 0.029108783 -0.12811208 0.16299272 1.2840068 -0.14819539 -0.12070196 0.32611895 0.7572116 0.79560703 0.3822373 0.18743499 0.123731084 -0.43385643 -0.7343792 0.21556064 0.1643282 -0.15095255 0.2083953 -0.20850863 0.43946454 -0.3096977 0.25041202 -0.13961568 0.5049239 0.011814211
minecraft:fence_gate 0.033962872 -0.3625095 0.013883946 -0.4342924 0.23937955 -1.0789341 0.28597558 0.03247422 0.22408506 -0.023733836 0.539719 0.3229463 -0.1112799 0.23409967 -0.55063087 0.5325959 0.25232705 -0.36559722 0.29114076 -0.75323427 -0.14701734 -0.038083278 -0.62491393 0.1079878 -0.16332304 1.7251941 -0.41653347 0.055845335 0.19606628 0.09563588 -0.56041723 -0.590714 -0.28795817 0.5460224 1.3499551 -0.083420455 -0.32801268 -0.2387127 0.23929363 -0.43771738 -0.016875762 0.12826729 1.4684442 -0.26053768 0.40906575 -0.026993962 0.3025505 0.53537464 -0.074112855 -0.18450718 -0.11993501 -1.0411835 -0.019070826 0.42062667 0.27051467 -0.5094494 -0.33182114 -0.78927475 -0.07631414 -0.6283949 -0.44542882 0.15377176 -0.10799877 0.2777893
minecraft:wheat 0.03658204 -0.034040436 0.2785947 0.105188005 0.5324723 -0.2110277 0.6548812 0.022966059 -0.16007124 0.44715986 -0.13017368 0.1614561 0.38593203 1.0724514 -1.1655499 -0.061260052 0.18429781 0.070311695 1.3860139 0.5609374 0.24620512 0.0684061 0.51420444 0.121197864 0.12757562 0.06905328 0.13365419 -0.2451265 0.39040148 -0.16089597 0.14162588 -0.13264793 0.8885356 -0.29227075 0.2708624 -0.23911452 -0.51733786 0.59150606 0.23128587 -0.31900623 -0.23025021 0.33807835 1.381345 0.2589223 -0.15812546 -0.46645585 0.2161876 0.31640524 1.1958699 0.77299714 0.21979934 -1.2022196 0.08617465 0.8890965 0.31146583 -0.29296005 -0.032664113 0.003350751 0.17345147 -1.1654855 -0.051678028 0.8119946 0.2625755 -0.2603299
minecraft:wall_sign -0.70907634 -0.12014614 -0.7666808 0.49840924 0.5997945 -0.06720615 0.14097643 0.13391645 0.91672343 -0.0010022303 0.29970795 0.16377409 0.43335128 -0.08381305 -0.2160449 0.12656812 0.13828556 0.32775578 0.13192701 0.36223865 -0.16248628 -0.3067658 -0.118051566 0.18238233 -0.5057344 0.4745093 -0.3390694 -0.2801765 0.16025357 0.048852175 -0.9032828 -0.45302734 -0.32582694 0.29893833 0.056250002 -0.19098666 -1.0271033 0.82126486 -0.03394087 0.42796725 0.22894894 -0.28339756 0.75505936 0.16825998 0.60476834 -0.18890177 0.031075982 0.16026327 0.41149393 -0.06091741 -0.39806524 -0.01167788 -0.04697243 -0.12678084 0.1157141 0.28265792 -0.38148835 0.07611486 0.09131486 -0.108934015 0.07830906 -0.25606558 -0.10847055 0.23030382
minecraft:spruce_door -0.047334455 -0.15211779 -0.022060027 -0.12543498 0.0968014 -0.28310725 0.8479347 -0.051377147 0.49795645 -0.18430252 0.13020267 0.0352383 0.38754252 -0.25391373 0.009185797 0.75354993 0.13100141 -0.040178996 0.8915591 -0.63889104 -0.10395732 0.38701668 -0.17971194 0.005504436 0.6030214 -0.055073034 -0.3878043 0.47720546 -0.62028503 0.48073977 -0.15166746 0.027670385 0.36353067 0.43890804 0.3182074 0.4148321 -0.5878772 -0.01681919 0.09716627 0.8306475 0.58486927 -0.41714883 0.28817844 -0.12915523 0.2009018 -0.26849037 0.048836067 0.42760277 0.2919398 0.03706992 0.05324744 -0.023533521 0.50755364 0.6202038 -0.015907552 -0.36720505 0.17694537 -0.4939388 -0.5489661 -0.016235257 -0.5248795 -0.42185396 0.12724544 -0.40052387
minecraft:lapis_block 0.2046128 0.012952875 -0.105201975 -0.28868386 -0.022070551 0.06470596 -0.04928823 0.37127107 0.097482555 -0.29170564 -0.008183796 -0.733667 -0.2519137 0.5973941 -0.62093544 0.06923456 -0.2666528 1.0067499 0.16454758 -0.112176485 -0.64821017 -0.07816609 -0.11959307 0.13352233 0.14540863 0.06830468 1.0736027 0.15533285 -0.34630153 0.6697625 0.11549061 -0.61184543 0.23430207 0.09818324 -0.071949296 0.7681926 0.14190361 1.1581448 0.8373243 0.23885572 0.03596788 0.5420484 0.7241818 0.5541286 0.4857819 0.52712005 0.07777651 -0.22725537 -0.08385108 0.9965665 -0.12012682 0.44682005 -1.1232835 0.016548688 -0.08984437 -0.03505554 -0.27936307 0.06127374 -0.15161812 -0.5422494 -0.31502616 -0.2584383 0.1401605 -0.009544822
minecraft:double_wooden_slab -0.062054664 -0.07848273 -0.13356131 -0.12598222 0.8366767 -0.056466207 -0.0035647608 0.2197773 0.35844532 0.86462724 1.0558711 0.26523924 -0.1734435 -0.16697142 0.05962731 0.010973974 0.5127413 0.91807926 -0.19764732 0.16124912 0.050434552 -0.19059038 -0.5113226 -0.14990477 0.24365751 0.4615873 0.61534494 -0.11680788 0.14083007 -0.13910973 -0.18261127 -0.56686604 0.64324206 0.14010194 -0.18736011 -0.20749664 -0.108991735 0.16396067 0.65785885 -0.13941066 -0.1688538 -0.47540137 -0.050967716 0.17477058 0.84990335 -0.70339304 -0.079306535 0.81927377 0.65334237 -0.069466114 -0.03357409 -0.037899874 -0.19893692 1.0872564 -0.06107194 0.57563657 0.0073914398 -0.23966895 -0.39792177 -0.9066689 0.17494667 -0.2991213 -0.17156482 0.21667586
minecraft:glowstone -0.26705194 -0.19980443 0.37666845 -0.20481515 -0.18980527 0.3675317 0.4602495 0.38566172 0.10277585 0.38054535 0.5961759 0.010828195 0.33457154 0.22641592 0.123598136 0.08869026 -0.19226894 0.24191618 0.3557115 0.23249957 -0.45350212 -0.039423652 -0.89904064 -0.02192398 -0.2093733 0.82966167 0.6829234 -0.43902212 0.23828277 0.48885447 -0.5177085 -0.47557065 -0.02389662 -0.02235596 -0.12641986 0.33084223 -0.22621335 0.46623972 0.15136692 0.37417397 0.11010818 -0.57157147 0.7554953 -0.0024403487 -0.13004501 -0.4415821 -0.17602742 -0.19568633 -0.08519296 -0.25734985 0.088725656 0.19634005 -0.35133564 -0.0966737 0.31870672 0.74690527 -0.13636082 -0.6477351 0.18363595 0.35350436 0.20820244 -0.09518494 0.2166136 -0.35310608
minecraft:jukebox -0.4990356 1.0469851 -0.5789597 -0.46201745 -0.2632731 -0.08315331 0.30674908 0.50451475 0.06343753 -0.064524606 0.26358867 -0.122154966 -0.20448329 0.25045425 0.1395262 0.18673527 -0.15614873 -0.15057935 0.6248736 -0.43493935 -0.35596567 -0.144931 -0.46552482 -0.27555528 -0.31579518 0.1917041 0.3396959 -0.3055742 -0.20982966 -0.28879637 0.005418689 0.180215 -0.09760992 0.20943913 0.10549196 0.105580054 0.025565684 0.2816869 -0.48821965 0.10267411 0.77049863 -0.63112617 0.31874594 -0.27867705 0.35697109 0.053383965 0.6345243 0.57072926 -0.15051773 0.21366593 0.30075747 -0.10912288 0.25950792 0.28151536 0.22034037 0.55734813 -0.32469222 -0.2775403 -0.2038746 0.13135897 -0.057200987 0.18489426 -0.05887618 -0.3927528
minecraft:birch_fence_gate 0.33441776 -0.22645868 0.35762176 0.03995292 0.047442473 -1.0601261 1.306411 0.24598852 0.30652648 0.21334198 0.51321244 -0.28959647 -0.19247185 -0.06718015 -0.21545762 -0.17548954 0.7750802 -0.14201234 1.2653418 -0.7240018 0.09182357 0.0878945 -0.059383202 0.18645765 0.4183113 0.07127988 -0.31441393 -0.8885013 0.04413852 -0.12864193 -0.4782841 -1.2381443 0.041185014 -0.25784865 0.6430949 -0.67410815 -0.015156411 -0.4660581 0.06938662 0.42878914 0.20988926 -0.09399639 -0.4476098 0.19085923 0.693093 -1.0994924 -0.014876243 0.26059037 -0.14455827 0.4788283 -0.21836072 -0.9131636 -0.32544494 -0.048656117 0.58669585 -0.06896916 -0.008790545 -0.4326875 0.551922 -1.1047217 -0.5622097 0.27738723 0.31845725 -0.38605154
minecraft:white_shulker_box 0.1993962 0.93770033 -0.31839585 0.6979317 -0.10512888 0.34394222 0.03387828 -0.31460512 0.19666454 0.59551334 -0.42209485 -0.21465133 0.6909627 0.6881456 -0.18009491 -0.23207156 0.20529917 -0.41681474 -0.25943038 0.17105295 0.1570892 0.013809814 -0.86429626 -1.2517728 -0.038556483 -0.07558511 0.5036149 -0.061172515 0.70429814 1.0970243 -0.16360508 -0.60243183 0.7053313 -0.25914967 1.9678974 0.27705368 0.32032156 -0.1134923 0.7188353 0.014894917 0.8947148 -0.5565224 0.001413624 -0.5104 -0.26169872 0.6015861 0.24058014 -0.18577649 0.0674798 0.12044751 -0.40242442 0.31195694 -0.43316343 0.1602065 -0.34065217 -0.15923686 0.1333039 0.11806864 0.38799387 -0.7197334 -0.5562609 -0.38401157 0.24161923 -0.9842938
minecraft:lapis_ore 0.21084288 0.03364103 -0.31396306 0.11457992 0.060821757 0.27252707 -0.20688255 -0.12215852 -0.30964395 -0.131889 -0.207711 -0.10563468 -0.30330518 0.43856943 -1.4207304 -0.04864254 0.6198326 0.16184305 0.69624305 0.2638301 -1.2383661 0.16448967 -0.35700697 -0.32402077 0.120287165 0.07252662 1.0080987 -0.47506663 0.4162473 -0.084221624 0.30590814 -0.15215471 0.5578578 -0.34129617 1.0372158 -0.07812406 -0.074736014 0.84140927 0.84441626 0.17485562 -0.22578159 0.060767956 1.1389812 -0.107738316 -0.047876347 0.25434667 1.44222 -0.13241452 -0.24519964 1.0918633 -0.2096162 0.1798347 0.43196842 -0.016117316 0.7559039 0.056565657 0.19964918 0.34034315 -0.06530668 -0.4656289 -0.17060392 -0.23858581 -0.2442574 0.03907549
minecraft:yellow_flower 0.6863491 -0.19798906 -0.15281235 0.2899532 0.6166346 -1.6234429 -0.05288505 -0.11909715 -0.5714112 -0.013907487 -0.34002545 -0.075535335 -0.36508107 -0.4884335 -0.08368746 -0.1328897 0.3855592 0.31014183 0.32297838 0.11506968 0.01553923 0.310885 -0.19367725 0.1495739 -0.30022824 -0.38225168 -0.3510099 -0.8165401 0.03673385 0.037088163 -0.15685643 -0.05898337 0.14553377 -0.23155867 0.45343688 0.40313417 -0.41954204 0.17237738 0.055104993 0.8402696 0.34918156 0.31251818 0.34155935 0.21530932 0.34924185 0.17985547 0.25336388 0.10171362 1.41038 0.07457525 -0.017010845 -1.50275 -0.20046139 -0.15593705 -0.32031965 -0.10561589 -0.59856945 -1.267992 -0.78776234 -0.27230847 -0.16094309 0.005916139 0.4674261 -0.37987316
minecraft:netherrack -0.032721434 0.0107618235 0.3446933 -0.81741345 -0.4033939 0.35701227 1.2257515 -0.09393286 1.2843895 -0.17897318 0.01732541 -0.68664837 -0.13042857 1.3889238 -0.124188446 -0.04481899 -0.43431038 0.17917572 0.7554222 -0.536214 -0.38994616 0.24015765 0.043687005 -0.5511568 -0.50114965 -0.26031718 0.0076880394 0.14244726 0.47662592 0.6543539 -0.075993046 0.15704621 0.47355506 -0.36331612 -0.26788503 -0.16713677 0.05361383 -0.032166068 0.6086807 0.011299132 1.0795066 -0.51962715 -0.14098011 0.3239586 -0.01875316 0.5604336 0.19968398 -0.1807798 0.41723612 0.93662095 -0.013952705 0.19179747 0.42058152 0.17833133 0.7593133 -0.28181094 0.35114905 -0.47975612 0.08066179 -0.014402515 -0.9360811 0.043090746 0.32661968 0.13273022
minecraft:obsidian 0.37486207 0.26166248 0.22345006 -0.74711156 -0.08835273 0.10145375 -0.54415995 -0.11262474 0.49627823 -0.13942917 0.58640623 -0.8273976 1.0484885 0.815003 -0.40542305 0.45400563 -0.2330056 0.62117887 1.278533 0.056082066 -1.2374111 0.5528833 0.04406642 -0.04908269 -0.33979028 0.20523527 -0.020800017 -0.6593475 0.17887327 0.376572 -0.04685816 0.40725797 -0.34229356 -0.14190923 -0.11252375 -0.40222207 -0.16375436 0.14899722 0.66160756 0.4221395 -0.14734717 -0.009696542 -0.19194873 0.48527622 -0.34482005 -0.03803815 0.38265485 0.50100785 -0.044923335 -0.01964498 0.01696634 -0.09321577 0.11971534 1.0475059 0.25633246 0.47225296 0.44848758 0.29901975 0.39650124 -0.051994342 -0.45623055 -0.28991383 0.09220733 -0.04965344
minecraft:sea_lantern -0.10515624 0.46264392 -0.4980339 -0.1739649 0.27246428 -0.2190361 -0.07557908 0.72864336 0.12592688 -0.35926226 0.19968356 -0.9925064 0.11069308 0.60084224 -0.657769 0.24202107 -0.0006288156 0.38199574 0.09027282 -0.03628528 0.23207007 0.13763909 0.10455863 -0.59792775 0.13448638 0.64848655 0.5050759 -0.19619732 0.04301578 0.20145573 0.21744013 -0.5683329 0.11935937 0.021057481 -0.30591536 -0.13932212 -0.700513 0.6751571 -0.4117145 0.7203441 -0.24873176 -0.3627324 -0.17889276 -0.14424022 0.4151606 0.009894114 -0.10157454 -0.3814975 0.18854122 -0.41887853 -0.4943144 -0.23150268 0.23633566 0.038509656 -0.52965486 0.016059916 -0.7961241 -0.08312299 0.26686868 -0.29947516 -0.035065107 0.3744201 0.35161546 0.00019899911
minecraft:brewing_stand -0.27349028 1.1287777 0.33521834 -0.39285782 0.40313384 -0.020540409 0.27872682 -0.21508627 0.9600155 0.27513924 0.02922322 0.333057 0.06637881 0.11734724 -0.35571012 0.37583497 0.24881023 0.37825966 -0.08627076 -0.36685956 -0.40419868 0.35195366 -0.5110701 -0.10534253 -0.44365698 -0.15493995 -0.16840875 -0.22504665 -0.39843225 0.0052111605 -0.318565 -0.2424117 -0.2015396 0.8900407 -0.2632862 0.5912349 -0.44036785 0.93685997 -0.19746874 -0.3061947 -0.11919764 -0.065729015 -0.08344399 0.25317392 -0.16513301 0.11355355 -0.2166224 0.52466214 -0.025794704 0.31896767 0.38043597 -0.3628267 0.009436031 0.75445557 -0.23383252 0.19395073 0.14919804 -0.35499322 0.059652027 -0.2554178 -0.00034203613 0.22478643 -0.22856098 -0.16783474
minecraft:spruce_fence -0.45449138 -0.29357922 -0.67916286 -0.3962054 0.4236602 0.041470822 0.9720062 -0.5203315 0.65295213 -0.10410665 0.31569117 -0.21478455 -0.016024366 -0.15227823 -0.04136009 -0.2605173 0.079689205 0.7111823 0.7081194 -0.60851645 -0.31157926 -0.04996085 -0.97707397 -0.28716183 0.1337004 -0.17922838 -0.17598502 -0.049357522 0.23366228 -0.34651622 0.025928738 -0.3520723 0.02939445 -0.16724125 0.11403105 -0.24769239 -0.59022933 0.07104822 -0.0075005647 0.39449862 0.3427679 -0.17701887 0.2154846 -0.21679232 0.23445491 -0.7699859 0.030625544 1.5265151 0.40576243 0.8158751 -0.19012107 0.40343016 -0.5221908 0.32235882 -0.08442863 -0.3113247 0.07102799 -1.1782701 -0.23210327 -0.43909094 -0.74140584 -0.09540459 0.2356966 0.008338102
minecraft:tnt 0.5167393 -0.24179816 -0.08843056 0.0027705561 -0.43653488 -0.38041577 -0.017853208 -0.2868439 0.2373929 -0.12160139 -0.43762293 -0.42746964 -0.06168737 -0.049098883 -0.50134534 -0.0066262204 0.08083735 -0.37173945 -0.002122327 -0.97075295 -0.6087836 2.0596344 0.29758823 -0.35248938 -0.5026078 0.5547715 1.0757427 -0.12486011 0.22292069 0.5220543 -0.74384433 -0.48436567 0.102560125 -0.008677185 0.17107284 -0.24727413 0.10729755 0.1938558 1.7223521 1.9369605 0.3695115 0.1714007 -0.32755485 -0.53846157 0.019624863 0.0009830553 0.19941932 -0.1288125 -0.25868696 -0.1088852 0.028846579 -1.2943388 -0.21465892 0.011393581 -0.21490659 -0.043728486 -0.5087513 -0.30625743 -0.9361947 -0.09177569 -1.0257883 0.63739103 0.10821887 0.09919887
minecraft:vine -0.2782346 -0.16537397 -0.13599506 0.14579171 0.64954156 -0.10591233 0.75823665 0.13371736 0.124824606 -0.22721404 -0.744192 -0.32106465 0.11918253 -0.023860317 -0.6467225 -0.32416484 -0.004736478 0.108153686 0.31777796 -0.23910466 -0.42795798 0.32872906 -0.48312986 0.20954485 -0.41982582 0.91400486 0.34829956 -0.64170355 -0.88730806 0.21524552 0.32655728 0.3531423 0.4402097 0.5016274 0.38525334 -0.32954103 -1.051648 0.13735354 -0.41070542 -0.19820349 -0.05389517 0.3229177 0.32718712 -0.34117666 0.08062788 -0.2980862 0.27072498 0.040385384 0.6821768 0.06351354 -0.0622381 -0.7613565 -0.27646556 0.07239911 0.6914344 0.15453191 -0.25255218 0.13813126 -0.82466835 -0.45532185 -0.4975797 0.008008136 0.07456494 0.03797661
minecraft:double_plant 0.1570083 0.095826775 0.08837257 0.19286057 0.252057 -0.34993562 0.06972346 0.20477957 0.6580854 0.19553493 -0.35862127 0.104037136 -0.13913168 0.27571803 -1.0381272 -0.31413004 0.014282792 -0.11342694 0.4285168 -0.25686327 -0.07036653 -0.060022287 -0.29377398 0.12986222 -0.3248747 0.17694172 -0.32452673 -0.120416634 -0.29563677 -0.08719937 -0.73292786 0.364531 -0.22529887 0.27492684 1.5008518 -0.25350258 0.22202216 -0.2561267 0.22839414 1.1544989 0.2439896 -0.19348443 1.2908825 0.28098008 0.23002626 0.047084734 0.33721325 0.024610983 1.25541 0.42214713 0.108569704 -0.438091 0.02245313 -0.07607378 0.19298625 -0.14714412 -0.32594246 -0.5229928 0.088528655 -0.31561533 -0.34717247 0.53232396 -0.034406777 -0.12064392
minecraft:orange_glazed_terracotta 0.25692776 -0.19758774 -0.45517012 0.1459371 -0.17483403 -0.37692347 -0.29445902 0.5707149 -0.093820386 1.8957406 -0.5416075 -0.016659804 0.37814447 0.039890833 -0.03273489 0.008067211 -0.08965696 -0.17366889 1.390384 0.05644036 0.30537647 -0.0946069 0.024510726 -0.77183205 -1.1535217 -0.6003158 0.0020498296 0.49173054 0.49412394 0.34882703 -0.35312125 0.011467627 -0.016426632 -0.107319005 0.064757444 -0.20932847 -0.23015389 1.218193 0.07800602 -0.20528792 -0.05227016 0.37858957 0.11623203 -0.95288944 1.0298458 0.43190175 0.3951424 -0.4347277 0.78633016 -0.3417093 -0.62251806 0.111090496 0.04396548 0.017033568 0.31865382 0.48423964 -0.3281575 -0.39236426 0.9020326 -1.2368131 -0.03339971 0.5923205 0.5778335 0.21916835
minecraft:monster_egg 0.46022376 0.10493806 -0.056376174 -0.6345209 -0.120856605 0.0868748 0.060795818 -0.4742704 0.4798856 0.27150598 -0.0769071 0.12418154 1.3762971 -0.023533223 -0.03772147 0.17596658 0.1434197 0.8208917 0.7775046 -0.10093275 0.1722365 0.5120836 -0.08737977 -1.084378 0.105817124 0.055343878 -0.24283178 -0.06400476 0.16703637 0.13925774 -0.23857579 0.1933529 0.0054651657 0.5529678 -0.27740487 -0.21593419 0.33282116 0.92635787 0.13046344 -0.32068422 0.67877775 0.5125352 0.71342146 -0.01184319 0.5783608 -0.36944214 -0.21919556 0.6117719 1.3141623 -0.024407407 0.10630523 0.12890631 0.06334717 0.9147936 0.6994124 -0.05302369 0.29954743 -0.81043684 -0.5657078 -0.4367278 -0.0733776 -0.2938702 0.019966036 -0.025839033
minecraft:iron_door 0.20384331 0.56842977 -0.40592855 0.34693912 0.36095148 -0.18599637 0.55480325 -0.14351454 -0.18976605 -0.020194428 0.010489617 0.06843167 0.2914169 -0.062442116 -0.21863212 0.84085816 0.17856736 0.28941205 0.7600651 -0.54282045 -0.29913792 -0.11568487 0.014040931 -0.2688048 0.2402679 -0.1926554 0.3180169 0.49021187 0.80339366 0.40053952 -0.24150209 0.37200913 0.10302789 0.6930986 0.27382857 0.17798254 -0.43678492 0.5037664 0.045330543 0.1281021 0.60312206 -0.6279831 0.033497125 -0.20360747 0.054304972 0.017155565 -0.049537033 0.18884313 0.050150324 0.4289015 -0.7487502 -0.16510883 -0.16179311 -0.28274032 0.31535488 0.5511843 -0.35394347 -0.009207768 0.09200648 -0.15836833 0.015273447 -0.25300717 0.14711621 -0.8711648
minecraft:mycelium 0.049243953 0.9665377 -0.24332447 -0.62233406 -0.15363123 -0.95988685 0.21987407 -0.32352665 -0.21960102 0.40042257 0.0037674736 -0.74674803 1.1499938 0.8944578 0.0674622 -0.40595856 1.1048791 0.49534166 1.4433675 0.28523898 -1.1902369 -0.37748864 0.08689731 -1.4926604 -0.119983196 -0.15229362 -0.4581148 0.33827314 0.24330942 -0.051808856 -0.3324061 0.10334102 0.25335783 -0.12710628 -0.05644113 0.24947464 0.446944 -0.3953729 0.6354587 1.3056954 0.21907641 -0.027120326 0.2634042 -0.20704825 0.3222071 0.12974806 0.4126479 -0.28136206 0.27800277 0.30620724 -0.16120282 -0.8674903 -0.06869188 0.17029105 0.9920882 0.19288331 0.27736285 -0.19962592 0.3277791 0.48933676 0.06376768 0.5243902 0.061180133 0.29661977
minecraft:trapped_chest -0.47120193 0.7927179 0.36957812 -0.124614775 0.115110554 -0.19564313 0.26109436 0.25407064 -0.09897152 -0.2470849 -0.09484982 0.05526345 0.65056074 0.20007741 0.03814733 0.22616436 0.23266812 -0.61179906 0.057234224 -0.35682702 -0.40377414 -0.049892567 0.32945174 -0.2602274 -0.39026582 -0.31718415 -0.18107256 -0.2838639 -0.22847383 0.3430921 -0.69909877 -0.32218626 -0.20936465 -0.17797124 0.00750591 1.1167582 0.15680948 0.26816127 0.48394737 0.4803106 0.10194668 -0.3345461 -0.027930597 -0.5600856 0.4984791 -0.26961032 0.7263398 -0.089345224 0.22506045 0.30579603 0.13602084 -0.44523728 0.49855104 0.57548827 -0.18723305 1.051452 -0.007956139 -0.7506178 0.15055428 0.40181196 -0.29822618 0.55527204 -0.18793802 -0.09281925
minecraft:snow -0.14852522 0.34221393 0.30081922 -0.6030668 -0.041102804 -0.21474694 0.8270775 -0.4575646 0.48322323 0.9783646 0.97379076 0.14571074 -0.3270456 -0.064877234 -0.91442525 -0.350606 0.14227422 0.0016446833 0.23003118 0.1508295 -0.37964952 0.27974275 -0.80171967 0.17177886 0.1281471 -0.34963802 0.15072216 -0.09413079 0.20339715 -0.12190656 -0.77964044 -0.5108639 0.24946342 0.05197179 -0.04443462 0.027773911 0.3980126 1.4224882 0.029514935 -0.19895183 -0.077187575 0.031509817 -0.077824764 0.21528311 -0.023869058 0.13887635 -0.18349311 0.51507723 0.3229933 -0.22431737 -1.2508118 -0.14472042 -0.32551506 0.3731128 -0.03800873 -0.13169312 0.6556258 -0.25194103 0.13507235 -0.9719574 -0.026084388 0.8643141 -0.2586194 -1.2515924
minecraft:wooden_pressure_plate 0.027086947 0.7359199 -0.014075001 -0.09753927 0.9297473 -0.06278472 0.22786708 -0.00038755964 0.53414476 0.67140573 0.42712036 0.24183892 -0.3638382 -0.15849808 0.21284932 0.46643943 -0.13558617 0.24338497 -0.08993936 -0.24394147 -0.095627606 0.23640466 -0.14147551 0.2537806 -0.31268078 0.100811824 -0.10580041 0.047232047 0.4068402 -0.11496923 -0.19628629 -0.6709631 -0.28295323 0.3566019 0.47680083 -0.3677126 -0.7639191 0.14267609 0.19743484 0.22316238 1.5019197 -0.2758828 0.28064257 0.31830642 0.9223231 -0.2154511 0.105057344 0.2933728 0.27351505 0.87147117 -0.45341 -0.43742272 0.31035683 0.3442789 -0.32650417 -0.15767245 0.027598076 0.33427477 -0.5561186 0.12297807 0.21128158 -0.24670613 -0.30727065 0.25631467
minecraft:red_sandstone 0.35749283 0.16948402 0.13426347 -0.60401595 0.6641405 -0.15162882 -0.029767213 1.0080273 0.25126103 1.1381624 0.08491983 -0.28276232 -0.15217945 -0.45861906 0.34718663 0.29971156 0.104102924 0.5755497 -0.24514736 -0.23711622 0.37877098 1.0815389 0.30185208 0.02231518 -0.5902683 0.12471073 -0.2751474 -0.31880403 -0.5318054 1.4704093 -1.1143426 -1.3017721 0.2647881 0.48333034 0.034475643 0.17078547 -0.104711935 -0.28837654 0.21980122 0.1298956 -0.061433084 -0.0048160213 0.5151429 -0.120622724 -0.56769323 0.30675945 0.24426831 -0.39766842 -0.05957877 0.6382232 -0.40625578 -0.15862292 0.13268475 0.6895512 1.0800009 0.03389244 0.2160472 0.29113844 0.016769283 0.21800832 0.23366526 -0.14577359 0.19005907 0.22132422
minecraft:nether_brick 0.28012076 -0.3098294 0.34588313 -0.74042755 0.28081432 0.22394446 0.043315493 0.6749188 0.09813709 -0.14617303 0.0639017 -0.5821453 -0.2577175 0.20532712 -0.10107804 -0.037020065 0.031427644 0.24687931 0.5699229 0.25620952 -1.3032838 -0.020076068 0.19345845 -0.59666646 -0.70263654 -0.650788 -0.06779953 0.21175165 -0.8090538 0.60555947 -0.8809945 -0.32045335 -0.26471376 0.32816762 -0.3242835 -0.12635666 -0.32009968 -0.25198337 1.0982656 0.41935992 0.73467106 0.5057633 -0.1152731 0.2068928 -0.15424705 -1.0007274 0.038784683 -0.08581272 0.13767299 0.030295005 0.03488203 -0.50945634 0.09717236 -0.08397825 0.25692093 0.0025369637 -0.74863046 -1.0411092 0.17197251 0.3462936 -0.36249357 0.18646045 -0.17281781 0.26542163
minecraft:pumpkin 0.77607846 -0.153887 -0.48656556 -0.37175032 -0.17814903 -0.46048024 -0.100918315 0.2418673 -0.12534857 1.0937794 -0.19729881 -1.9136602 0.79588634 -0.14217149 0.09718947 0.24769029 -0.20489009 0.019865898 0.41604328 0.11192496 -0.92298234 1.7014835 -1.5443538 0.06666231 -1.5857708 -0.13383105 -0.1404348 -0.72994745 0.21871144 0.8955038 -1.1165149 0.073059015 0.063945465 -0.111542635 -0.095453426 -0.18346225 0.17040771 -0.08558223 -0.16142218 -0.09878708 -0.045041963 0.31103924 0.01819803 0.1871256 0.066904575 0.2961269 0.6650975 0.23713621 -0.072425105 0.78531843 0.0809929 0.27752915 0.015805263 -0.14016548 -0.12259345 -0.17225069 0.12849759 0.192529 -0.64882237 -0.25436226 0.06433618 0.4691631 0.05033467 0.048225187
minecraft:concrete_powder -0.21944243 0.20075244 -0.123941936 -0.028887441 0.31004366 0.114793 0.8993881 -0.27712625 -0.46016818 0.24957985 -0.4249457 -0.58094954 0.6957121 -0.38029993 -0.13968976 0.05748619 -0.07303014 0.094031505 0.08260991 -0.9247808 -0.030519083 0.6879311 0.18982023 -0.439187 -0.8772168 -0.29163182 1.3901792 -0.32399958 0.67749983 0.29360884 -0.39719948 -0.25953797 -0.10629837 -0.59718186 -0.17584878 0.4831207 -0.07282862 0.55634445 1.4101865 0.5141712 0.09720403 0.03897567 -0.32419267 -0.42452136 0.30129167 -0.28366643 0.7699627 -0.32314688 0.9618249 -0.26302207 -0.5865471 -0.5949404 0.12776567 -0.22715667 -0.13437144 -0.18051772 0.03208694 -1.036228 0.6914946 0.24441627 -0.038606785 0.34640262 0.34477833 0.07641751
minecraft:stone_button 0.1709414 0.62949723 -0.7936176 0.10670371 0.09906941 0.40259767 0.20749745 0.03279996 0.25152558 -0.17358927 0.43102428 -0.42597187 0.21365803 0.015053139 -0.20018922 0.86255515 0.22292367 0.5980858 0.4635259 -0.18054283 -0.47769588 -0.32321516 -0.030592991 -0.17081669 -0.20667006 -0.22257242 0.18445462 0.0598147 0.3109978 0.16428791 0.22949205 0.275977 -0.14273076 0.90913963 0.13624556 0.47559705 -0.4323723 0.53276914 -0.21773414 0.2004608 1.0184213 -0.51390165 0.029251425 -0.03667138 0.14537296 0.31217185 -0.03184985 -0.21988788 -0.28908303 0.59589446 -0.62569505 -0.18717316 -0.18708372 -0.032561157 0.08662419 0.9729992 -0.17001972 0.10882834 -0.21962331 -0.18695867 -0.045359075 -0.42685232 0.25590965 -0.58088046
minecraft:sandstone 0.19576387 -0.21366537 -0.03985223 -0.7077999 0.027465217 -0.4562812 -0.20179187 0.24994747 0.27527717 0.083958514 0.09258697 0.040741038 0.051826503 -0.2079332 0.07353274 -0.025458379 -0.18939775 1.1725982 -0.25799212 -0.0681015 0.22022063 0.23410405 0.291961 -0.80792826 -0.0746511 0.4697447 -0.17330354 -0.43554857 -0.6495694 0.222072 -0.098472066 -1.2184187 -0.303914 0.1481428 0.46990776 -0.047308497 -0.058773413 -0.109035976 -0.18831864 -0.22948013 1.0673672 -0.31801006 0.5830165 -0.23716702 -0.22557358 0.22111486 0.75571054 -0.040681697 -0.03966875 0.0010146135 -0.33562252 0.096513085 -0.37206492 0.59757614 0.41612962 0.16184144 -0.35403255 -0.31841156 -0.23414886 -0.6374778 -0.19067284 0.23881078 0.4082381 -0.6187759
minecraft:carrots -0.15100293 -0.28515783 -0.37543538 0.06743999 0.0574908 0.14834441 1.082929 -0.27321348 -0.14177816 0.30137837 -0.065164514 0.073000215 0.3579025 1.3008254 -1.099361 -0.12283904 -0.008978529 0.93649817 0.57448214 0.23587629 0.046123415 0.016659819 -0.19949028 0.18936366 0.20385279 0.023461353 -0.18526204 -0.2238067 0.4370982 -0.11589029 -0.033521242 -1.1488285 0.30207887 -0.3059216 0.6690669 -0.31330526 -0.3260046 -0.007956837 0.27873927 -0.13044651 -0.099101484 -0.04789758 1.4316669 0.14876689 -0.04873367 0.012370413 0.28227296 -0.10648788 0.32128134 0.66217315 -0.19709843 -0.6308991 -0.8483925 0.18460941 -0.1391358 -0.39174598 0.421705 -0.8569294 -0.07060219 -0.8216158 -0.16499493 0.8027022 0.17469431 0.15482755
minecraft:flowing_water 0.20048167 -0.0991972 0.07872744 0.06640235 -0.2080353 0.11126159 0.21357043 0.4066077 -0.4563209 0.16606337 -0.5124854 0.07215019 0.10074446 0.8352489 -0.03973514 0.6236441 0.17840625 0.8642967 0.6124012 -0.17328365 -0.031467482 -0.13638689 -0.3147013 -0.5246461 0.04781421 0.26565322 0.258779 0.13265815 0.58273387 0.44966173 -0.097274534 -0.12402839 0.1017481 -0.08679729 0.1720732 0.11333791 -0.74477154 0.45266542 0.015683483 0.24759589 -0.09209004 0.061129868 0.55386597 -0.23876698 -0.6336638 0.5699186 -0.09534708 0.9884809 0.1808744 -0.21714409 -0.22081564 -0.45556906 -0.9394641 0.52002317 0.19879495 -0.14855647 -0.48631918 0.14517318 -0.13735491 -0.7511062 -0.6369084 0.4785492 0.38223687 0.10168974
minecraft:potatoes -0.05310823 -0.319224 0.33333874 -0.07574114 -0.04002391 0.3035265 0.42502892 -0.07683648 -0.060712304 0.24706215 -0.18399964 0.16124323 0.28456214 0.3846497 -0.6641871 -0.23792991 -0.16818343 0.30961958 1.2079203 0.2543599 -0.22315492 -0.13917509 -0.10383307 0.08813332 0.010345535 -0.22434792 -0.18715246 0.11700857 0.45767954 -0.08985007 0.18534963 -2.0339391 1.0270855 -0.3607291 0.6818452 -0.36147892 -0.56892866 -0.050707724 0.1138393 -0.16524711 -0.16448277 -0.68735075 0.8970106 0.19328208 -0.16081627 0.05891074 0.62517524 0.24793467 0.8792563 1.0308256 -0.13591456 0.17804854 -1.0249676 0.2262889 -0.0116247665 -0.26231727 0.37598795 -0.98216563 0.29551488 -0.75253093 -0.07826518 0.3062501 0.13002495 0.18543804
minecraft:iron_block 0.31623 0.66046506 -0.14282888 -0.12724335 0.18688403 0.09225469 0.6449484 0.59928566 -0.1841403 -0.097133495 0.47788036 -0.28123122 -0.1317753 0.93981296 -0.49511856 -0.23180845 -0.067209296 0.7963871 0.29680902 -1.0584384 -0.38532704 -0.33120403 0.05460746 -0.041851345 0.10086537 -0.23203269 -0.12937902 0.24174835 0.12273829 1.0906922 0.18498847 -0.009250106 -0.14265105 -0.21746737 0.22514124 0.66715205 0.30730495 0.5716451 -0.023973 0.14742175 1.0686053 0.12724145 0.08232226 -0.15481465 1.0049132 0.36728102 0.74036247 -0.20546758 -0.031981137 0.87963206 -1.1993382 -0.019948054 0.12712732 0.6099755 0.23453191 0.02931523 -0.69002426 0.04663485 -0.6534693 0.1385612 0.2892946 0.066022314 0.26998973 0.009183777
minecraft:log2 0.1940345 0.65186125 0.11309823 0.011858036 0.8548121 -0.48858884 -0.06037704 0.2098314 1.1147313 0.7119237 -0.22914828 0.14754015 0.02672091 -0.21830612 -0.21497653 -0.30651852 -0.012478497 0.25782818 -0.35294718 -0.20762411 -0.13503613 1.5924668 -0.06857289 -0.371998 0.3305931 0.34580085 -0.13842443 -0.28831384 -0.19825523 0.22155198 -0.70287603 0.047774885 -0.46898448 0.9831285 -0.13080318 -0.16745108 0.42481133 0.7420286 0.24567276 -0.032647237 -0.053841688 -0.23533444 0.6740686 -0.61315286 -0.14986162 0.17918244 -0.25654975 0.7764005 0.90408456 -0.34284475 -0.23180994 0.118653856 -0.08506971 0.22185177 0.105928265 0.046367086 0.37210247 -0.21840972 0.117432036 -0.3712378 0.018428959 -0.02461133 -0.0275016 -0.23441325
minecraft:beacon 0.1765167 0.55248255 0.10663933 0.22490764 0.09625689 -1.0131708 0.49662998 0.23700073 0.1469608 -0.19419675 0.18975317 -0.9161288 -0.32263276 0.12709725 -0.22869985 -0.25196397 -0.10316677 0.15403461 -0.40040624 -0.27808195 0.30694786 -0.21164605 -0.19644615 0.008977552 0.063933596 0.3339592 0.014708598 0.09272223 -0.050889555 1.0283163 -0.19228251 0.22044782 -0.20619522 -0.11025311 0.06296971 -0.15548044 -0.42363507 0.8650747 0.21074572 0.099265315 -0.31222972 -0.04647355 0.54260474 0.13258496 -0.10694878 -0.0047325813 1.093204 0.074110545 0.10970698 -0.0709606 -0.5955369 -0.1548709 -0.15719911 0.11462207 0.9014767 0.6061752 -0.5557144 0.37582088 -0.7289958 -0.14286214 0.031549674 0.38517314 1.0947299 -0.32166326
minecraft:mossy_cobblestone 0.2590022 0.6679907 0.6074587 -0.12920947 0.43908912 -0.9310638 1.0738853 -0.066983745 -0.060955957 0.23313633 0.12903804 -0.55854315 0.20475754 0.0063469284 -0.37987778 0.42271563 -0.20609422 0.07631314 0.7016706 0.026291259 -0.0053982805 -0.18031386 -0.8903811 -0.25615776 -0.38846156 1.4494898 -0.15888403 -0.74339586 0.22552325 0.47259742 0.30261326 0.40405756 -0.012158592 0.43247977 0.16129827 0.10411259 0.25151432 0.22577731 0.753727 0.09425406 -0.31778154 0.48663846 -0.13366787 -0.29516086 0.028099788 -0.38723788 0.18914498 -0.41198123 0.09326421 0.7771336 -0.040377777 0.42770472 -0.012650251 1.5369078 0.00023823002 -0.22750029 0.33819547 0.4379143 0.6195518 -0.5723576 -0.14401843 0.51415765 -0.027009064 -0.46703443
minecraft:noteblock -0.08343295 0.55912495 0.22102734 0.008271585 -0.25289586 -0.09540552 0.034906108 0.23787946 0.27524826 -0.0063228393 0.6954627 -0.56093895 -0.039573837 -0.23062493 -0.1055259 -0.22820419 0.16552699 -0.18363377 1.123769 0.21142586 -0.28490272 -0.15243007 0.3179522 -0.20988812 0.24220447 0.7534606 0.24020831 -0.30591598 -0.08659277 -0.0928221 -0.5842242 -0.37677774 0.44816732 1.4306568 0.34554735 0.30039272 0.20649835 0.91679454 -0.08568537 0.23932114 0.26058432 -0.39944744 -0.42568406 0.012388396 0.96831375 0.12466499 0.49709156 1.2490742 -0.13266389 0.37322912 -0.07640194 -0.7825161 -0.09816708 0.20118798 -0.08411457 -0.43561116 -0.6441979 0.20412323 -0.15360777 -0.35693413 -0.07994519 0.00032318852 0.060215827 -0.7243911
minecraft:nether_brick_fence 0.29095188 -0.033618793 -0.4039787 -0.547946 0.8961576 -0.22080934 -0.37497407 -0.48778495 -0.2827888 0.4134748 -0.3161783 -0.33550343 0.2774908 0.045203153 0.22154765 -0.19600871 0.5185111 0.16163778 0.17978708 0.46581274 -0.2569265 -0.47938555 0.112457074 0.055997696 -0.36803147 0.033858817 -0.22756153 0.2666853 -0.16118123 0.23423876 -0.79360837 -0.8716685 0.06950174 0.36598173 -0.54741573 -0.019144014 -1.052148 0.082821175 0.12526107 0.38546264 1.4345429 0.10383345 0.042612564 -0.26743302 -0.25207818 -0.55335814 0.21948856 0.2530123 0.5470957 1.2068977 0.21169585 -0.70336074 0.27778277 0.34096345 0.382323 0.52616817 -0.46900022 -0.2538518 0.5419454 0.0696195 -0.24158342 0.801965 0.5217132 0.5342782
minecraft:white_glazed_terracotta 0.4823611 0.36206344 -0.7833565 -0.11401124 0.14622624 -0.26478383 -0.2709099 0.0049017905 0.80789995 0.4160652 0.017672734 -0.77181244 0.8036338 -0.12892799 -0.5491615 0.58184063 -0.038742807 0.032867268 0.16394162 0.82623225 0.40428436 -0.59051996 0.19999689 0.10133095 -1.1218176 0.43377593 -0.012279003 -0.19697353 -0.21937853 0.31029823 -0.55072904 -0.03403545 0.0049931994 0.988839 -0.08851428 -0.40117848 0.46727538 0.36225313 0.21309814 1.8785033 -0.30730814 0.05025706 0.8537045 0.17481916 0.6939993 0.18982299 0.80450755 -0.41406384 0.5589999 0.22829942 -0.75089324 0.083840236 -0.65722036 -0.2537655 -0.5951529 0.8063435 -0.005280469 -0.03948163 0.48970535 -0.12913193 -0.0024206145 0.47437996 0.46373522 -0.31564897
minecraft:light_blue_glazed_terracotta 0.5061276 -0.05102047 -0.25167862 0.12007638 0.32426766 -1.1657056 -0.19254488 -0.37255597 -0.22083947 0.6482361 -0.0053251167 -1.0225241 0.27112895 0.073686875 -0.02949781 -0.20261863 -0.09051844 -0.015257007 -0.07250553 -0.0143590085 0.2157668 -0.3317193 -0.3572682 0.16124007 -1.2784784 0.0015001614 -0.0014531495 0.15820289 -0.14026475 0.5259997 -0.76850164 0.28980443 0.4676304 0.35007632 -0.34974182 -0.30905548 -0.23649846 0.12421151 1.1327944 0.6039909 -0.18505125 -0.34607062 0.398451 -0.03895832 0.49945605 0.0200515 1.4629914 -0.6062494 1.3043298 -0.46707654 -0.47123727 -0.09696171 -0.121895865 -0.1485487 -0.09352945 1.0315324 -0.4292764 -0.19658567 0.58203214 0.07051032 0.33493236 1.0401936 0.6775942 -1.0243639
minecraft:lime_glazed_terracotta 0.9457332 -0.3172385 -1.0546458 -0.045707673 -0.0887581 -0.14562665 -0.27017847 -0.14538822 -0.003251774 1.2083203 -0.112934545 -0.20066443 0.02605192 0.6521963 -0.5347792 -0.039177287 -0.04910394 -0.16783006 -0.12211907 0.33803865 0.10367787 -0.0655216 -1.1362307 0.05806414 -1.4335783 -0.1414017 -0.4127986 0.029612465 -0.24969976 0.21581271 -0.23720883 0.29287452 -0.23032343 0.5684914 0.076559566 -0.23034887 0.15408967 0.10177991 0.67967904 2.0763056 -0.28796628 0.10769626 0.03795325 -0.58347815 0.85151756 0.03268222 1.5877985 -0.14721864 0.21465816 -0.19041361 -0.017175317 -0.21260908 -0.2875626 0.07794123 0.48627427 0.6479754 0.12685981 -0.059806377 0.38351768 0.09693948 -0.005080318 0.34019276 0.11286197 -1.1159444
minecraft:pink_glazed_terracotta 0.3360061 -0.14761786 -0.19577816 0.10713752 -0.079632044 0.08696511 0.7517186 0.4194692 0.027120462 1.2555887 -0.15635307 -0.002750113 1.2752244 0.7416776 -0.8050649 -0.06174803 0.073251344 -0.07564223 -0.047729336 0.082342714 0.13208047 -0.047140945 -0.67251426 0.08769215 -1.0792661 -0.19291563 -0.1208565 0.19787398 -0.047411527 -0.0711542 -0.16051346 -0.70098746 -0.061354432 -0.13504994 0.14957058 -0.036241237 0.16274741 0.0077492013 1.7239146 0.41633105 -0.18440749 0.06273638 -0.045671947 -0.55364364 1.01126 0.23615505 1.5057055 -0.12248369 -0.0024539854 -0.16650324 -0.0067539434 -0.18104477 -0.82727957 -0.11237729 0.4223042 0.5244631 0.039808165 0.10732204 -0.06862207 0.12431282 0.07749543 0.22319771 0.21539624 -1.5099057
minecraft:yellow_glazed_terracotta 0.35464287 -0.41118628 -0.18915108 -0.34636495 0.19537644 -0.85811806 -0.280482 0.3284879 0.21070756 0.876667 -0.08914295 -0.038357485 0.4886517 -0.37790605 -0.29849866 0.15701708 0.47922018 -0.20136696 0.82547987 -0.2053932 -0.2500479 0.28843534 -0.8862879 0.37222797 -1.18685 0.4178854 0.07869899 -0.22745252 0.07774414 -0.10836212 0.38340867 -0.53822166 -0.27895948 0.07141223 0.3428677 -0.598993 0.3889603 0.37149638 1.0016379 1.7393584 -0.34651306 0.9710839 0.037417896 -0.14007106 1.1217347 0.4020535 0.26706865 -0.26670444 0.0027093426 -0.23105119 0.21882889 -0.34776017 -0.05445383 -0.2463315 -0.019601403 0.6405744 -0.30230495 0.032430906 -0.9026889 0.13935444 -0.3085778 -0.19171995 0.3176799 -1.6517135
minecraft:blue_glazed_terracotta 0.5054322 -0.1761907 -0.23512293 -0.20575684 -0.089372054 -0.07945071 -0.3942965 0.09531722 -0.8587015 -0.015599505 0.020891171 -0.44894454 -0.35690126 -0.037510764 -0.048098344 0.45598483 0.021173075 -0.0814128 0.0057868958 -0.8889809 0.14133687 -0.09238983 -0.25978822 0.07423784 -1.1172632 -0.20637962 0.43099478 -0.18535475 -0.27234834 1.2568363 -0.02296817 0.2654206 -0.26412806 -0.34905156 -0.02612318 -0.38729644 -0.104676686 1.6145868 1.137475 1.1107879 -0.4255879 -0.1655428 0.0020602888 0.40400365 1.39693 -0.13491586 0.85987073 -0.22827876 0.66934574 -0.3531047 0.012781215 -0.16145374 -0.4620012 0.1825095 -0.12020277 0.8469036 -0.44547996 0.081331834 0.54827935 0.17759202 -0.023717158 0.16536333 0.33618364 -1.0041858
minecraft:red_glazed_terracotta 0.44804588 -0.030449409 -0.11204191 0.026605757 0.11012081 -0.8211552 -0.37539837 -0.42643952 -0.3115657 -0.061568484 0.1707461 0.23190132 0.20202792 -0.3275986 -0.27288434 1.1508303 0.26671323 -0.12497894 1.0754744 0.503799 -0.05094318 -0.214915 -0.41301927 -0.03741795 -1.8684604 0.43562138 0.7190979 0.046466794 0.29820824 0.67634773 0.13143903 -1.3607112 -0.4362282 0.39978698 -0.40751195 -0.15538663 0.22165611 0.14616221 0.34089798 0.28696373 -0.27028567 0.007525334 0.53952515 -0.38154897 0.4454355 -0.7476107 1.6051731 -0.060746353 0.50683403 -0.13462766 -0.14296207 0.33331394 -0.7257913 0.0055484194 -0.1001 0.6465806 0.6676112 -0.26806048 0.19044547 -0.06390674 -0.40167361 -0.38783258 -0.14452223 -1.3876102
minecraft:purpur_pillar 0.37015754 -0.27575383 0.34707674 -0.34694672 1.1614354 0.3866233 -0.087718256 0.12535994 0.4548659 -0.028246379 -0.0712112 -0.5659399 0.02800289 -0.37667647 0.1779627 -0.16530962 0.7735125 -0.11559764 0.81089723 0.24609336 0.032266624 0.4196767 -0.79534197 0.06906009 -0.108123876 0.12470022 0.47802687 0.43014312 -0.73250663 0.29704142 -0.0034619283 0.24615414 0.029861456 0.78592706 0.29297408 0.15106341 0.1360452 -0.28315407 0.128658 0.7088097 0.7900523 0.08940388 0.5816414 0.064265616 0.58385074 -0.4579301 0.23377682 -0.3455935 -0.1934581 -0.1860368 -1.4497205 -0.034272626 -0.81393015 -0.3794592 1.7672164 0.44119737 -0.20865571 -0.2746597 0.5518439 -0.44357657 -0.082499795 -0.21963912 -0.14910083 -0.093709804
minecraft:purpur_stairs -0.5743684 -0.14270014 0.3100838 -0.034861892 0.8694185 0.1348422 -0.12878256 -0.034961637 -0.27314174 0.15250023 -0.3530309 -0.58910894 0.24925293 -0.23299266 -0.15582712 0.4927519 0.599492 -0.02690685 0.3321281 -0.01190771 0.28806052 0.74290127 -1.1507225 -0.42362568 -0.15255462 -0.08578771 1.1223578 0.28363824 -0.36783826 0.69107914 0.19565432 0.31319582 0.4762531 -0.42461935 0.3837989 0.37073594 -0.3616684 0.02926066 0.5416949 0.008087761 0.24479711 0.013502145 1.0373187 0.1077069 0.242446 0.19878636 0.60862356 -0.09130818 -0.5309546 0.26587594 -0.7060166 0.43650806 -0.9007455 -0.40722334 0.63321364 -0.19379881 -0.25057968 0.15487924 0.21820919 0.0736527 0.081288636 -0.233491 0.5797301 -0.07451129
minecraft:purpur_block 0.58193797 -0.27381688 0.36708507 -0.20692456 1.1942228 0.31226858 -0.08868602 0.017687384 0.94332194 0.07145152 -0.16725239 -0.8612671 -0.2943108 -0.24099778 -0.02828076 -0.51278085 1.0582834 -0.009938252 0.41938233 0.31247193 0.10947036 0.43054575 -0.9561247 -0.498438 -0.18250288 -0.3610133 0.2690464 0.15510863 -0.2940365 0.9540058 0.10338924 -0.03496629 -0.057187624 0.09488832 0.54851407 -0.08677531 -0.5124181 -0.19126408 -0.16046041 0.67353016 0.676154 0.3936027 -0.31014624 0.094110936 0.5957553 0.16708086 1.5995542 -0.249246 -0.11460671 0.19514354 -0.9436233 -0.055008758 -1.0970055 -0.1475001 0.62199587 0.08120949 0.33791986 0.31195983 -0.07571619 -0.84456974 0.08581422 -0.27251622 -0.21962371 -0.78267163
minecraft:clay 0.40061817 0.064324446 0.05668588 -0.19095801 0.578654 0.5533208 0.44769725 0.06427025 -0.2046324 -0.09267569 -0.16329132 -0.32332295 0.52579105 -0.12646185 0.22463574 0.7971892 0.15842852 0.10967588 0.07883134 0.17055409 -0.33238164 0.19061202 0.15770477 -0.37210584 -0.7432208 -0.09615993 -0.3645759 -1.5552852 -0.045524094 0.10125132 -0.8181148 0.086250685 -0.09600103 0.85219663 -0.41672754 0.98213536 0.5023347 0.20830485 0.19786343 0.9977525 0.593391 -0.5282392 -0.3998942 -0.9816112 1.1564422 0.017056627 0.11823429 0.010736394 1.0297413 0.14204107 -0.3359565 -0.88116133 0.06265773 -0.031986102 0.012873665 0.3707604 0.44487762 0.12149643 0.26920074 0.3626907 0.32527575 1.0360875 0.20228072 -0.4399544
minecraft:end_rod -0.14039037 -0.26044706 -0.22077626 -0.052440703 0.49360916 0.046852235 0.22751321 0.6556914 -0.06376101 0.10854276 0.034599826 -0.45293298 0.015728038 -0.11653578 -0.029277604 0.12785214 0.3403125 0.25114292 -0.012841379 0.1712143 0.33718276 -0.4602304 -0.88034904 -0.8380008 0.13598387 -0.06860264 0.5721897 0.26386234 0.23258588 0.2225992 -0.20585464 -0.33265907 0.44963863 -0.026239155 -0.30828685 0.88477296 0.16226362 0.38203293 -0.041539796 0.045149416 1.0962232 -0.6915982 -0.051759034 -0.40512675 0.39392707 -0.16421826 0.15571001 0.8228043 -0.015987657 0.26057485 -0.5197257 -0.19319622 -0.43859434 -0.09881872 0.18243904 0.793212 -0.24148728 0.23775472 0.15248103 -0.21746002 0.4097229 0.031133804 0.38872534 0.3089979
minecraft:sandstone_stairs 0.470492 -0.63929474 -0.13225837 -1.3222132 -0.18335123 -0.6743453 -0.059087336 1.4618917 0.2294376 0.21315181 0.14948364 0.046731107 0.48730323 -0.25854552 -0.3656493 0.7095004 0.14251089 0.72414863 -0.51869386 0.16384694 0.11783488 -0.18996927 0.07657246 -0.25079712 -0.21992303 0.81035256 -0.09570944 -0.019410698 -0.43618846 0.7769755 0.037553094 -0.2947359 -0.30243593 -0.27715442 0.80990756 0.023474304 -0.23705985 -0.017493382 -0.15963306 -0.26440188 0.36907637 -0.34226215 0.568615 0.024781682 -0.065828696 0.15289941 0.017296614 -0.07402666 -0.32726443 0.1730694 -1.160368 -1.021477 -0.20901315 0.6340843 0.33283433 0.61687636 -0.3727823 -0.02678434 -0.25516343 -0.24356106 -0.16709493 -0.5046934 0.4086128 -0.070508525
minecraft:sapling 0.40445384 -0.22126514 -0.34814894 -0.106842645 0.89739573 -0.30667427 0.13086577 -0.0012283425 -0.41263935 -0.092673324 0.4046357 0.18930623 0.1403309 0.23043819 -0.25859377 0.018280618 0.3664118 0.19789775 0.85894173 0.04018491 -0.09832697 0.49494243 -0.1555289 0.04501811 0.06903723 0.0074494095 -0.31602722 -0.44697854 0.15982917 0.23482594 0.098341644 -0.993023 0.40833777 -0.30680615 0.3517354 0.505401 -0.06636719 -0.31197733 -0.08826931 0.44950613 0.05579859 -0.21090047 0.48138165 -0.899533 -0.22517699 -0.00325364 0.66271573 -0.16857617 1.6102214 0.39250296 -0.38104734 -1.0402145 -0.3887749 0.017858278 -0.15944703 0.37102106 0.27476683 -0.042047735 0.1530936 -0.48932132 -0.3406783 -0.2772408 0.24182646 -0.017406628
minecraft:light_gray_glazed_terracotta 0.51535994 -0.09115812 -0.72279435 -1.6891176 0.23918474 -0.2056196 0.56931853 -0.2104598 0.4447815 0.3378086 0.16428244 -0.80132675 -0.34510395 -0.30281502 0.044231378 0.64319533 0.37467 -0.3650656 0.345193 0.19155172 0.11411135 0.17200758 -0.41018793 0.27285013 -1.0344013 -0.36690387 0.1951974 -0.011225671 0.14400323 0.39352596 -0.23851024 0.2605039 -0.35429168 0.33298066 0.39655936 -0.47093883 0.26085126 1.0594981 0.9776697 0.5767461 0.15313327 0.13075398 -0.19676453 0.38202438 0.031425744 0.33131853 -0.18679906 0.5520547 -0.0088270195 -0.20770527 -0.047020562 0.056710716 -0.14470129 0.99256456 0.27693325 0.07728028 -0.6035095 0.13825181 0.045507096 -0.7199895 0.046196222 1.1918054 0.27815056 -1.2193323
minecraft:end_portal_frame 0.04452185 -0.08644237 -0.0042215143 -1.4014354 0.45872515 -0.68411046 0.03188492 -0.03632246 -0.15000506 -0.16709211 -0.3812868 -0.24310976 0.37509444 -0.026415192 -0.5502386 0.873793 0.13732393 -0.2706791 -0.13298422 -0.4935481 -0.031098641 0.16007817 -1.8636259 -0.8428903 -1.3208637 -0.56906086 1.0603399 -0.054690797 0.2291177 0.17527056 0.024591744 0.10452748 0.77914804 -0.22421327 -0.0062487316 -0.53033006 0.1422895 0.03919786 -0.13256803 -0.3397157 0.019611975 0.40157923 -0.17636742 -0.024700576 0.262241 0.10310325 0.10980511 0.38462904 0.020430634 1.7718602 0.25461593 -0.026274595 -0.5387263 0.76836133 0.96564204 0.9395769 0.2967288 0.19635683 -0.24813293 -0.8495772 -0.06217409 0.37710056 0.22600426 -0.046764694
minecraft:hay_block -0.45090744 -0.25793156 0.4550874 -0.06200164 0.12616551 -1.9023335 0.08378146 0.25589114 0.11053312 0.8970931 -0.3113874 -0.27152923 0.44446972 -0.07111363 -0.17650019 0.18165544 0.08947049 -0.0936503 1.6416442 0.09994515 -0.032326322 1.1116279 0.3230357 0.1328125 -0.17404358 -0.16634747 -0.2507548 -0.25260764 -1.0530317 0.21865088 0.15009889 -1.2994435 0.54512507 0.38262853 0.95609695 0.1853393 0.119286075 0.30276287 -0.14585325 0.4262653 -0.31835362 0.37830466 -0.058371805 -0.61949986 1.3464888 0.040120788 0.9551202 -0.04626012 -0.01900084 -0.005804025 -0.42582828 -0.53444123 0.096154094 -0.03014668 0.74022055 0.24116126 -0.14256407 -0.04324104 0.053031217 0.21931612 -0.05507885 -0.40949902 -0.024723666 -0.1312801
minecraft:web 0.23754634 -0.056660898 0.11596408 -0.350021 0.09602797 0.07932692 0.34425768 0.34773132 0.48114944 0.55806476 -0.3383061 -0.39250585 0.6356886 -0.13137628 -0.44677663 -0.13543217 0.2291184 -0.30239573 0.65385884 0.76437914 -0.7295782 0.484685 -0.3774058 -0.38469642 0.10247232 -0.042754114 0.6281101 -0.1698576 -0.40625674 0.643085 -1.0316004 0.037506975 -0.16526349 -0.42737904 -0.40652105 -0.12504245 -0.85721445 -0.29966214 -0.32246143 0.2914617 -0.17469388 -0.15254188 0.09652791 -0.085750625 0.38206697 0.19319655 0.88995147 1.1196675 -0.21589622 0.08670815 0.109364934 0.23326565 -0.06636845 0.10014926 -0.38614893 0.09105265 0.2853416 -0.12896124 0.05264128 -0.42270827 -0.23017159 0.26552433 0.3229209 0.38685796
minecraft:beetroots 0.4648491 -0.102624945 0.4755749 0.25087482 0.12341278 0.12950766 1.0864779 -0.19482045 -0.21580835 0.062455684 -0.23834717 0.02055297 1.4303981 1.0504637 -0.944485 -0.19439511 -0.07557637 0.48917964 1.3381072 0.28712115 0.03514604 -0.0938859 0.22818346 0.09351835 0.2063227 -0.20537949 -0.040024217 -0.17744029 0.36496776 0.17097767 -0.16863336 -1.4135038 0.26225019 -0.06790442 1.6868258 0.022002492 -0.4936318 0.10682863 0.097809404 -0.018729255 -0.12716733 0.1611597 1.5496819 -0.36972013 -0.051850937 0.21806848 0.57187885 -0.1454323 0.23685504 0.25159678 -0.249195 -0.5640723 -1.6381675 -0.079615384 -0.08274055 -0.052811805 0.30066344 -0.10902323 -0.6815385 -0.22962949 0.02905381 0.3529046 0.18278044 -0.000531613
minecraft:melon_stem 0.4146381 -0.42299548 0.50716877 -0.13162631 0.76463044 -0.15725413 0.22835684 0.082496695 -0.004213509 0.6468479 -0.32295245 0.0587756 -0.030229567 0.9165301 -0.326818 -0.04721487 0.40530497 0.26391515 1.7919149 0.14568385 -0.16342913 -0.029950017 -0.06330219 -0.19510335 0.25052947 0.22415434 -0.4111829 0.088541195 0.22762743 0.04662854 -0.0585419 -0.20693445 0.5757105 -0.22911543 0.3100918 0.51856583 -0.8012649 0.7096002 0.3418767 -0.426794 -0.3307357 0.27347448 0.71074116 0.43380126 -0.13523287 0.008271348 -0.07715423 0.5346684 0.9128489 0.07815209 -0.06773815 -0.45506194 -0.6505569 0.59362227 -0.088321574 -0.01731208 -0.09271732 0.093972035 0.1532789 -1.1323088 -0.0839828 0.62238365 0.3775001 -0.23794283
